
Layer 1: dense_3
Weights:
{{0.006120,0.116914,-0.088150,-0.153153,0.002145,0.099040,-0.025951,-0.207551,-0.118655,-0.001626,-0.012654,-0.033764,-0.101261,0.116190,-0.168646,0.149508,0.181585,-0.040579,-0.118959,-0.067468,-0.064502,0.159843,-0.034324,-0.133521,-0.041073,0.009982,-0.089924,0.144906,-0.089708,0.096705,0.101353,-0.129953,0.127024,-0.071969,-0.057426,0.098391,-0.025764,-0.065234,0.041909,0.115342,-0.186736,0.085693},
{-0.074702,0.042165,0.185141,0.168130,-0.112499,-0.037496,-0.102545,0.028107,-0.137098,0.015550,0.111939,-0.021577,-0.181750,-0.089934,0.158685,-0.178966,0.076149,-0.169365,-0.074028,0.158348,-0.125594,0.062386,0.185228,-0.019737,-0.179923,-0.103116,0.087415,0.130340,0.125739,0.126629,0.172498,-0.076122,0.002225,0.113598,-0.106757,-0.119672,0.053176,-0.030371,0.186482,-0.029771,-0.021358,0.128909},
{-0.070347,0.056945,0.117700,-0.109613,-0.060213,-0.115029,-0.160291,0.075750,-0.060855,-0.037190,0.109048,0.060063,-0.130246,-0.108052,-0.058232,0.001554,0.014761,0.154558,0.046153,-0.170401,-0.090634,-0.089227,0.012826,0.086441,-0.000764,0.010688,-0.128105,-0.010376,0.062397,-0.006472,0.116020,-0.151563,0.006520,0.167587,-0.025810,0.100277,-0.024555,-0.065442,-0.059395,0.098681,0.138651,-0.143669},
{0.125512,0.178632,0.091506,-0.172083,-0.099798,0.047725,0.038713,-0.216948,-0.153475,-0.228517,0.119759,0.068531,-0.150566,0.108202,0.174654,0.069683,0.090951,-0.165893,-0.185679,-0.169328,0.078405,-0.101508,-0.055300,-0.010806,0.116193,0.163353,0.008368,0.155835,-0.153333,0.015714,0.033085,0.151064,0.111068,-0.075981,-0.192750,-0.180449,0.145310,0.021473,-0.132975,0.051080,-0.124642,0.118953},
{-0.061373,-0.130753,0.041808,0.100064,-0.170451,0.103519,-0.062576,-0.189823,-0.199901,-0.036303,0.080623,0.169244,-0.102369,-0.101207,-0.051152,-0.092278,0.087397,-0.078095,0.036519,-0.168257,0.125691,-0.144003,-0.018058,0.185926,-0.047371,0.100981,0.058555,0.116132,0.104671,-0.133409,-0.099051,0.215490,-0.072163,0.052803,0.180770,0.151880,0.088391,-0.119277,0.218161,-0.036622,0.093442,-0.112318},
{0.101467,-0.101491,-0.178919,0.179083,-0.130848,-0.122178,-0.075898,-0.120067,-0.152725,0.130795,-0.123300,0.138664,0.147329,-0.006513,-0.064727,0.100411,-0.014234,-0.037335,0.131471,0.053914,0.066648,0.117995,-0.105060,0.007819,0.262150,0.047563,-0.200061,0.088800,-0.101906,-0.179953,-0.140827,-0.022137,0.109139,0.012242,0.061277,0.094132,0.101331,0.126769,0.036171,-0.025764,0.095684,0.182045},
{-0.153187,-0.178920,0.086948,-0.153710,0.125127,-0.019263,0.134315,0.162258,0.060963,0.168384,-0.221473,0.178943,0.146588,0.059152,0.015915,0.005711,-0.207898,-0.150419,-0.161398,-0.033806,0.169131,0.109698,0.188934,0.095512,0.070805,-0.102247,-0.015080,0.088394,-0.025839,0.038439,0.013499,-0.049870,-0.142528,-0.157594,0.177820,-0.166133,-0.028024,-0.053995,0.061703,0.180406,-0.133589,-0.108973},
{-0.017065,0.025711,-0.203442,-0.080980,0.105530,-0.138061,-0.127838,-0.075917,0.048241,-0.170908,0.198924,-0.096619,0.097508,-0.010091,0.078855,-0.062061,-0.029118,-0.114443,0.002853,0.192887,-0.172414,0.062037,0.163631,0.072656,-0.119959,0.083196,-0.046371,-0.105218,0.175567,0.113138,-0.148832,0.062841,0.123096,-0.081626,0.140985,-0.106661,0.059960,-0.146222,0.096909,0.171411,-0.012719,-0.040525},
{0.121694,-0.178950,0.088521,-0.107257,0.011842,0.129037,0.097149,0.064513,0.031822,0.073506,-0.240820,-0.001485,-0.012163,0.178981,-0.049610,0.087211,-0.072945,-0.177776,-0.170798,0.059686,-0.120195,-0.288685,0.077987,0.122046,-0.070865,-0.184242,-0.097575,-0.015953,-0.087353,-0.061779,-0.121513,0.152975,-0.097685,-0.073566,0.066877,0.075495,0.120546,0.080365,-0.073504,0.141586,-0.092301,-0.139345},
{0.013571,0.092624,0.036064,-0.070456,0.119172,0.054181,-0.010109,0.167327,-0.153877,0.005595,0.181028,-0.126179,-0.054612,-0.119353,-0.156341,-0.157561,-0.000412,0.011540,0.119387,-0.006245,-0.040501,0.178879,0.081470,-0.033699,0.077005,-0.113308,0.030924,-0.005439,-0.165463,-0.127824,-0.111761,0.218056,0.160418,0.057708,-0.023636,0.006989,-0.181418,-0.172102,0.138105,0.121702,-0.173574,-0.051119},
{0.147940,-0.145732,0.141902,-0.185963,0.105183,-0.143371,-0.127854,0.246525,-0.192820,-0.068340,0.045762,0.162136,0.062380,0.130875,0.219469,0.169967,0.158462,0.107367,0.013214,-0.108485,-0.116671,0.109659,-0.141094,0.103480,0.146649,0.026069,-0.132520,-0.191415,-0.029487,0.137711,0.048477,-0.020410,-0.200911,-0.169437,0.114950,0.011868,0.130832,-0.071195,0.107650,-0.044844,0.060182,0.161644},
{0.072651,-0.054212,-0.113289,0.041487,-0.007212,-0.022114,-0.077483,0.054116,-0.068293,0.119311,0.055833,-0.097056,-0.110864,-0.177069,-0.097037,-0.184184,0.014903,-0.112530,0.021443,-0.022265,-0.120101,0.057200,0.009422,-0.132114,-0.016834,-0.185012,0.127496,-0.052601,0.128567,0.048999,0.157593,0.054180,-0.049698,-0.095146,-0.050299,0.129189,-0.176837,0.036179,0.006140,-0.069295,-0.139632,-0.087445},
{-0.106869,-0.067577,0.069150,0.132244,-0.036522,0.058792,-0.139326,-0.190011,-0.105205,-0.112090,0.061570,0.189249,-0.052622,0.039179,-0.095786,-0.122521,0.082042,-0.122452,0.121681,0.096269,-0.056681,0.151419,-0.048930,0.164996,-0.069767,-0.120254,0.208695,0.041051,0.177540,0.104771,0.225569,-0.094236,0.006778,-0.130277,-0.189171,-0.121943,-0.033719,0.033379,0.084406,0.179422,0.128573,0.092789},
{-0.138531,-0.036352,-0.123979,0.044192,-0.003372,0.023058,-0.026466,-0.136704,-0.133745,-0.108556,-0.100230,0.174491,-0.002021,-0.149662,0.118448,0.174243,0.063667,0.053888,0.171528,-0.062429,0.106532,-0.074068,0.024691,-0.042426,0.137610,-0.106106,-0.090550,-0.125621,-0.239105,-0.113678,-0.043505,0.158166,0.062634,0.104738,0.085091,-0.044708,0.138439,0.166945,-0.013819,0.151276,0.159350,0.119367},
{-0.103157,0.121099,0.089206,0.141031,-0.003597,-0.101528,0.132058,0.241209,-0.161844,0.107285,-0.006818,-0.006319,-0.055377,-0.070286,-0.176922,-0.154740,0.023867,-0.055858,0.118106,-0.123670,0.160888,0.208119,-0.007015,-0.046488,-0.136869,-0.035787,-0.067702,-0.077380,0.080649,0.079242,0.017626,0.161653,-0.024593,-0.165647,-0.001725,0.124253,0.021287,-0.160951,0.091213,-0.096733,0.000266,0.035207},
{0.110095,-0.111355,-0.151896,-0.035723,0.057012,-0.192181,-0.052813,-0.129269,0.122030,-0.023975,-0.156826,0.060454,0.039710,0.089728,-0.023261,0.084437,-0.096608,-0.108126,-0.083319,-0.166032,-0.157390,-0.128445,-0.186095,0.051145,-0.057298,0.160510,-0.060156,-0.013516,0.123773,-0.234504,0.135644,0.166041,0.079948,-0.142303,-0.128833,-0.127757,0.067966,-0.007572,-0.047110,0.055064,-0.135377,0.061516},
{0.005812,-0.007441,-0.044718,-0.054920,-0.001225,0.086515,-0.137907,0.173138,-0.161764,0.061936,0.144216,0.212253,0.179411,0.014569,0.035075,-0.010355,0.202042,-0.073560,-0.114920,0.192712,-0.180883,-0.204267,0.069725,-0.170034,-0.010425,0.058745,-0.046828,0.001572,0.133474,0.185015,-0.030980,-0.011651,0.210367,-0.110295,-0.039712,0.134077,0.206396,0.157452,0.126682,0.048599,-0.031467,0.168194},
{-0.187854,-0.076908,0.037645,-0.112482,-0.100402,-0.179986,-0.064550,-0.135743,0.071598,-0.049922,0.001393,-0.136051,0.157499,0.060873,0.126705,-0.135117,0.178665,0.047507,-0.149991,0.073319,-0.014900,0.070888,0.029098,-0.087011,-0.025316,-0.115332,-0.098652,-0.181143,0.002081,-0.211410,-0.093296,0.155784,-0.013493,-0.203099,-0.057633,0.154615,-0.154730,-0.220948,-0.090671,-0.084992,0.104917,0.018892},
{-0.116020,0.031918,0.068070,-0.034923,-0.034329,0.187556,-0.128461,0.246743,-0.002556,0.011879,0.006214,0.002177,0.076279,0.102971,0.025155,-0.058761,-0.195465,0.163998,-0.068925,0.240988,0.040678,-0.142193,0.132830,-0.076023,-0.191493,0.110943,-0.077555,0.085505,0.052108,0.068011,0.059784,0.108332,0.198794,0.005926,-0.067769,-0.100537,0.026650,-0.083722,-0.028225,0.073522,0.134398,0.073258},
{-0.028884,0.039632,-0.182721,0.135673,-0.140080,-0.062347,0.057398,0.042053,0.067788,-0.033350,-0.179022,-0.129539,0.024513,0.049186,-0.042189,-0.149207,-0.079144,0.015543,-0.124523,-0.105774,0.125934,-0.016126,-0.164706,-0.132251,-0.056608,-0.067646,0.011305,-0.152675,-0.071822,-0.012690,0.123640,-0.022343,-0.179213,0.145072,-0.099706,0.075279,0.068261,-0.023027,0.016256,0.100546,-0.016863,0.070913},
{0.158016,0.157777,0.120016,0.090360,-0.144752,-0.046207,0.092375,-0.128005,0.138325,-0.193914,-0.006245,-0.076629,0.133802,0.117828,0.025592,-0.174277,-0.132061,-0.119204,0.087477,-0.205896,-0.090170,-0.046108,-0.131148,-0.014138,-0.181346,-0.162238,-0.023265,0.049064,-0.182035,-0.232214,0.061287,0.138532,-0.196252,-0.157215,0.138274,-0.208018,0.055617,-0.098511,-0.171253,-0.235492,-0.051916,0.114824},
{0.095793,0.150190,0.152483,-0.195295,-0.124251,0.135821,-0.113176,-0.092788,-0.047105,0.116785,-0.200662,0.014878,0.129628,0.047160,0.211592,0.059167,0.101772,-0.022320,-0.018906,-0.171265,-0.131054,0.072447,-0.022952,0.126387,0.027187,-0.075721,0.074144,0.051054,0.017448,0.135189,-0.061994,0.021527,0.113832,0.102832,0.125376,-0.147495,0.004617,-0.097598,0.019147,0.153121,-0.078528,-0.047066},
{0.013312,-0.150206,0.067744,0.128996,0.072619,0.004965,0.059243,0.173362,-0.145688,0.128402,-0.138103,-0.049512,-0.051230,-0.010030,0.042139,-0.089878,0.012322,-0.154924,0.170263,0.120028,0.088096,0.185589,0.012659,0.190344,-0.144802,-0.061874,-0.053197,-0.007318,0.199492,0.177470,-0.004334,0.013456,-0.138156,-0.157494,0.128210,-0.099732,0.053818,-0.068444,0.192590,-0.138322,0.175231,-0.126636},
{-0.154525,0.158264,-0.010134,-0.074126,0.106075,0.093043,-0.014537,-0.144004,0.035992,-0.010654,-0.180219,-0.032259,0.089768,0.066742,-0.236138,0.035878,-0.050391,0.164245,-0.015161,0.013748,0.085876,0.109894,-0.120865,-0.000243,0.189801,0.130765,0.018727,0.034714,-0.059951,-0.148941,0.055041,0.191794,-0.188596,0.004917,-0.206899,0.018019,-0.076097,0.059192,0.195161,0.051263,-0.178784,-0.184295},
{-0.082385,-0.067220,0.021699,0.020984,0.068335,0.079306,-0.015721,-0.145244,-0.129437,-0.050679,-0.168673,-0.108136,-0.007586,0.104048,0.106789,-0.012606,-0.017457,-0.003770,0.015608,-0.049886,-0.043361,0.051963,-0.043745,-0.095687,-0.160099,0.147004,-0.054178,0.140051,0.167643,0.093146,0.059843,-0.083315,0.050434,-0.044815,-0.134653,-0.047484,0.010218,-0.099229,-0.090324,-0.152151,-0.023479,-0.018702},
{0.013392,0.218810,-0.151867,0.125961,0.098956,-0.146645,-0.082553,0.236307,-0.095087,-0.189529,0.198415,0.105360,0.005296,-0.041492,-0.076358,-0.107631,0.028325,0.180384,0.007721,0.028585,0.005818,-0.167554,-0.172592,0.213852,-0.105961,0.190382,-0.108907,-0.132298,-0.042829,0.134681,0.003826,0.059187,0.039801,-0.164319,0.010160,0.080012,0.184198,-0.218376,0.065569,-0.088128,0.096315,0.084409},
{0.192743,-0.029611,-0.049176,0.160356,-0.106335,-0.129638,0.027719,0.154292,-0.136733,-0.004276,0.196238,-0.109938,-0.157498,0.093473,-0.066613,-0.008486,-0.268047,0.266031,0.116517,0.002756,0.186460,0.276108,-0.014770,0.226576,0.179291,-0.069214,-0.059689,0.090362,-0.012049,-0.009411,-0.084729,-0.082326,0.004006,0.043446,-0.070001,-0.099768,0.164849,0.033773,-0.098799,0.010542,0.212139,0.060035},
{0.091458,-0.150852,0.115519,-0.146923,0.142060,0.006311,0.187922,-0.127766,-0.107797,0.021720,-0.019402,-0.150205,-0.056643,-0.001240,-0.170857,0.103585,0.006040,0.083155,0.061043,0.068365,-0.033203,0.157654,-0.135855,0.157616,0.073068,-0.124704,0.087866,0.145324,0.135640,0.146970,0.085648,-0.109491,-0.125775,-0.036532,0.033570,-0.066218,-0.095786,0.024414,-0.118189,0.138147,0.196924,-0.127705},
{0.030941,0.142239,-0.124207,-0.077488,0.029420,-0.164652,-0.020947,-0.119920,-0.197490,-0.152266,0.130323,0.094228,-0.188329,-0.026721,-0.012335,-0.195226,0.046355,-0.022045,0.044293,0.014603,0.151947,-0.053158,-0.193834,0.109418,0.072229,-0.069073,-0.087624,0.100981,0.125570,-0.200371,0.105913,0.007947,-0.189748,-0.090739,-0.026850,0.033979,0.064123,-0.175767,-0.148352,-0.018979,-0.142289,0.139926},
{0.128910,0.090922,-0.123090,0.083970,-0.106375,0.168351,0.116853,0.017649,0.079287,0.124965,-0.034538,0.015363,0.120114,0.114686,-0.025727,0.098291,-0.095596,-0.093806,-0.111545,0.011169,0.046282,-0.009827,-0.094172,-0.007844,-0.030503,-0.055266,0.017050,0.002234,-0.111746,0.081484,-0.099147,0.146822,-0.157001,0.113720,0.055494,0.023839,0.044212,-0.048374,0.164013,-0.017115,0.155975,0.092992},
{0.078801,-0.007507,-0.100807,-0.011897,0.187957,-0.144794,0.108814,0.112913,-0.022618,0.117238,0.090441,-0.096337,0.022765,-0.124519,0.081654,-0.177953,0.023396,0.042548,-0.188876,0.095645,0.058102,-0.103951,0.168475,-0.008708,-0.056236,-0.178865,-0.000613,0.002222,0.109542,-0.007246,-0.017549,-0.141239,-0.100394,-0.136981,-0.026114,-0.004004,-0.031850,-0.109343,0.018018,-0.107208,0.055315,-0.046518},
{0.081229,-0.008486,-0.048094,0.140367,-0.090484,-0.107138,-0.132396,-0.051367,-0.167057,0.150345,0.224237,0.090453,-0.036217,0.009318,0.087852,-0.150347,0.112056,0.082801,0.182345,0.120091,0.012723,-0.011878,0.160480,-0.103559,-0.045250,-0.003671,-0.163705,-0.075098,-0.147447,0.179257,-0.217233,0.031899,-0.069558,-0.113629,0.001926,0.079255,0.134376,0.126208,0.057416,0.156726,0.079649,-0.054312},
{-0.093647,-0.183148,0.015842,-0.114608,-0.085647,-0.159508,-0.189834,-0.021418,-0.166991,-0.112950,-0.012407,-0.017466,0.116462,-0.138980,-0.027634,0.118423,-0.156616,0.075440,0.163071,-0.067158,0.058586,0.137424,-0.002965,-0.113853,0.098344,0.103386,0.002998,-0.104943,-0.001389,0.196340,0.011115,0.020003,0.011490,-0.141396,-0.073602,-0.064421,-0.084832,0.190212,-0.176067,0.079477,0.123969,0.105618},
{0.062702,0.069248,-0.144824,-0.015923,0.030382,0.038358,-0.142944,0.153449,0.108356,-0.013819,0.072673,-0.032956,0.021346,0.060527,0.096217,0.217267,0.124679,-0.199482,-0.150535,0.097257,0.128417,0.033451,0.225456,-0.002956,0.047769,0.141785,-0.032000,-0.003899,-0.232675,-0.106942,0.029748,0.081359,-0.116665,0.037436,0.084510,-0.112675,0.053440,0.156149,0.085568,0.148190,-0.076833,0.014492},
{0.035197,0.121285,-0.087771,0.010672,0.098304,-0.047048,-0.043118,-0.142232,0.041479,-0.093613,0.051712,0.156062,-0.027857,0.075747,-0.126458,-0.111501,-0.139325,-0.123338,0.150223,-0.064177,0.069353,0.256787,0.141966,-0.131391,0.096714,0.133885,-0.173109,-0.038144,-0.056420,-0.120943,0.026936,-0.007924,-0.048751,-0.067922,-0.103250,-0.166319,-0.109783,0.105556,-0.085634,0.128614,0.136653,0.056832},
{0.080779,-0.137642,-0.079702,0.070392,0.132628,0.023302,0.192727,-0.124728,0.066003,0.024159,-0.168033,-0.131314,0.158344,-0.101034,-0.215517,-0.112955,0.090907,0.018271,0.128603,-0.135525,-0.033006,-0.015292,0.039619,-0.041652,-0.172739,-0.045690,-0.035188,-0.092562,-0.197130,0.012697,0.149651,-0.177746,-0.046114,-0.074871,-0.043407,0.205580,0.018426,0.141924,-0.206398,-0.055862,-0.028772,0.030919},
{0.032823,0.012141,0.164404,0.192440,-0.180027,0.045759,-0.117605,-0.170789,-0.221171,0.165873,-0.060105,-0.167636,0.164350,-0.206163,-0.152884,-0.075042,-0.061288,-0.098175,0.059935,-0.070447,-0.085614,0.107569,0.033786,0.100327,-0.100767,0.074026,-0.173419,0.125407,-0.201883,-0.023204,0.136486,0.059199,-0.085372,0.046273,-0.018045,0.091938,0.044133,-0.072353,-0.028731,-0.018831,-0.027481,-0.031672},
{-0.075485,-0.050447,0.015128,0.118598,0.154425,-0.167758,-0.195961,0.270468,0.073746,-0.007349,0.076549,0.105056,0.142649,0.100737,0.007508,0.111830,0.042092,-0.167303,0.097260,-0.143722,0.032783,0.002600,-0.020100,0.087221,0.011168,-0.016621,0.018277,0.148312,0.048220,-0.039118,-0.212850,-0.205522,0.092588,0.164568,0.000271,-0.074800,0.175756,0.169229,-0.082179,0.043301,-0.000252,0.024696},
{0.074537,0.049426,0.098393,0.134123,0.038535,-0.008752,0.155797,0.256523,-0.074257,0.094601,-0.043549,-0.100157,0.138442,0.044883,-0.145953,-0.059031,-0.091930,0.124068,-0.006762,-0.095869,0.085187,-0.007646,-0.132708,-0.125904,0.122637,-0.151462,0.177530,0.043873,-0.039886,-0.162245,0.123609,-0.089934,-0.089183,-0.159586,-0.089261,-0.220153,-0.146021,0.088192,-0.137178,-0.029578,-0.041892,0.119428},
{0.041446,-0.072897,-0.027070,-0.139517,0.111840,-0.101871,0.127778,-0.013261,0.025430,-0.051961,0.114677,-0.090741,-0.178903,-0.128295,0.021674,0.173294,-0.108913,0.103296,-0.088021,-0.004382,-0.107591,0.071979,-0.190604,-0.023605,0.187171,0.035525,0.071156,-0.136759,-0.083294,-0.004405,-0.107192,-0.022577,0.055970,0.078526,0.067455,0.142749,0.099121,0.011470,-0.005384,0.158105,-0.074232,0.168787},
{0.053281,-0.121918,-0.133990,0.132840,0.173068,0.067706,0.069524,0.083923,0.179552,-0.039155,0.152853,-0.185275,0.107360,-0.019943,0.103834,0.126738,0.133041,0.013762,-0.027207,0.068234,-0.023733,0.018251,0.054191,0.055150,-0.062205,-0.037409,-0.075775,-0.039713,-0.043420,-0.158943,-0.085996,-0.131236,-0.174765,-0.057110,-0.109078,0.007895,0.142885,0.178640,0.029559,0.007292,0.064124,-0.032155},
{0.146871,0.105084,0.114416,0.012097,0.167447,-0.087278,0.075003,0.047558,-0.051989,-0.225670,-0.080364,0.142379,-0.138332,-0.054603,-0.007786,0.159813,-0.037381,-0.063163,0.052759,-0.070670,-0.172744,0.215563,-0.019966,0.121112,-0.003693,-0.077897,-0.099518,-0.156656,0.076346,-0.068617,0.020299,0.172651,0.012652,0.106766,0.069792,0.118366,-0.175645,0.129679,0.165298,-0.185556,-0.089323,0.037983},
{-0.139902,0.016305,0.053075,-0.059183,-0.152638,-0.146892,-0.032661,0.132227,-0.007310,0.136370,-0.035951,-0.045383,0.014943,-0.069030,0.072364,0.170351,0.091192,-0.058432,-0.185257,-0.045779,-0.040656,-0.073578,0.124553,0.173544,-0.070384,-0.064383,0.146694,-0.080423,0.158722,-0.053561,-0.164259,0.158851,-0.023457,-0.141265,-0.108266,0.080691,-0.152484,0.112155,-0.046435,-0.159515,-0.030569,0.041913},
{0.067345,0.141280,0.005162,-0.036968,0.042742,-0.017742,0.141367,-0.138904,-0.012831,0.016640,-0.160441,0.140328,-0.061155,-0.077924,0.200548,0.148588,-0.071108,0.067098,-0.146778,0.021760,0.045909,0.015578,-0.154038,-0.167202,-0.050696,-0.022909,-0.107983,0.014168,0.114161,-0.072684,-0.175443,-0.073516,-0.011497,0.183796,-0.024835,0.071856,0.102384,0.131125,0.014618,-0.144193,0.010150,-0.175792},
{-0.154687,0.209588,-0.106746,0.220295,0.104949,0.185181,-0.150455,0.166557,-0.146557,-0.106042,-0.032546,-0.133609,-0.061182,-0.073646,-0.048069,-0.019343,-0.067333,0.119059,-0.006659,-0.015134,-0.119517,0.027210,0.051322,-0.010548,0.126107,0.123102,0.031073,0.169750,-0.204715,0.188391,-0.089950,-0.075518,-0.080644,-0.058505,0.136715,-0.042199,-0.071166,0.046749,0.062279,-0.023752,-0.071035,0.008087},
{-0.114651,-0.116002,0.044043,0.101083,-0.091990,0.127572,0.147026,-0.082460,-0.118797,0.155772,0.067655,-0.096650,0.088782,-0.135035,-0.013172,-0.190792,0.023749,-0.065956,-0.198828,-0.175734,-0.040549,0.072868,-0.079041,0.164539,-0.092810,-0.018048,-0.028715,0.110963,-0.046737,0.018467,0.176340,-0.145151,-0.088693,-0.095673,-0.114800,-0.081379,0.086362,0.146736,-0.060318,-0.061265,-0.143733,-0.060979},
{0.001084,0.146503,-0.027944,0.155097,0.089237,0.093043,-0.138250,0.134592,-0.120280,-0.157728,-0.035297,0.041233,0.056969,0.092858,-0.203574,0.186429,-0.069348,-0.047251,-0.053412,0.068663,0.016778,0.189161,-0.050831,-0.106310,0.099709,0.169439,0.122595,0.083704,0.064699,0.026752,-0.046350,0.141644,-0.069264,-0.127787,0.099149,-0.077062,-0.084477,0.155464,0.059497,-0.006933,0.126664,0.044486},
{-0.062794,0.027219,-0.176894,0.201365,0.138634,-0.110214,-0.180754,-0.064285,-0.140139,-0.150411,0.145411,0.046842,0.193340,-0.127265,0.210233,-0.002960,0.171775,-0.037875,0.089833,-0.014944,-0.021129,-0.054783,-0.040932,0.090342,0.168761,-0.088142,0.084149,0.045859,0.132812,-0.109510,-0.022304,0.089373,0.143181,-0.141130,0.163108,-0.129966,0.021579,0.054227,-0.005906,0.108854,0.094755,0.112490},
{0.006718,0.131208,-0.123024,0.028291,0.064560,-0.093948,-0.067353,0.119105,-0.124139,-0.148588,-0.004083,-0.187383,-0.109126,0.070887,-0.083288,-0.031984,0.069536,-0.140621,-0.038880,0.111634,0.117440,-0.022505,-0.091672,0.071765,-0.107274,0.108102,-0.122826,-0.011654,0.137354,0.109571,-0.183106,0.092540,-0.046983,-0.130681,0.131990,0.047548,-0.066645,-0.059025,0.008521,0.083501,0.124752,0.133340},
{0.096283,0.138835,-0.085139,0.105058,0.060412,-0.020797,-0.126888,-0.204561,-0.031623,0.062985,-0.036014,-0.129815,-0.018938,-0.119413,-0.067129,-0.125274,0.025934,-0.078945,-0.041612,0.119930,-0.202819,-0.226225,-0.153870,-0.059162,0.161059,-0.119736,-0.135209,-0.111491,-0.047481,0.136499,-0.137045,0.124326,-0.071143,-0.007783,0.008375,0.043729,0.150177,0.159739,0.179738,-0.131339,-0.119372,-0.042457},
{-0.155727,0.013041,0.065829,0.027536,-0.195875,0.093457,0.037237,-0.071971,-0.099878,0.043805,0.110753,-0.100450,0.053156,0.001022,-0.226944,0.016871,0.011516,0.149566,-0.181043,0.153813,-0.167585,-0.028643,-0.102370,0.180643,-0.100463,0.056538,0.133007,0.141997,-0.069017,0.148678,0.015688,0.070677,0.126263,0.082285,0.015982,0.035895,-0.144155,-0.149388,0.100570,-0.178548,-0.081530,0.131093},
{-0.146045,-0.003119,-0.025550,-0.121543,0.070415,0.146220,0.171589,0.119187,0.079048,-0.114930,0.075102,-0.033917,-0.100418,0.140086,-0.007435,-0.125676,-0.105740,-0.109889,-0.156587,-0.145345,-0.162040,-0.164140,-0.170806,-0.143473,-0.121052,-0.100770,0.026640,0.161277,0.045729,-0.143947,-0.079440,-0.065495,0.169677,-0.178377,0.140754,-0.007432,-0.129550,0.086470,0.108684,0.156582,-0.021568,-0.144206},
{-0.136558,0.171554,0.043349,-0.076120,-0.170680,0.123906,-0.176573,-0.057437,-0.143068,-0.066519,-0.033358,-0.002231,-0.108264,0.115607,0.164625,0.125134,-0.201818,0.099881,0.120702,0.131194,-0.060358,-0.059947,-0.086446,0.168502,0.136801,0.045452,-0.117874,-0.000091,-0.008172,-0.142052,0.020718,-0.099528,0.012327,-0.032283,0.117691,-0.048063,0.134629,-0.022115,0.132379,0.009402,0.148967,-0.059217},
{0.041013,0.199494,-0.147494,-0.057507,-0.069935,-0.062638,0.023678,0.171977,0.049219,0.127116,-0.146808,0.054730,-0.026834,0.121154,0.130659,0.139426,0.179735,0.061281,-0.118362,0.082615,-0.034119,0.009655,-0.040213,-0.102662,0.036873,0.076498,0.096471,0.022641,-0.028240,-0.158900,0.056060,0.018769,-0.040324,0.134913,0.096690,0.074759,-0.040803,0.054023,0.195094,-0.174320,-0.058984,-0.179052},
{0.196658,0.005542,0.126259,0.155446,0.158730,-0.180088,0.123178,0.011502,0.025656,0.040245,0.141301,-0.068397,-0.014777,-0.137619,0.045474,-0.005594,-0.117890,0.221129,0.018972,0.128887,0.145757,0.094068,0.031195,0.224300,0.068901,-0.166054,-0.051154,-0.122726,-0.166904,-0.028336,-0.032627,0.046711,-0.036927,0.069786,0.100954,-0.101805,-0.137522,-0.026229,-0.065091,0.004095,-0.109160,0.147248},
{0.077847,-0.161102,0.048297,0.174700,0.105289,0.137216,-0.009788,-0.153468,0.160731,0.068473,-0.010865,0.042885,-0.178755,-0.088124,-0.144606,0.003986,-0.162165,0.102586,0.160209,-0.049833,-0.071193,0.014947,-0.084563,-0.010476,0.118672,-0.161394,-0.203499,-0.039141,0.101814,-0.132380,0.169448,0.016040,0.181299,-0.184882,0.083788,0.026378,-0.103886,0.126876,-0.169582,0.164995,-0.175302,-0.077066},
{0.130936,0.084174,0.051207,0.017916,-0.094589,-0.115356,0.045640,-0.191977,0.082301,-0.010273,0.008304,0.144371,-0.160603,0.015376,0.081173,-0.051456,0.102731,0.030958,-0.025931,0.218857,-0.043265,-0.109351,-0.028473,0.205104,-0.089677,-0.019411,-0.010693,0.130873,0.139534,-0.088262,0.081653,-0.065096,0.223225,0.162074,-0.071117,-0.064696,0.055217,0.113837,-0.120246,0.072441,0.024769,0.210094},
{-0.086498,-0.157446,-0.157092,-0.002518,0.111945,-0.064564,-0.013253,0.037832,0.122660,-0.139544,-0.066784,0.006507,-0.099743,0.138065,-0.141791,-0.187291,0.112832,-0.106250,-0.075638,0.094482,0.144305,-0.109779,0.114982,-0.159252,0.080067,-0.035018,-0.175878,0.037158,-0.148700,-0.147382,0.096465,0.067547,0.033380,-0.157419,0.128134,0.087725,-0.062258,-0.126990,0.115435,-0.195078,-0.053911,-0.053921},
{-0.015507,0.064700,0.085735,-0.043875,-0.064335,-0.124454,0.129145,-0.053786,-0.193257,0.063259,0.026949,0.097733,0.091458,-0.183485,-0.006312,-0.093161,-0.059108,0.044147,0.018419,-0.182955,-0.172142,-0.162900,-0.164233,-0.156127,0.079200,-0.222830,-0.169469,0.136119,0.031465,-0.161917,-0.046503,-0.214789,-0.209089,0.158393,0.107785,-0.094581,-0.118157,0.078482,0.091699,-0.085062,-0.118917,-0.011219},
{-0.039510,0.035717,0.032471,0.049091,-0.057477,0.203093,0.058988,0.165420,0.067273,-0.124519,0.003060,0.011709,-0.008422,0.095091,0.150847,0.015007,-0.166580,-0.016641,-0.028452,0.196455,0.057366,-0.181611,-0.018572,-0.117562,0.011973,0.115330,0.161670,-0.023530,0.082008,-0.020269,0.084241,-0.137382,-0.030843,-0.153326,0.199155,0.103063,0.188145,0.246982,0.129867,-0.102803,-0.059482,-0.137263},
{0.015670,-0.032086,-0.127530,-0.040801,0.036540,0.022746,-0.000917,0.103824,-0.159547,-0.047434,-0.194489,0.174750,-0.133035,0.019197,-0.050030,0.095889,0.040473,-0.001914,0.044999,0.074402,-0.116275,0.002529,-0.095854,0.093968,-0.093618,-0.184231,-0.135391,-0.084947,-0.153527,0.079973,0.128711,-0.233129,-0.089924,-0.049022,0.011889,-0.102800,-0.033528,0.125346,-0.055003,0.071202,0.147961,-0.144963},
{0.100160,-0.021815,0.154393,0.007432,-0.166430,-0.167465,0.026691,-0.089350,0.002863,0.060454,-0.110625,0.080374,-0.161618,-0.167109,0.102211,-0.173341,0.073196,0.042055,0.181345,-0.125875,-0.000181,0.073767,-0.155635,0.140787,0.083020,0.151076,-0.098311,0.016981,-0.111801,0.113982,-0.118882,-0.027441,0.064721,0.175250,0.073322,-0.062486,0.026610,0.038715,-0.056843,-0.132471,-0.093965,0.120312},
{0.069908,0.107597,-0.073499,-0.168770,0.073847,0.139496,-0.205719,-0.047259,0.071901,0.082676,-0.206116,0.046220,0.140082,0.087236,-0.001230,-0.011147,-0.024266,-0.033866,0.088679,0.053947,0.083459,0.012669,0.207696,-0.023738,0.101941,-0.077004,0.026926,-0.056418,-0.079557,-0.019600,0.143396,-0.044149,0.122803,0.094456,-0.181954,-0.060432,0.113009,-0.123512,-0.081139,-0.042606,-0.004861,0.071788},
{0.041334,-0.110270,0.072104,0.047575,0.006360,-0.152865,0.131385,0.222415,-0.025000,-0.093481,0.065782,-0.088849,-0.110764,0.029957,0.039263,0.119701,0.121922,-0.040509,-0.023406,0.014282,0.104250,-0.090174,-0.092526,-0.117953,-0.206342,-0.134502,0.002219,-0.011628,-0.245729,-0.153759,0.099495,-0.204297,-0.090507,-0.008807,-0.104896,-0.209339,-0.116156,0.116731,-0.109327,-0.008151,0.136714,-0.054883},
{0.123873,0.070365,-0.192574,0.114787,-0.016266,-0.058707,-0.004233,-0.222855,-0.077928,0.133094,-0.091753,0.181086,0.059795,-0.074397,-0.026465,0.116182,0.164233,-0.107915,0.073531,0.164780,0.012384,-0.093957,-0.194341,-0.061893,-0.110198,-0.104533,-0.128484,-0.215764,-0.044109,0.076326,-0.211964,-0.215783,-0.153764,-0.075045,0.152409,0.013778,0.085291,0.079278,-0.048015,-0.007136,0.050163,0.207976},
{0.108908,0.050187,0.139596,0.023680,0.147424,0.147937,0.012722,0.109847,0.185206,-0.058059,-0.164680,-0.147144,0.182877,-0.178771,-0.031818,-0.101027,-0.046482,-0.149973,0.100525,0.025036,0.039799,0.016357,-0.015829,-0.180197,-0.029900,-0.157967,0.096147,0.009072,-0.121805,-0.179204,-0.195851,0.078533,0.126953,-0.049835,-0.046424,0.077367,0.058632,0.107212,0.090025,0.098784,-0.150323,0.077292},
{0.107319,0.154744,0.079523,0.200315,-0.092465,-0.179397,0.010512,-0.153320,0.082540,0.063419,-0.033599,0.135680,-0.116487,-0.010166,0.062920,-0.196750,-0.068051,0.121906,-0.088543,0.146708,-0.084675,0.121665,-0.146972,-0.047659,0.031443,-0.072598,-0.107649,-0.126558,0.173993,0.155699,-0.154340,-0.022772,-0.151752,-0.197744,0.056720,0.176759,-0.165878,-0.153589,0.048112,0.143146,-0.015457,0.106598},
{-0.135951,0.053499,0.165630,-0.040685,-0.003188,-0.109245,-0.172476,-0.185340,0.061509,0.178353,-0.133114,-0.119461,-0.095496,0.062869,0.087339,-0.099820,-0.080581,-0.047662,-0.116895,-0.057516,0.104744,-0.000781,0.159841,0.054506,0.120299,0.073238,0.122927,0.018793,0.019089,0.067041,-0.020953,-0.121521,0.146789,-0.028423,0.146060,0.027776,-0.075529,-0.040965,0.206713,0.086673,-0.011172,-0.084399},
{-0.012288,0.014108,0.137177,-0.042191,0.086569,-0.111485,-0.159626,0.039871,-0.002881,-0.108296,-0.057154,0.082186,0.092253,0.171650,-0.096993,-0.132009,-0.074617,0.081795,0.096418,-0.183305,-0.214480,-0.028559,0.011811,-0.016049,0.132370,0.097583,0.068490,0.010980,0.037753,-0.069043,0.013611,-0.019861,-0.135701,0.093427,-0.108954,0.054234,-0.008475,0.139252,0.031480,-0.036088,0.004262,0.110866},
{0.090911,0.016037,0.019061,-0.139776,-0.065256,0.060580,0.013325,-0.164375,0.030890,0.025441,-0.111698,-0.217535,0.186477,-0.191357,-0.071214,0.121038,0.066509,-0.017710,0.125925,-0.069989,-0.161318,-0.147962,-0.016216,0.129476,0.212123,0.124629,-0.055148,0.033243,-0.220274,-0.018968,-0.012723,-0.129404,-0.064047,0.074460,0.042426,-0.059126,0.085598,-0.125909,-0.025998,-0.039803,-0.001475,0.103229},
{0.058808,0.068515,-0.194386,-0.165150,0.171814,-0.012827,0.137775,-0.114934,-0.002409,-0.051531,0.097503,-0.191190,0.089408,-0.148354,0.153027,0.011432,0.053412,-0.051936,-0.017467,0.129874,-0.050359,0.118644,0.047787,-0.006849,0.029123,-0.062120,-0.070941,0.156861,0.149498,-0.133602,-0.157258,0.117414,-0.068298,-0.093835,-0.047407,-0.079848,0.171244,-0.191356,-0.144708,0.040173,0.191197,0.116123},
{0.181476,0.102988,-0.105557,0.080153,0.066501,0.074293,0.049747,-0.211561,-0.164284,-0.062335,0.079782,0.002990,-0.197393,0.055712,-0.195037,-0.112291,-0.005405,0.069012,0.053860,-0.052198,-0.014119,0.169875,-0.100803,-0.043552,-0.059881,-0.039307,-0.187287,0.170790,-0.063544,-0.071432,-0.046910,0.185434,0.072908,-0.052559,-0.047653,0.062523,-0.072949,0.043750,-0.113458,0.013261,-0.085355,-0.095754},
{-0.082848,0.125643,-0.201422,-0.174104,0.142581,0.082930,-0.170436,0.019277,0.178307,-0.113045,0.108883,0.053145,0.011180,-0.021194,0.192723,0.145167,0.035014,0.051037,0.064600,0.051353,0.135515,-0.103652,0.019280,-0.068193,0.158849,-0.051772,-0.042124,-0.218369,-0.056512,0.092910,0.039754,-0.146059,-0.003746,0.030855,0.090534,-0.133339,0.139122,-0.008445,0.101787,-0.082923,-0.095493,0.180207},
{0.053946,-0.111242,0.061834,-0.070983,0.026588,0.118489,-0.133622,-0.196201,-0.132393,0.117978,0.090187,-0.193768,0.018965,0.008825,0.022445,0.067698,-0.101137,0.079885,0.150233,-0.099165,0.053103,-0.184224,-0.153875,-0.111602,0.158157,-0.061188,0.046587,0.017445,0.115663,0.156397,0.097661,0.063967,0.141227,-0.199872,-0.120018,0.069446,-0.182987,0.067244,-0.037324,-0.045311,0.169637,-0.178463},
{-0.031004,-0.007210,-0.075229,0.056362,0.063821,-0.084711,0.016950,0.179747,-0.132243,-0.038509,-0.000934,-0.021836,-0.070501,-0.004037,0.011147,-0.020800,0.182349,0.087240,-0.102189,-0.023734,0.171126,-0.047276,0.165639,-0.105972,-0.024672,0.101159,0.183463,0.168848,0.142682,-0.103424,-0.040117,0.070430,-0.173030,-0.111010,0.006100,-0.170764,-0.142727,0.114586,-0.199738,0.169168,0.164560,0.028281},
{0.070294,-0.128085,-0.088666,0.011980,-0.008536,0.054318,0.172104,-0.040711,0.024437,0.063803,-0.021303,0.009996,0.087758,-0.023909,0.133964,-0.138827,-0.091569,0.067672,-0.005264,-0.145059,0.154206,-0.124272,0.115964,-0.114066,0.105513,0.134805,-0.003603,0.069904,0.237698,-0.120881,-0.161538,-0.143412,-0.003472,-0.138739,-0.119087,-0.099205,-0.172240,-0.094723,-0.012698,0.093445,0.020213,-0.117749},
{0.151237,0.090677,-0.128785,0.025200,-0.018637,-0.123251,0.119139,-0.124149,0.002443,-0.099808,-0.144687,-0.175968,0.083761,-0.181645,0.100860,0.034529,0.164361,0.087866,0.017575,-0.147829,-0.137652,-0.090730,-0.066413,-0.080207,-0.166505,-0.119097,-0.197930,0.082076,0.023898,0.049557,0.129927,-0.151030,-0.144377,-0.203626,-0.209920,-0.026958,0.027659,0.095155,-0.052764,-0.196213,-0.052491,-0.094191},
{0.034292,0.011242,-0.069534,0.147468,-0.140536,0.172283,-0.099586,-0.085305,0.025131,-0.027234,0.030452,-0.081902,0.001724,0.153886,-0.092266,-0.019693,0.114083,0.008892,-0.144164,0.135275,-0.180751,-0.207587,0.155842,-0.195075,0.113153,0.092526,0.002047,-0.123404,0.087983,-0.146983,0.012387,0.154881,-0.136497,0.081612,-0.172437,0.126587,0.148945,-0.174321,0.072737,-0.010266,-0.080431,0.035699},
{-0.003917,0.110984,0.164991,-0.097129,0.135733,0.046772,0.164525,0.100570,0.114571,0.178842,-0.220507,-0.039223,-0.139601,-0.068793,0.154272,0.095699,-0.050952,-0.020254,0.169269,0.161462,-0.075814,0.090955,-0.068936,-0.026813,0.013380,-0.119217,0.040914,0.203546,0.032190,0.046695,0.137644,0.072223,-0.069566,0.204411,0.042114,-0.093320,-0.105086,-0.106125,0.096659,0.140616,0.111186,0.144230},
{-0.128245,0.039044,-0.025381,0.123591,-0.117949,0.131157,-0.023214,0.151170,-0.145217,0.039419,-0.068077,0.153830,-0.177613,-0.161232,0.174900,-0.171562,-0.171903,0.063559,-0.158757,-0.021725,-0.156659,0.062299,0.171122,0.015893,-0.059619,-0.182213,0.040356,-0.037023,-0.017592,-0.097943,0.017195,0.002434,0.024905,-0.076177,-0.182513,-0.129951,-0.150719,-0.055888,0.004489,-0.041409,-0.065270,-0.081151},
{-0.134861,-0.000232,-0.189510,0.061006,0.171390,0.005130,-0.175233,-0.128115,-0.033840,-0.034469,-0.150078,0.140491,0.192647,-0.173532,-0.050609,0.106988,0.196198,0.134165,-0.137656,0.157707,-0.079783,0.092968,-0.032867,0.088484,0.002725,-0.108975,0.021050,0.160241,-0.114485,-0.092928,-0.083653,-0.105230,0.084000,-0.075825,0.177638,0.055361,-0.110386,-0.167937,0.023268,0.076310,0.156114,0.032407},
{0.141787,-0.122514,-0.102660,-0.042114,-0.022320,0.141540,-0.087685,-0.149391,-0.109363,-0.118767,-0.027393,-0.004445,-0.004101,0.096407,0.044369,0.087767,0.083461,0.121467,0.133264,0.121995,0.133572,0.283909,-0.049763,0.212044,0.029067,-0.132690,0.173153,0.048725,0.184968,-0.169903,-0.094005,-0.135623,-0.168091,0.074082,-0.124383,0.109370,0.080556,0.115179,-0.157504,-0.074099,0.164485,0.010468},
{0.120606,0.085892,0.152421,-0.085560,0.063824,0.206606,-0.067841,-0.147459,-0.154321,-0.014792,-0.002754,0.109235,-0.101701,0.066181,-0.093704,-0.043867,-0.118619,0.022534,-0.135298,-0.155653,0.033701,0.220230,0.175214,-0.086286,-0.026413,-0.030436,0.070264,-0.032846,0.217616,-0.165096,0.197187,0.110888,-0.030412,-0.058639,-0.107647,-0.006655,0.029969,0.136865,-0.038226,-0.135617,-0.158163,-0.126809},
{-0.113604,-0.061874,0.001372,-0.037721,-0.170388,-0.118000,0.155358,0.071941,-0.082872,0.099954,-0.102248,-0.165137,0.041007,0.128298,0.047769,-0.197837,-0.083509,-0.115449,-0.066142,0.159487,-0.115080,0.093843,-0.076717,-0.141420,0.143846,-0.171606,0.094445,0.166824,-0.187566,-0.057767,-0.015589,-0.037756,-0.106031,0.136209,0.082737,-0.111606,-0.006789,-0.075677,0.182267,-0.066903,-0.009628,0.129276},
{0.000839,-0.003830,-0.137927,0.183893,-0.144694,-0.020658,-0.119849,-0.125237,-0.145822,-0.157005,0.123375,-0.175619,0.162421,0.124939,-0.087640,-0.141094,0.119570,-0.113418,-0.054239,0.125138,0.038388,-0.096188,0.102640,0.133445,0.173655,0.062334,-0.012051,-0.078215,-0.057436,-0.020776,0.221725,0.073710,-0.126749,0.017649,0.157260,0.126871,-0.008225,-0.049926,0.107783,-0.186405,-0.190698,-0.092425},
{0.084924,0.098020,-0.147477,0.019302,0.002180,0.081354,0.040716,0.238287,0.142038,0.150600,0.046415,0.096726,0.007278,-0.105608,0.138369,-0.180201,0.236365,-0.136138,0.152248,-0.006315,0.173220,-0.241071,-0.093833,0.076273,-0.220785,-0.089564,0.102930,0.020653,-0.193123,-0.104843,-0.035741,0.027776,0.034147,0.031293,-0.105090,-0.059737,0.121174,-0.022405,-0.196642,0.111156,-0.055230,-0.104549},
{0.014174,-0.053831,-0.079281,-0.000128,-0.137796,0.034048,0.038945,-0.033505,-0.065813,0.051625,-0.060329,0.139480,0.093115,-0.018993,0.119071,0.135825,0.104211,0.161245,-0.081239,-0.041124,0.013365,0.049785,0.089224,0.081868,0.054092,0.054166,0.043683,-0.118920,-0.046511,-0.208303,-0.096097,-0.002612,-0.076177,-0.212663,0.100310,0.002279,-0.175407,-0.182712,-0.012166,-0.111433,-0.167787,-0.082011},
{0.083203,0.086306,0.046177,0.110446,0.158275,-0.076559,0.167846,-0.015574,-0.066360,-0.121297,-0.046558,0.131692,0.158036,0.111328,0.149496,-0.013634,-0.160084,0.076615,0.047907,0.074589,0.020395,0.101557,-0.112176,-0.093308,-0.127132,-0.136720,-0.024838,-0.113427,-0.043034,-0.194481,0.044329,-0.114894,-0.052397,-0.070989,-0.067084,-0.166575,0.124374,-0.035834,0.122973,-0.059372,-0.124526,-0.093568},
{-0.169582,-0.085431,0.192408,0.144005,-0.106355,-0.054044,-0.119357,0.132938,0.057799,-0.041369,-0.011237,0.005766,-0.165067,-0.135462,0.094096,0.037481,-0.165899,0.035919,-0.047623,0.148642,0.162993,-0.044976,0.158968,0.168150,0.033546,0.037648,-0.178158,-0.073123,-0.064737,-0.121118,0.029463,0.115871,-0.168068,-0.173363,-0.033193,-0.103706,0.001315,-0.038027,-0.061275,-0.137915,-0.130426,0.106142},
{-0.071216,0.187628,-0.152589,-0.075725,-0.172422,0.100279,-0.146289,0.158934,-0.072344,0.137726,0.130662,0.025640,0.034773,0.052839,-0.127274,0.020580,0.110624,0.149347,0.035147,-0.037872,0.073291,-0.028807,-0.137149,0.018227,-0.008947,-0.015380,-0.023642,0.197976,0.042581,0.003721,-0.239084,-0.009576,0.096978,0.030079,0.100295,-0.091351,0.087446,-0.194120,0.134847,0.003140,-0.134853,0.099918},
{-0.121160,0.039645,0.011343,-0.077386,-0.178761,-0.025896,0.168029,-0.007722,0.023208,-0.014968,-0.089516,-0.095944,0.042824,-0.147055,-0.167725,-0.065155,0.015110,-0.071373,0.001634,0.140673,0.046916,0.204173,0.016315,0.045749,0.017473,-0.119208,-0.140277,-0.080869,-0.163511,0.079214,-0.099769,0.011517,-0.091905,0.056892,0.145189,-0.087895,-0.153813,0.162622,0.157134,0.146281,0.020386,0.107210},
{-0.054099,-0.018841,0.182374,0.124435,0.142100,0.087319,-0.044026,0.068816,0.024750,-0.127855,0.075912,0.072265,-0.167407,0.164261,0.013023,0.090187,-0.190799,0.055474,-0.048938,-0.020437,-0.141091,-0.006098,-0.161230,-0.039664,0.075755,0.080161,0.025454,0.007557,-0.128491,0.077000,-0.060312,0.033219,0.000957,-0.098584,0.091032,0.059016,-0.120539,-0.006367,0.160287,0.016585,0.166085,-0.075412},
{0.057806,0.019218,0.062423,-0.230795,-0.028792,-0.053096,0.060696,0.173005,-0.052483,-0.089136,-0.185224,0.177777,0.135508,-0.100471,0.035202,0.116189,0.093617,-0.054573,-0.038970,0.074747,-0.005512,0.002384,-0.041016,0.053471,-0.093544,0.209677,0.199024,0.164669,0.052884,0.166189,0.000417,-0.242244,0.009846,0.134041,0.037548,-0.225687,0.120462,0.033357,0.131007,-0.092889,-0.046780,-0.123291},
{0.193379,-0.052932,-0.079155,-0.067874,-0.098831,-0.206655,-0.128148,0.035834,0.087365,0.034803,0.094705,0.156944,-0.148020,0.060480,-0.199887,0.018664,-0.100897,-0.079651,0.019545,0.166745,0.075429,0.101952,-0.032586,0.071429,-0.101386,-0.174754,-0.072637,0.087339,0.070797,-0.086682,0.178273,0.168833,-0.084392,0.051840,0.161251,0.098370,0.031155,0.090505,-0.101473,-0.099328,0.069319,0.074676},
{0.058993,-0.053899,0.151778,-0.100418,0.098129,-0.040884,-0.045788,-0.065232,0.150840,-0.088221,0.041052,-0.128901,-0.041550,0.012383,0.108859,-0.153588,0.063831,-0.010069,-0.015749,0.115184,-0.050842,0.164488,0.114921,-0.205937,0.070663,-0.127638,-0.154038,-0.168499,-0.026152,-0.073506,-0.037213,-0.134780,0.161824,0.095550,0.146792,0.094843,0.029455,-0.110172,0.012882,-0.169625,-0.061219,0.050059},
{0.047646,-0.021658,-0.072886,0.198462,-0.123846,0.088013,0.132345,-0.097624,-0.201289,-0.152223,-0.155664,-0.217059,0.160571,-0.177039,-0.007571,-0.164362,0.184774,0.106860,-0.173199,-0.132802,-0.170774,0.031420,0.047233,0.114168,-0.133805,-0.081975,-0.026325,-0.083126,-0.196229,-0.100363,-0.128066,-0.007534,-0.146281,0.093603,-0.027278,-0.092084,-0.079823,0.000178,-0.070054,-0.136393,0.056290,0.153957},
{0.154275,0.162918,-0.185280,0.102574,0.057964,0.145377,0.054761,-0.065985,0.040367,-0.083401,-0.119545,-0.131178,0.030640,-0.120560,0.085958,-0.087153,0.069186,-0.026576,0.161572,0.039909,0.033911,-0.055350,0.029512,-0.151444,-0.006342,-0.053691,0.169415,0.074700,0.015642,-0.096495,0.136074,0.122068,-0.013811,-0.028349,-0.082632,-0.193869,-0.178438,-0.148946,0.039095,0.025134,-0.084452,-0.140630},
{-0.084242,-0.074939,0.059725,0.171009,0.160906,0.099986,0.005150,0.126755,-0.015269,0.210144,0.121147,0.162469,-0.166473,-0.067278,0.158825,0.141321,0.052646,0.153737,0.054619,0.180095,-0.153390,-0.039184,-0.142881,-0.162107,0.090767,0.111258,0.155919,0.012011,-0.062095,-0.044812,-0.118382,-0.153877,-0.184864,0.016406,-0.117633,0.123243,-0.017029,0.082817,0.168091,-0.035410,-0.023819,0.062832},
{0.051157,-0.110225,-0.006002,0.229812,-0.005469,0.099236,-0.080653,-0.089446,0.095366,-0.249456,-0.143738,0.018040,0.084583,0.034218,-0.268822,-0.033608,0.000802,0.032319,0.186364,0.124758,-0.061051,0.239233,0.179798,0.217071,0.053240,0.132992,0.086037,-0.170521,0.100019,-0.049227,0.019899,-0.045015,0.007285,-0.027699,-0.075478,0.160842,-0.108959,0.038809,-0.036630,-0.033786,0.154705,-0.051881},
{-0.141049,0.096611,0.098699,-0.055084,-0.165447,0.177146,0.088600,-0.021224,-0.033114,-0.151417,0.049222,-0.163039,-0.059453,0.048826,0.033789,0.055777,-0.112985,-0.116407,0.068032,-0.192323,-0.187671,0.096053,-0.131259,-0.023360,0.050557,0.079034,-0.179531,0.038386,-0.007452,0.071825,-0.024459,0.115402,-0.182147,-0.123809,0.036037,-0.080520,0.148852,0.176109,-0.028162,0.002170,0.004895,0.067890},
{0.064479,0.057916,-0.131912,-0.065172,-0.056000,-0.087118,-0.023061,-0.102308,-0.031522,-0.094973,0.236248,-0.032133,-0.141043,0.020603,-0.108262,0.020947,-0.182863,0.092751,0.026795,-0.120183,0.064210,0.009981,0.042480,0.128633,0.052291,0.168669,0.080356,0.014996,-0.077751,-0.084368,0.186720,0.154619,-0.079605,-0.015082,-0.178869,0.041785,0.189410,-0.174670,0.038699,0.167704,0.077177,0.175084},
{-0.053825,0.147785,0.102110,-0.065501,-0.012783,0.050593,0.155295,0.148472,-0.024530,-0.030921,-0.072817,-0.010300,-0.006056,-0.101737,-0.125050,-0.200929,-0.084356,-0.061071,-0.115740,0.063025,0.168045,-0.055267,0.099566,-0.092813,0.079939,0.000602,0.078576,-0.113269,0.075521,-0.119203,0.072449,-0.056815,-0.021872,0.081115,0.045010,0.132466,-0.202436,-0.135747,-0.024066,0.095576,-0.119882,-0.050921},
{-0.027457,0.071839,0.066826,-0.099036,0.052562,0.022986,-0.009616,-0.109885,-0.179698,0.160100,0.074194,0.177834,-0.009619,-0.057955,0.132751,0.078518,0.041079,0.120253,0.057926,0.070235,-0.134944,0.077155,-0.080155,0.145528,-0.029140,-0.109158,-0.024486,-0.027139,-0.104712,-0.081178,0.070692,-0.172253,0.137575,0.096057,0.076219,0.010107,-0.143666,-0.004755,0.001561,0.010545,-0.109741,0.186149},
{0.070167,0.051593,0.222132,0.196512,-0.089246,0.137424,0.147324,0.164240,-0.144880,-0.038022,0.115382,0.010605,-0.038564,0.064827,0.088066,-0.033813,-0.195948,0.151940,-0.131462,-0.045862,0.142838,-0.036474,0.041047,0.025185,0.045037,-0.117700,0.135261,-0.195862,-0.092548,-0.090870,-0.099606,0.134237,-0.049451,0.018555,0.170880,-0.042952,-0.138479,0.152692,0.102892,-0.159160,0.068867,-0.126405},
{-0.023271,-0.114582,-0.032312,-0.102648,-0.082344,0.012549,-0.104600,-0.100089,-0.158854,-0.074931,0.214150,0.139377,-0.169219,0.092586,0.019209,-0.055474,-0.129403,0.044413,0.040546,-0.028395,0.086968,-0.226320,-0.164872,-0.019721,-0.059920,0.156691,0.113694,0.111900,-0.078633,0.115061,-0.066026,-0.227487,-0.011591,-0.021033,-0.166850,0.250227,0.177227,0.136127,0.033569,-0.021947,0.150346,0.177061},
{0.130212,-0.179037,0.152398,0.022230,0.127493,0.025633,0.023205,-0.216219,-0.046455,-0.050632,0.000199,-0.118908,-0.133015,-0.022161,-0.024627,0.093501,0.101494,0.083378,-0.162102,0.087880,0.182079,-0.125831,0.029489,0.049354,0.157417,-0.101208,-0.040230,0.087586,-0.215675,0.168422,0.094270,0.075732,-0.093538,-0.115653,0.036028,-0.059462,0.104470,-0.114506,-0.012018,0.085277,-0.120618,0.152490},
{0.120286,0.160594,0.050184,0.164261,0.108880,-0.168820,-0.111143,-0.165624,-0.104591,-0.047292,-0.189553,-0.016148,-0.068096,0.135380,0.052241,0.006996,-0.010697,-0.008637,-0.004141,-0.038160,-0.040836,-0.000665,-0.026175,0.173283,0.236461,-0.122894,0.000246,-0.130087,-0.005298,-0.070175,0.041266,-0.190200,0.161152,0.069114,0.118272,-0.170409,0.046379,0.041896,0.178851,0.018901,-0.161138,-0.105029},
{0.161524,-0.179476,-0.080526,0.196034,-0.174714,0.160746,-0.188291,-0.155522,-0.034193,-0.099182,0.066330,0.024090,0.109507,0.097436,0.039230,0.163787,-0.019782,0.036346,0.110421,-0.063099,0.084193,-0.137604,-0.011627,0.073012,0.147331,0.157858,0.103523,0.016298,0.029981,-0.135746,0.131821,0.069747,-0.160759,-0.044437,-0.177009,0.104110,0.108319,-0.062030,0.058940,-0.068952,0.131370,-0.148572},
{0.003061,-0.005691,-0.038413,0.185722,0.132145,-0.127706,0.123496,-0.140677,-0.073411,0.074828,-0.088720,0.078062,-0.151688,0.136411,0.189462,0.047536,0.184604,-0.159917,0.024540,0.124696,0.042672,-0.164584,-0.085790,0.011174,0.015728,0.055634,0.146997,-0.075972,0.059240,-0.002786,-0.058112,-0.180179,0.074516,0.041937,0.103546,-0.009663,0.004381,0.046023,0.128367,-0.025148,0.064789,0.100561},
{0.148662,0.181858,0.079970,0.036957,-0.176089,-0.130857,0.106472,0.123074,0.122951,-0.116821,-0.128568,0.129600,0.144563,0.017880,0.066404,-0.074877,0.013590,0.100532,-0.078380,0.091216,0.167428,-0.072485,0.109450,0.092447,0.062242,0.154218,0.122996,0.194664,0.098463,-0.076959,0.085537,-0.039999,0.112568,-0.051780,-0.123854,-0.220995,0.131540,-0.065684,0.046450,-0.006694,-0.024516,0.017476},
{0.008442,-0.014181,0.100577,0.164225,0.162749,-0.070448,-0.086594,-0.108020,-0.022804,0.060775,-0.122287,-0.049746,-0.168548,-0.038196,0.192593,0.102468,-0.045167,-0.046607,-0.046835,-0.177391,0.025792,0.063476,0.102889,0.138071,-0.183574,0.140201,-0.020487,0.158548,-0.180498,0.034052,-0.103672,-0.126204,-0.178244,-0.167660,-0.149147,-0.029563,0.180301,-0.149128,-0.126824,-0.180988,0.041419,-0.021810},
{-0.090024,-0.040190,-0.106980,-0.027986,-0.051363,-0.059131,0.000951,-0.174782,0.099477,-0.191592,-0.042454,-0.066134,0.159695,-0.056772,0.164038,-0.011376,-0.089940,-0.148051,0.006959,0.083074,-0.042618,0.123186,-0.160341,0.124144,-0.131277,-0.083858,0.025473,-0.179665,-0.174829,-0.036638,-0.112685,0.009938,0.134618,-0.077079,0.067142,-0.215671,-0.117703,-0.182571,-0.108920,-0.142056,0.111442,0.191457},
{0.019703,0.136788,0.062812,0.171016,-0.160807,-0.207788,0.032830,0.104500,-0.133989,-0.079921,0.209653,-0.086289,0.054990,-0.109480,-0.042920,0.153174,0.095192,0.190627,0.070195,0.015305,0.098060,0.179880,-0.082440,-0.040730,0.239313,0.028163,0.005973,-0.132784,0.216524,0.087286,0.096446,0.089631,0.007720,-0.145690,0.035334,-0.072514,-0.059865,0.008571,-0.065520,-0.031899,-0.101864,0.157777},
{-0.054345,-0.044672,-0.152880,-0.128977,-0.043262,0.026566,-0.167146,0.076234,0.120828,0.136398,-0.138686,-0.194830,-0.059546,0.122818,-0.072230,-0.120333,-0.107755,-0.187795,-0.134333,-0.061808,-0.060707,0.069876,0.015071,-0.147606,0.112828,0.077037,0.103934,0.047514,-0.015037,-0.080636,-0.187615,0.110861,0.017283,0.057400,0.119594,-0.181548,-0.009450,-0.019103,0.067207,0.050255,0.028171,-0.098999},
{0.104696,0.060803,0.089531,-0.084639,0.011774,-0.024458,0.045711,-0.156550,-0.001745,0.175206,-0.129389,0.148973,0.166202,0.077429,0.063694,0.016347,-0.022517,-0.056006,0.123471,0.138605,-0.043914,-0.073212,-0.169016,0.088592,-0.037621,-0.102519,-0.090664,0.094524,0.006828,-0.136661,0.146012,-0.209163,0.071090,-0.108999,0.092516,0.132939,0.077344,0.089175,0.124704,-0.039193,0.142004,0.155694},
{-0.165297,-0.151467,-0.023523,0.171242,0.125834,-0.144808,0.127610,-0.008783,-0.185033,0.034619,-0.098457,-0.175016,0.112572,0.054235,0.161734,0.044817,0.050678,-0.051734,-0.087531,-0.191197,0.124233,0.005649,0.060048,-0.177875,-0.200721,0.148905,0.085247,-0.132156,-0.099122,-0.018403,-0.162739,-0.155615,-0.001261,0.165336,0.014041,-0.057546,-0.032272,-0.057602,-0.071988,0.120768,-0.038353,-0.110194},
{-0.188735,-0.081991,-0.032649,-0.034852,0.126960,0.161594,0.058490,-0.077387,0.028182,-0.088637,0.117474,-0.082928,-0.167113,0.033120,0.112812,0.182291,0.021092,-0.107669,-0.082545,0.096792,-0.144099,0.054742,0.145075,-0.055305,-0.090357,0.155168,0.011672,-0.054069,0.244165,0.118050,0.131719,-0.016055,0.165401,-0.085470,-0.147228,0.113435,0.191596,-0.135240,-0.060812,-0.039435,0.189786,-0.048346},
{0.078606,0.153051,-0.097466,-0.177938,0.069458,-0.152587,-0.179686,-0.149381,0.156622,0.004967,-0.058752,0.038391,-0.160226,0.129190,0.153267,0.059942,-0.108499,0.144984,0.058890,0.112192,0.055585,-0.033692,-0.083579,0.145782,-0.008994,0.106260,0.116686,0.071531,-0.085814,-0.135927,-0.131237,-0.077862,-0.167994,0.071172,0.068986,-0.075447,0.114602,0.173922,0.107826,0.048328,-0.147183,-0.139456},
{0.018134,-0.182173,-0.080171,0.145265,0.052668,-0.190097,-0.017765,-0.013994,0.169604,-0.045613,-0.126480,0.142754,0.065624,0.122326,0.103228,-0.145263,-0.122725,0.009910,-0.177558,-0.148556,0.000189,0.028146,-0.026466,0.106548,-0.058933,0.077353,0.113489,-0.042798,-0.134711,0.116745,0.002357,-0.129369,0.056444,-0.210671,-0.028578,0.162886,-0.096862,-0.055906,0.088215,-0.061741,0.108679,0.000498},
{-0.036376,0.087785,-0.061459,-0.058128,0.083194,0.023422,0.038930,0.158866,0.051825,0.147934,0.019026,-0.006459,-0.019341,0.129010,0.132400,-0.024585,0.154155,-0.112832,0.137461,0.138216,0.162391,0.076520,-0.189719,-0.173977,-0.081331,-0.034956,0.153320,-0.157003,0.012457,-0.123576,0.008050,0.047972,-0.151115,0.108794,-0.110251,-0.094616,0.138828,-0.115334,0.158139,0.015471,-0.173305,0.155213},
{-0.038583,-0.205919,-0.131224,0.150415,-0.092977,-0.165643,0.128482,0.185913,-0.107589,0.067526,-0.013663,0.061936,0.010876,0.106489,0.094987,-0.137206,0.156987,-0.006423,-0.165244,0.066496,0.171243,-0.056346,-0.022346,0.044170,0.217145,0.143847,0.118121,-0.169247,0.272499,-0.094941,0.042138,0.107843,-0.033936,0.082042,0.118566,0.054761,0.036834,0.070582,0.115419,-0.161300,-0.074016,0.051062},
{-0.129906,-0.179269,-0.149911,0.146678,-0.075107,0.157169,0.036018,-0.203935,-0.137788,0.026643,-0.009018,-0.152603,-0.059020,0.153139,-0.220771,-0.034825,0.077531,0.093708,-0.178559,0.127608,0.065917,0.251236,-0.115125,0.113598,0.038249,-0.123795,-0.183401,-0.171725,0.011974,-0.037518,-0.158227,0.132696,0.178685,0.049031,-0.187556,0.062162,0.052057,0.183296,0.009284,-0.089284,0.185779,0.128836},
{0.067638,0.039770,0.088160,-0.095782,-0.146070,-0.148517,0.010811,-0.013962,-0.004729,-0.012547,0.056637,0.053047,0.051457,-0.043110,0.039137,0.049841,-0.127455,0.090565,-0.018742,-0.095507,0.158049,0.101838,-0.219194,0.194658,0.141891,0.131662,0.126745,0.032094,0.121878,0.128079,-0.170180,-0.163420,0.133332,-0.000802,0.007482,0.144863,-0.126631,0.136911,-0.069377,0.131961,0.008540,0.037792},
{0.022471,0.150859,0.142666,0.032143,-0.130575,0.159820,0.022886,-0.026938,-0.075631,-0.085545,-0.057239,0.138414,-0.179378,-0.051245,-0.028887,0.136738,0.095683,-0.054210,-0.085928,0.132813,0.181144,0.043147,-0.042025,0.132712,-0.015805,0.055015,0.155832,-0.018842,0.198917,0.155024,-0.079022,0.076252,0.054087,-0.019833,0.065116,0.122828,-0.031423,0.152386,-0.186766,0.025192,0.033118,-0.063368},
{0.103230,0.122921,0.167843,0.115318,0.110753,0.021487,-0.056962,0.047674,-0.236084,0.103619,-0.076898,-0.012628,0.176025,-0.197140,0.104631,0.045614,-0.174743,0.114902,-0.120540,-0.081996,-0.057599,-0.125547,0.022760,-0.032397,0.029739,-0.163731,0.011397,-0.031264,0.043643,-0.163003,0.142144,-0.192916,-0.113961,-0.043332,0.091576,-0.153118,0.014789,-0.010409,-0.006691,-0.180894,-0.178671,-0.023236},
{-0.133456,-0.111009,-0.087657,-0.097016,-0.229326,0.003164,-0.015071,0.025362,-0.241442,0.019203,-0.028640,-0.250414,0.224744,0.066658,0.068598,-0.175339,0.030616,-0.023862,-0.240990,0.035469,-0.246254,-0.206884,-0.108597,0.149626,0.140953,-0.156817,-0.175503,-0.265285,0.006114,0.015313,-0.101589,-0.019996,0.022201,0.123069,-0.155289,0.010013,-0.187199,-0.157660,0.120537,0.051399,-0.111023,0.030911},
{0.127329,0.137764,0.147087,0.058314,-0.133750,-0.024648,-0.077682,-0.082320,-0.135691,0.093727,0.070206,0.187015,-0.033914,0.091117,0.134315,0.087667,0.161846,0.082504,0.078595,-0.021758,-0.203992,-0.095413,-0.127342,0.213827,0.058906,-0.180420,0.116911,-0.006514,0.031094,-0.010145,-0.100383,0.168682,-0.006861,-0.104923,-0.225022,0.066607,-0.019769,0.188147,-0.032343,0.051443,-0.106816,0.116279},
{0.060635,-0.174559,0.072920,0.150277,-0.006724,-0.176099,-0.035458,0.072539,-0.037585,0.097864,0.120419,0.078972,-0.180538,0.099569,0.118777,-0.163441,0.031088,0.202268,-0.145326,-0.154257,-0.008398,0.131385,0.096790,0.162084,0.153139,-0.107874,-0.145552,0.050858,-0.190371,-0.193522,0.083048,0.078090,0.109770,-0.015759,0.125569,0.065777,-0.008716,0.094225,0.042373,-0.012863,0.137621,0.052235}};

Biases:
{-0.015723, 0.000000, 0.000000, 0.005799, 0.000880, 0.011392, -0.002712, 0.033094, -0.009598, 0.000285, -0.008294, 0.000000, 0.027940, -0.007634, 0.005310, -0.000129, -0.004410, 0.016115, 0.017944, -0.003437, -0.013182, -0.005725, -0.005346, -0.027010, -0.016643, 0.031722, -0.001309, 0.001248, -0.024076, -0.019961, 0.011171, -0.004011, -0.001921, 0.032891, -0.027148, 0.007107, 0.020397, 0.002393, -0.010581, -0.006583, -0.008007, -0.001004, -0.011470, -0.025926, 0.037681, 0.067867, 0.019644, 0.008598, -0.013988, 0.032368, 0.012116, -0.000895, 0.002298, 0.009315, -0.007372, -0.004033, 0.009789, -0.006706, 0.045854, 0.018917, -0.010432, 0.000000, -0.026678, -0.005537, -0.016471, 0.007518, -0.007795, -0.000824, 0.000882, 0.002565, 0.024441, -0.016450, 0.000741, 0.015011, -0.001577, -0.016396, -0.020643, -0.008129, -0.008083, 0.000000, 0.012048, -0.026668, 0.010333, -0.015173, 0.011815, 0.012755, -0.022891, 0.012937, -0.010792, 0.025014, -0.016464, -0.011851, 0.039124, -0.012600, -0.002728, 0.021886, 0.003700, -0.008259, 0.015410, -0.004967, 0.007577, -0.036090, -0.001027, -0.036760, -0.006948, 0.001048, -0.004860, -0.010679, -0.027188, -0.008593, 0.000739, 0.020476, -0.029456, -0.015555, 0.001777, -0.016010, 0.003348, 0.000542, -0.011288, -0.022895, -0.028001, -0.006973, -0.022307, -0.005012, 0.025521, 0.052164, -0.019406, 0.000253};

Layer 2: dense_4
Weights:
{{-0.147519,-0.025490,-0.023653,0.011728,-0.004937,-0.136613,0.035479,-0.008285,0.065629,-0.105667,-0.036462,-0.046560,0.072375,-0.093968,-0.087768,-0.049897,0.030153,0.105656,-0.037919,-0.129887,-0.012904,0.086382,0.034718,-0.154463,-0.017800,0.115023,0.044817,-0.165115,-0.000698,-0.139023,-0.123976,-0.174136,0.068024,0.074132,-0.026299,0.009284,0.044365,0.114274,-0.076587,-0.052720,0.010538,0.077990,0.109891,-0.174562,-0.013371,0.095410,-0.040418,0.094765,-0.126683,0.051253,-0.010510,-0.069189,-0.141438,0.056196,-0.145679,0.037334,0.051492,-0.133631,0.125378,-0.085393,-0.094492,-0.013488,0.036001,0.075896,0.086897,-0.117699,0.088565,-0.012629,-0.131333,0.142395,0.024257,-0.136826,-0.123167,0.003391,0.124396,0.075785,-0.097962,0.114026,0.093865,-0.080963,0.030175,0.072473,-0.025487,0.110702,-0.059225,-0.063478,-0.146508,0.060892,0.036434,0.123229,0.008858,-0.122495,-0.191268,-0.141937,-0.093594,0.168204,-0.110894,-0.015718,-0.027013,0.066304,0.165738,-0.057905,0.073272,-0.053396,0.082567,0.070254,0.058378,0.123067,-0.067529,-0.016988,-0.049607,-0.042519,0.077669,-0.002759,-0.062273,0.040969,0.113411,0.092767,-0.163123,-0.130988,-0.038282,-0.109155,0.006109,0.099886,0.172616,0.166927,0.112753,-0.034470},
{0.035201,0.072422,-0.062559,-0.091197,-0.153160,-0.074639,-0.076320,0.058725,-0.095570,-0.001034,0.056838,-0.053510,0.172486,0.034408,0.013010,0.126096,-0.082327,0.007549,-0.092506,0.008431,-0.033426,-0.000362,0.135776,-0.048390,-0.011487,0.039909,-0.129095,-0.147402,0.095736,0.127583,-0.148183,-0.024252,0.095107,0.007030,0.074832,0.047460,-0.094898,0.068898,0.017561,-0.059828,0.120068,0.089066,-0.046956,-0.010317,-0.117214,-0.082234,0.083685,0.027546,0.073447,-0.029433,-0.052735,0.127311,0.068717,0.101502,-0.013930,-0.032331,0.183952,-0.141841,-0.152162,0.005694,0.130444,0.010040,-0.122950,-0.015240,0.075271,0.076984,0.063969,0.118890,-0.003376,0.091187,-0.001593,0.080775,-0.093218,-0.151171,0.010503,0.078299,-0.112645,-0.128211,-0.118510,0.123782,0.157519,-0.024262,-0.154121,-0.085255,0.011022,0.061700,-0.123731,-0.001784,-0.055409,-0.046272,0.053440,-0.124426,0.117586,-0.017704,-0.082431,0.028561,-0.073758,-0.129336,-0.011646,-0.094090,0.022992,-0.043454,-0.060648,-0.060411,0.015941,-0.101281,0.125299,0.097196,0.073333,0.080507,0.127733,0.116797,0.120476,0.081299,-0.060032,-0.014197,-0.138356,-0.065407,-0.104808,0.013107,-0.039353,0.036044,0.053737,-0.029283,-0.109156,-0.002845,-0.059179,-0.034292},
{-0.092362,0.060494,0.089249,0.039423,0.034736,-0.145395,-0.056054,0.091718,-0.035761,0.114450,0.018254,-0.088898,0.083724,0.014608,-0.044909,-0.154516,0.143498,-0.062452,0.081341,-0.053017,0.030053,0.135645,-0.099633,-0.009291,-0.083524,0.055310,-0.078117,0.058240,0.061376,0.104606,-0.089171,-0.070606,0.096889,0.125427,-0.116977,-0.087803,-0.132027,-0.082535,-0.003660,0.136881,-0.107552,0.140748,-0.051063,-0.020700,-0.113108,0.036098,0.141274,-0.109966,-0.076420,-0.113608,-0.073077,0.064638,0.043925,-0.067438,-0.105902,-0.158293,-0.060184,-0.089497,-0.102500,-0.030281,0.132498,0.031521,-0.147345,0.066106,-0.094405,-0.119670,-0.136153,0.041386,-0.115493,0.040272,-0.137347,0.016650,-0.030429,0.116473,0.005451,0.024595,-0.075148,-0.159850,0.114287,0.113838,0.050528,-0.083141,-0.144477,0.075271,-0.132608,-0.026320,0.104921,-0.139533,-0.078334,-0.156241,-0.150496,0.039581,-0.111889,-0.019269,-0.045829,-0.105075,-0.002459,-0.015810,0.108213,-0.015100,-0.047110,-0.025766,0.071547,-0.052769,0.079757,-0.126887,0.100469,-0.040431,-0.043103,-0.018573,-0.058525,0.052721,-0.058367,-0.027263,0.086878,0.126050,-0.133010,0.047381,-0.028725,0.108612,0.035888,0.035509,0.112246,-0.026359,-0.064527,0.118280,0.046899,-0.098711},
{0.138032,0.017072,-0.083913,-0.073470,-0.101669,-0.029569,0.151571,0.197374,-0.027851,-0.060960,-0.011692,-0.019522,0.148811,-0.102051,-0.027009,-0.063749,-0.051326,0.094566,0.061232,-0.086576,-0.133904,-0.081040,0.120655,-0.001048,0.063316,-0.174374,0.040147,-0.073802,-0.124037,0.040951,0.071939,0.048129,0.113974,0.076135,-0.150693,-0.159093,0.125576,0.117853,0.141120,0.063142,-0.040948,-0.042300,0.058520,0.080770,0.058392,0.011845,0.046247,0.047004,0.136336,0.078304,-0.025129,-0.142941,0.032940,0.009166,-0.085208,-0.105925,0.136341,-0.045690,0.129505,0.043951,0.030038,-0.007985,0.030069,0.099091,-0.032954,0.099120,-0.110281,0.088754,0.039662,-0.098322,0.020706,0.084055,0.154005,-0.130058,0.034624,-0.136225,-0.041979,-0.113008,-0.124655,-0.140515,0.114381,-0.026728,-0.000554,0.040395,-0.146009,0.148977,-0.107301,0.085681,-0.117696,-0.106970,-0.025541,-0.087458,0.182582,0.126577,-0.013936,-0.102872,0.154601,0.043927,-0.065479,-0.114611,-0.088205,0.116082,0.107492,0.133120,0.020883,0.010891,-0.038627,-0.044816,-0.022426,-0.099763,-0.116505,-0.001600,-0.136714,-0.105116,0.062377,0.048968,0.128478,0.117857,-0.134151,0.142973,-0.147610,-0.013893,-0.018972,0.107835,-0.081906,-0.083484,0.097055,0.059899},
{0.015046,-0.021971,0.044196,0.106091,-0.051771,0.070260,-0.105131,0.045809,0.000528,0.013338,0.087707,-0.148108,0.066425,-0.045662,0.147028,-0.137316,-0.005549,0.163312,-0.000879,0.054191,0.003022,0.099100,0.000156,-0.129500,0.057144,-0.081811,0.018257,0.063014,-0.005331,-0.136713,-0.095556,-0.103758,0.138068,-0.076873,0.068652,0.033730,0.083852,-0.074967,-0.080089,0.059220,-0.126777,-0.135073,-0.124554,0.116636,0.138104,0.137730,-0.015399,-0.125275,0.132647,0.186366,-0.121892,-0.111550,-0.098860,-0.083365,0.005694,0.102209,0.027622,0.048637,-0.111907,-0.046199,0.068781,-0.069274,-0.134988,-0.136218,-0.186626,-0.071588,0.124609,-0.015765,0.110302,0.082333,-0.041703,-0.074060,0.007509,0.155661,0.134742,0.015532,-0.014982,0.062955,0.049780,0.130304,0.073049,-0.164882,-0.151805,0.144793,0.027275,-0.022135,0.100221,0.025775,0.056879,0.075949,-0.018119,-0.071530,-0.044444,-0.155157,0.025491,0.069275,0.140309,-0.149958,-0.080461,-0.119473,0.065523,0.077030,0.117196,0.067094,0.118577,-0.139199,0.022105,0.035449,0.109688,0.044050,0.024147,0.179697,-0.158834,0.100056,0.042419,0.135642,0.109548,-0.008541,0.038995,0.137022,0.103344,-0.006916,-0.089691,-0.032286,-0.057217,0.154765,-0.018755,0.104917},
{-0.137294,-0.065521,0.116289,-0.011267,-0.080295,-0.063203,0.016680,0.034511,0.024768,-0.108151,0.139836,0.036825,-0.114852,-0.006032,0.117076,-0.090474,-0.146059,-0.046563,-0.089425,-0.064121,-0.029162,0.085900,-0.007086,0.047326,0.001064,-0.123071,-0.066228,0.085357,0.030636,0.098221,-0.147629,-0.071633,0.093904,0.023117,-0.061116,0.041517,0.070677,-0.017764,-0.119467,0.042336,0.098177,-0.126216,-0.029894,0.016298,-0.092257,-0.059791,-0.146741,-0.165896,-0.030581,0.058953,-0.026093,0.067169,0.152398,0.010001,-0.065015,-0.014088,-0.202014,0.041101,-0.030818,-0.048069,-0.042390,0.020567,0.120859,0.055436,-0.085296,-0.009070,-0.077380,-0.027809,0.020565,0.041257,-0.057339,0.002796,0.032936,-0.110767,-0.139440,-0.133945,0.015968,0.019958,0.148836,0.090471,-0.153914,0.003740,-0.047367,-0.046906,-0.099344,0.074816,-0.117837,0.077489,0.008107,0.032770,-0.097959,-0.114795,0.064676,0.036801,-0.122423,-0.121353,0.087282,-0.105452,-0.176814,0.030102,-0.053718,-0.118126,0.071703,-0.083576,0.122220,0.094805,-0.143357,0.015215,0.142715,0.125271,0.103455,-0.169442,-0.139090,0.021848,0.047296,-0.024544,0.018745,-0.110717,0.031921,0.095891,0.038421,0.150891,0.095039,0.140040,-0.092418,0.102101,0.063691,0.004641},
{0.028023,-0.138094,0.023813,-0.007337,0.080831,0.044696,-0.073237,-0.012074,0.012007,0.024617,0.030035,-0.057584,0.023838,-0.007831,-0.081203,-0.065189,0.082618,-0.115148,-0.004692,0.003314,-0.134360,0.193233,-0.029707,0.139701,-0.110515,-0.130068,0.090625,-0.111098,0.106442,0.112179,-0.004663,0.187931,0.046785,-0.116003,0.007146,-0.078133,0.015853,0.036063,-0.053604,-0.129979,-0.057475,0.124428,-0.033760,-0.072565,0.044372,-0.082427,-0.112293,-0.097873,-0.141688,-0.150543,-0.086706,0.031751,0.081712,0.035313,-0.077167,-0.097417,0.164320,-0.025208,-0.215165,-0.152576,0.039183,0.123554,-0.052714,-0.021675,0.162104,-0.109777,0.098002,-0.070772,-0.157407,0.061073,0.025903,0.143949,0.046252,0.185923,-0.042377,0.095200,-0.195348,0.125551,-0.114603,0.042669,0.110877,-0.103516,-0.100662,-0.057815,0.131574,0.007083,-0.070084,0.047088,-0.039420,0.004392,0.044840,0.022184,0.030452,0.107489,-0.061919,0.065498,-0.023660,-0.151845,0.128935,0.129414,-0.024585,-0.002004,0.006049,-0.093741,0.137073,0.069841,-0.124238,0.013302,-0.087969,0.105823,-0.035105,0.023079,0.101335,0.112050,0.017960,-0.024930,0.071671,0.017448,-0.031305,0.104605,-0.092874,0.138227,0.139441,0.029107,-0.170592,-0.094658,0.115966,-0.136384},
{0.020070,-0.141104,-0.040999,0.034769,0.135838,-0.044731,-0.050989,0.079654,0.055002,-0.039676,-0.112832,0.012312,-0.051650,0.045760,-0.063480,-0.165282,-0.029310,-0.126625,0.130082,-0.115711,0.067276,-0.015480,-0.003356,-0.103331,0.009589,0.177979,-0.044507,-0.049619,0.058686,0.045730,0.042191,0.125649,-0.060986,0.184111,-0.142892,0.016058,0.063377,-0.021728,-0.086263,0.027237,0.043893,-0.170813,0.068045,-0.006098,-0.006017,0.043512,-0.106397,0.097981,-0.108222,0.098186,0.121051,-0.015780,0.034180,-0.074784,0.064199,-0.087994,-0.126382,0.016383,0.151577,-0.085408,-0.065882,0.136409,-0.091870,0.018445,-0.139236,0.092477,0.052322,-0.061109,-0.058825,-0.044866,0.132046,0.052327,0.107959,-0.076532,-0.090371,0.145251,0.100783,-0.134881,0.152094,0.137035,-0.069550,0.015372,0.017530,0.012930,-0.039758,0.150907,-0.121912,-0.011147,0.112343,0.070715,0.003204,-0.145258,-0.024231,-0.109489,-0.021885,-0.069559,-0.071194,0.031700,-0.145748,-0.122545,0.034408,0.128559,0.162422,-0.149084,0.134480,0.030361,-0.006373,-0.039138,0.148268,0.090800,0.007234,-0.135535,-0.138851,-0.119151,0.116234,0.030987,-0.091666,0.106060,-0.040359,0.050948,0.069838,-0.028637,0.015932,0.136672,0.037441,0.052641,0.112181,0.113473},
{0.082168,-0.152643,-0.053865,0.086498,0.078560,0.109081,0.008672,0.034252,-0.033276,-0.032679,0.066608,-0.092220,-0.056756,-0.091921,-0.052661,-0.035258,-0.024474,-0.031702,0.124099,-0.155341,-0.000504,-0.150160,-0.011074,-0.060708,-0.152621,0.112178,0.046445,-0.140865,-0.129563,0.132964,0.115880,-0.086772,0.067987,0.118961,-0.050608,0.088155,-0.092900,-0.111682,-0.073871,0.004899,-0.135533,0.125161,0.092652,-0.022178,-0.077393,-0.135509,0.013987,-0.042396,-0.118538,0.014085,0.056216,-0.061845,-0.037862,-0.013824,-0.113695,-0.108389,0.049834,-0.118051,0.092214,0.032179,-0.093582,0.082526,0.106898,-0.111923,-0.056856,0.022848,0.032510,-0.070578,-0.143064,0.126242,-0.172600,0.060242,0.068673,0.070426,-0.166706,0.034346,-0.069651,-0.042081,0.128872,0.065565,0.098765,-0.014764,0.018482,-0.048021,0.122158,-0.072471,-0.140335,0.030798,-0.078923,-0.109226,0.006869,0.004985,0.038003,-0.131869,-0.159736,0.056090,0.034028,0.030951,0.013901,-0.081757,0.045277,0.144240,-0.093386,-0.035208,-0.072545,0.053896,0.101945,0.121839,-0.123485,-0.133102,-0.123255,-0.028854,0.123177,-0.144243,-0.160759,-0.086894,0.094938,-0.155186,0.048117,0.113311,-0.145833,0.075137,-0.126972,0.110953,-0.080803,0.026167,-0.135989,0.008864},
{0.017782,-0.018805,0.116798,0.025630,-0.078366,-0.088954,-0.167906,-0.053704,-0.050447,0.118828,0.046984,-0.141579,0.075928,-0.150488,-0.027684,0.066727,-0.098757,-0.049000,-0.011616,0.093309,0.112110,-0.069957,-0.193998,-0.014569,-0.155821,-0.123388,-0.154365,-0.120002,-0.117430,0.124278,0.020742,0.145382,-0.074894,-0.113046,0.061811,-0.090113,-0.104875,0.104684,-0.121700,0.078025,-0.142169,0.093482,-0.073363,-0.039337,-0.093386,0.011644,-0.036964,0.142486,0.092641,0.074585,0.138610,0.093715,0.150148,0.097337,0.108902,0.121242,-0.009934,0.035887,-0.085257,0.097212,-0.014874,0.088168,-0.033447,-0.150130,-0.077551,-0.050419,0.126603,-0.006885,-0.003018,-0.121624,-0.016635,0.128098,0.122141,0.132293,0.057663,0.109962,-0.000194,-0.062413,0.086791,0.082405,0.147071,0.073752,0.039662,0.099364,-0.060172,0.102984,0.113144,-0.037340,-0.082383,-0.174303,0.017008,0.035820,-0.199437,-0.040301,-0.016851,0.173318,-0.112331,-0.128001,-0.134189,-0.118409,-0.062401,0.093971,0.109012,-0.089991,-0.039186,0.108806,-0.052495,-0.034248,-0.021259,0.077474,0.111909,-0.082719,0.106977,0.030090,-0.162262,-0.093384,-0.083534,-0.017796,-0.094244,0.125726,-0.001847,0.048293,-0.129733,-0.012424,-0.105103,0.026692,0.112502,0.027957},
{0.136544,0.120073,-0.025313,0.001996,0.112973,-0.051969,0.148151,-0.019956,-0.052973,-0.158691,-0.134811,0.031635,-0.138094,0.116742,0.078096,0.015696,0.124067,0.014174,0.096941,0.098698,0.086672,0.141194,-0.147137,0.010713,-0.052731,0.074363,-0.049085,-0.073221,-0.008642,-0.009071,0.119880,0.082915,0.050726,-0.009441,0.014364,0.046265,-0.108691,-0.031463,-0.144226,0.036894,0.011255,0.027301,0.150699,-0.070909,-0.075385,-0.046459,-0.105611,-0.017498,-0.022533,0.020584,0.027938,0.094848,0.132224,-0.126342,0.058714,-0.094560,-0.144855,-0.114111,-0.007674,-0.071708,0.005746,0.115108,0.046807,0.015982,0.087867,-0.017405,-0.041282,-0.117728,-0.115581,0.009397,-0.011178,0.013871,-0.091763,-0.016666,0.155528,0.052863,0.025004,0.027489,0.149121,-0.149714,-0.113885,-0.117725,-0.080717,0.127839,-0.010991,0.134113,0.076800,0.051864,0.088231,-0.103783,0.093424,0.086318,0.124174,-0.076060,0.046070,0.025417,0.107159,-0.022130,-0.096500,0.138834,-0.147010,-0.031681,0.058078,0.031422,0.076598,-0.119985,0.123880,-0.037478,0.112096,-0.063070,0.103583,0.133607,-0.009416,0.036067,-0.139097,-0.056244,-0.114658,0.074686,0.092532,0.111173,0.097393,-0.137467,-0.035580,-0.090779,-0.086172,-0.162326,-0.166761,-0.099033},
{-0.125859,0.121623,-0.012138,0.052279,-0.035182,-0.087062,0.032944,-0.033232,-0.003534,-0.099679,-0.113856,-0.109019,-0.117616,-0.117014,-0.030598,-0.019422,0.112841,-0.017466,-0.034634,-0.137325,-0.011195,0.105237,0.022726,-0.152244,0.128640,-0.044357,-0.134917,-0.000425,0.088224,-0.020357,-0.127804,0.053413,0.020716,-0.045029,0.030736,-0.094891,0.146049,-0.096435,0.098675,-0.146782,0.025450,0.104720,-0.055825,0.115696,-0.068059,-0.002344,-0.029588,-0.026378,-0.091507,0.070180,0.130051,0.141093,0.129950,-0.044301,0.016971,0.022034,-0.138436,-0.035040,-0.056662,0.060702,0.115982,0.121185,0.057362,0.059885,-0.085200,0.126475,0.140275,0.022712,0.012790,0.000340,0.117873,0.089004,0.072686,0.048649,0.129816,-0.106992,0.039822,0.141745,0.012218,0.033522,0.044061,0.041028,-0.042620,0.099017,-0.030913,0.106707,-0.126209,0.088179,-0.008283,0.094993,0.077829,-0.098220,0.101468,-0.047668,0.112944,-0.104013,-0.111584,-0.139529,-0.124156,0.087431,-0.015214,0.045461,-0.033502,0.053601,-0.049652,0.134216,0.104799,-0.058649,0.023210,-0.066649,0.064431,0.029261,0.049014,-0.120776,0.142093,-0.052108,0.154253,0.123637,0.105872,-0.038678,-0.154187,-0.046150,0.113365,-0.076921,-0.097024,0.137364,-0.005828,0.006511},
{-0.148313,0.142239,-0.053559,0.088201,0.028041,0.074071,-0.005724,0.165652,0.136569,-0.085424,-0.053087,0.130493,-0.070894,0.089722,-0.106676,0.057981,-0.120601,0.027879,-0.109681,-0.157364,0.138372,0.151151,-0.016294,0.028998,-0.104959,0.112876,-0.028873,0.000130,0.109685,-0.080939,-0.011108,-0.074391,0.032031,-0.060411,-0.083360,0.107094,-0.097577,0.106829,-0.084047,0.109054,-0.083016,0.156932,-0.103781,0.091758,-0.012244,0.056888,-0.058266,0.076457,-0.133664,0.098042,-0.108117,0.111026,0.031121,-0.014215,-0.014195,-0.062529,0.065362,0.015874,0.073622,-0.078872,-0.158164,-0.049732,0.098277,-0.095941,-0.010459,-0.008463,0.085198,-0.101028,0.145213,0.184009,0.064680,0.040735,-0.039073,0.133082,0.081797,-0.156084,0.163691,0.033563,0.003455,-0.069173,-0.120891,-0.008692,0.110317,0.006111,0.091518,-0.048590,-0.025125,0.103781,-0.093847,-0.066117,0.089488,0.106401,-0.096272,0.106915,0.121170,-0.107093,0.014770,0.036382,-0.094034,-0.015926,-0.025838,0.129768,0.064846,0.090662,-0.044596,-0.133273,-0.029691,0.013697,0.071839,-0.134948,0.078302,-0.003165,0.069984,-0.119708,-0.091793,-0.107309,0.065308,0.138724,0.122726,-0.146239,-0.014474,-0.022144,-0.100945,-0.010462,0.102766,-0.087679,-0.044383,0.030588},
{0.032895,0.041166,-0.006434,0.159665,0.102893,0.040273,0.066319,-0.133267,-0.000478,-0.041962,0.120205,-0.055511,-0.049109,-0.033227,-0.023242,-0.008561,-0.097749,0.015000,0.141393,0.045527,-0.130059,0.149185,-0.050868,-0.012257,0.141456,0.063853,0.151385,-0.037382,-0.086401,0.067495,-0.107664,-0.106170,0.092182,-0.160234,-0.065323,-0.091007,0.040391,-0.120898,0.029896,0.024783,-0.140504,0.103912,-0.131887,-0.055475,-0.003544,-0.123195,0.025511,0.001769,-0.106635,-0.084247,-0.108209,0.118953,0.118673,-0.071961,0.102438,0.175301,0.037100,-0.021181,0.008854,-0.147741,0.081143,0.103608,0.045788,-0.057011,-0.115279,0.077320,0.151607,0.095324,-0.052546,-0.038128,-0.005026,0.151266,-0.165911,-0.147947,-0.119616,0.048458,0.081170,-0.097603,0.077746,-0.045271,0.124554,0.147578,0.105635,-0.149694,0.009197,-0.099915,0.022538,0.002089,0.106959,0.068835,0.105784,0.009465,0.067387,-0.069316,0.115453,-0.154996,0.018508,-0.079110,0.140981,0.113253,0.122773,-0.144884,0.033176,0.055409,-0.054643,0.147243,0.136981,-0.034701,0.015780,0.138595,0.045725,0.015551,-0.084150,-0.087141,0.096993,-0.150247,-0.002082,0.143064,-0.093972,0.073799,-0.089024,-0.023597,-0.054860,0.042930,-0.039804,-0.112127,0.160276,0.070220},
{0.053540,-0.023658,0.142351,0.017421,0.135225,0.131496,0.115953,-0.130567,0.084591,-0.025802,-0.124322,0.028326,0.051635,0.104713,0.057072,-0.054564,-0.010914,0.013258,-0.158587,-0.124748,-0.016205,-0.106776,-0.062436,0.081957,-0.077905,0.132841,0.092048,-0.116708,0.129519,0.130167,-0.166280,-0.024198,0.071813,0.004169,-0.139228,-0.090804,0.026734,-0.182533,0.083838,-0.078422,0.126569,-0.076436,0.003887,-0.067327,-0.004577,0.170762,-0.133886,0.121046,-0.143659,0.105673,-0.032487,-0.184592,-0.149247,0.069987,-0.007772,0.112151,-0.177706,0.053565,-0.077073,0.024585,-0.112722,0.111460,-0.142218,-0.145987,-0.058524,0.098920,0.079074,0.183067,0.073556,0.175790,0.093083,-0.089819,0.057681,-0.023873,-0.108025,0.081905,0.134863,-0.013228,-0.091797,0.089554,-0.114325,0.156907,-0.057392,-0.125445,0.172545,-0.029769,0.181827,-0.084136,0.144796,-0.116148,0.134164,-0.107503,-0.011913,0.121848,0.145975,0.166811,0.044332,0.048106,0.093395,-0.028920,-0.168712,-0.088203,-0.075064,0.017735,0.038842,-0.031497,0.103674,-0.019769,-0.075769,-0.025248,-0.064849,-0.122450,0.085143,0.101278,-0.127967,-0.029585,0.098288,-0.114906,0.019928,0.033396,-0.097311,-0.029525,0.078532,0.098462,0.072200,0.114622,-0.020593,-0.097666},
{0.133781,0.114504,0.085210,-0.181002,0.084244,-0.001982,-0.108154,0.017232,-0.116537,0.119177,-0.037952,-0.081816,-0.102275,0.092078,-0.092859,-0.071109,-0.186869,0.118320,0.053854,0.135795,0.113736,0.056331,0.120944,0.142251,-0.038883,0.105371,-0.153340,-0.115478,-0.151076,-0.107907,0.041489,-0.162015,0.127497,0.087408,0.032800,0.039502,-0.067083,0.068236,-0.047670,-0.109240,-0.091300,0.030884,-0.083552,-0.055694,0.024864,-0.016080,-0.000613,0.082928,-0.079955,0.176477,0.107020,-0.118331,0.025955,0.130120,-0.165354,-0.097900,-0.081547,0.068860,-0.054305,0.044922,-0.152564,0.133438,-0.075718,0.103563,0.068575,0.039769,-0.012376,-0.071227,-0.151472,0.173757,-0.030033,-0.113463,-0.029602,0.085874,-0.153580,-0.018731,-0.072295,-0.046978,-0.048186,-0.055600,0.103828,-0.098781,0.021251,0.043288,0.011739,-0.135901,0.043404,-0.032357,0.133720,0.035256,-0.048225,-0.100446,-0.019795,-0.087538,-0.024011,0.171365,0.080240,0.018115,-0.135495,-0.011802,0.197739,-0.037219,0.106951,-0.071546,-0.140476,-0.041113,0.137687,-0.089128,0.094533,0.059691,0.017229,-0.071447,0.107197,-0.008448,-0.076937,0.141889,-0.143564,-0.029770,0.035115,-0.053508,-0.028472,-0.058142,-0.013394,-0.074190,0.016204,-0.090853,-0.104998,-0.092579},
{-0.072573,0.129259,-0.078182,-0.154310,0.012528,-0.133641,0.064465,0.000879,-0.093445,0.001301,-0.119434,0.069321,0.043556,0.012960,0.068990,0.045535,0.100719,0.093540,0.079564,-0.113717,0.016011,-0.019844,0.058927,-0.002761,0.045428,0.114858,-0.134630,-0.075048,0.003069,0.127781,0.044371,-0.155351,0.076784,-0.069190,-0.043576,0.038503,-0.132878,-0.136409,-0.004560,0.109912,-0.121044,-0.067140,-0.011938,0.124646,0.132088,-0.079377,0.012301,-0.063208,0.027749,-0.149577,0.129072,0.122801,0.141330,0.053212,-0.033197,-0.010614,-0.086084,0.090609,0.111915,-0.092118,0.094226,0.105502,-0.164375,-0.124516,0.123215,-0.119903,-0.102848,-0.144840,-0.098541,0.054720,-0.003326,-0.141616,-0.059753,-0.014071,0.146239,-0.009471,-0.053206,-0.014572,-0.105493,-0.058955,-0.063621,0.028693,0.023625,-0.058893,0.067079,-0.110581,0.037879,-0.124080,-0.028753,0.106444,0.057554,-0.134697,-0.133126,0.078164,0.018644,-0.014605,0.101961,0.079633,-0.116886,-0.133057,-0.106513,-0.106067,-0.127248,-0.065990,0.011134,0.015929,0.049005,0.084549,-0.140725,-0.070329,0.140552,-0.087530,-0.109238,-0.106223,0.030278,0.013114,0.008696,-0.051511,0.000972,0.135057,0.074846,0.045393,0.072423,0.021789,-0.013784,0.119269,-0.005427,-0.127835},
{0.093351,-0.049180,-0.014303,-0.105084,-0.092815,0.152245,-0.060136,-0.093437,-0.131899,-0.084618,-0.020137,-0.018811,0.030145,-0.066063,0.048865,-0.071366,0.109139,0.014825,-0.043191,0.064326,0.113989,0.116543,0.075474,0.028299,-0.122639,0.087135,0.101518,0.058298,-0.117599,-0.123461,0.080834,-0.147156,-0.028023,-0.129011,-0.060588,-0.059996,0.017326,0.042290,-0.071233,0.172783,0.075929,0.129120,-0.028155,0.137087,0.182038,0.048541,-0.047202,-0.168182,0.047182,0.099907,0.158031,-0.154194,-0.030849,0.085305,0.039300,0.135327,0.073500,-0.011412,0.070236,0.094888,-0.122984,-0.016832,-0.023103,-0.018373,-0.017372,-0.065447,0.021172,0.180338,0.135041,0.092615,-0.041380,-0.103725,0.002268,0.030558,0.150546,-0.037001,0.063177,-0.084361,-0.031232,-0.104548,0.007585,-0.070722,0.050569,-0.184469,0.090018,-0.054381,-0.003009,0.125418,0.017322,-0.153883,-0.074613,0.062988,-0.039277,0.005396,0.082226,-0.055274,0.028404,0.032455,0.184103,-0.027937,0.008630,0.064162,0.176917,0.077864,0.106671,0.146286,0.064310,-0.042432,-0.084332,-0.130199,-0.092101,-0.158352,-0.095185,0.052530,0.149946,0.129293,-0.111993,0.048922,0.013105,0.026034,0.074274,-0.032284,-0.040620,0.090333,0.153265,0.219508,-0.152740,-0.093620},
{0.084994,0.146467,-0.096954,0.005919,0.103140,0.090950,-0.125868,0.058264,0.054174,-0.125748,-0.005296,0.097338,0.066753,-0.110752,0.029421,0.064960,0.090760,-0.105931,0.070923,0.074162,0.044524,-0.033338,-0.141726,0.112386,0.003053,-0.067848,-0.120053,0.021783,0.107313,-0.053162,0.053427,0.080624,-0.046468,-0.093500,-0.039742,0.034810,0.175303,0.053373,0.052943,-0.063613,0.063931,-0.067281,-0.065128,-0.152313,-0.115774,0.116485,0.024858,0.032882,-0.137501,-0.074025,0.067782,0.077973,0.117045,-0.062854,0.024946,-0.186407,-0.112186,-0.047906,-0.034069,0.123647,-0.113226,0.152811,-0.124843,-0.043822,0.139623,0.040309,0.057858,0.020866,0.036560,0.110336,0.122090,0.140871,0.004303,-0.072731,-0.039487,-0.057019,0.145512,-0.105518,-0.099129,-0.095246,-0.009138,-0.130545,0.026554,-0.049307,0.057200,0.001701,0.096080,0.114848,-0.011506,-0.011346,0.038278,-0.029853,-0.064974,0.067270,0.000797,0.110335,0.048119,-0.037872,-0.077597,0.155089,-0.038822,0.119482,0.124366,-0.116400,-0.083003,0.047881,-0.107412,-0.131099,0.111836,-0.095277,-0.080580,-0.007612,-0.017001,-0.133686,0.038691,-0.025683,-0.009776,0.005131,0.068140,-0.116275,0.019345,0.132251,0.050699,0.093110,-0.113378,0.120935,-0.058468,0.096124},
{-0.025134,-0.114493,0.099604,-0.101336,-0.045053,0.108271,0.075224,-0.116249,-0.090615,-0.147123,0.066864,0.063308,0.022579,-0.042318,-0.030169,0.102174,0.041147,0.105031,0.038466,0.003679,0.129681,-0.084616,-0.033884,-0.117724,-0.138063,-0.122614,-0.071496,0.050364,-0.015967,-0.130699,0.069787,-0.069050,0.073812,0.030224,0.025648,-0.074499,-0.148716,0.080835,0.138862,-0.123733,0.042665,0.010073,-0.084114,-0.098477,0.013505,0.149011,0.062717,-0.117641,-0.025348,-0.150169,-0.073840,-0.006291,0.013799,0.088540,-0.145626,0.050792,-0.067058,-0.126567,-0.124403,-0.123406,-0.129335,-0.021524,0.098284,0.036632,0.067014,0.104659,0.138010,-0.113169,-0.146803,0.022012,0.066860,0.013054,-0.059852,0.042000,-0.068977,-0.088913,-0.024221,-0.139830,0.136558,0.082849,-0.116596,0.029347,-0.033315,-0.105704,-0.051776,-0.097666,-0.047588,-0.131434,-0.032930,0.141415,-0.111657,-0.149629,-0.026518,0.139891,0.032622,0.151149,-0.152744,-0.122536,0.009407,0.099103,-0.071799,-0.123084,-0.138132,-0.001578,0.143302,0.138682,-0.054530,0.147125,-0.043384,0.072281,-0.101988,-0.120068,-0.148966,0.015552,0.006430,0.126079,-0.062735,-0.065832,-0.087714,0.035552,-0.007602,0.088804,0.109259,-0.073840,0.079365,-0.118257,-0.041491,-0.149685},
{0.024487,-0.017984,0.100066,0.034714,-0.130321,-0.040306,0.040153,0.151592,-0.004351,-0.067341,-0.004912,-0.072708,-0.035408,0.016228,0.126626,-0.095254,-0.037974,-0.008112,0.120802,-0.081194,-0.070612,-0.042690,0.053109,0.047702,0.013297,-0.015922,0.074393,0.138363,-0.055972,-0.046831,0.007099,0.072974,-0.018833,-0.078327,0.138885,0.000105,-0.077012,-0.051672,-0.166456,0.020271,0.020502,-0.046416,0.091260,-0.152888,-0.030092,0.057019,0.038371,-0.016926,0.088318,-0.009700,-0.131045,0.088075,-0.124314,-0.146097,-0.107085,0.158825,0.034267,0.005248,-0.204689,-0.144741,-0.168128,-0.110252,-0.016217,0.065965,-0.007321,0.025370,-0.125494,0.120122,-0.102721,0.071769,0.078655,0.012387,-0.025421,0.022503,-0.163653,0.058918,-0.019256,-0.024349,-0.163939,-0.081811,0.180021,0.091065,-0.193185,-0.002950,0.033799,0.051894,-0.087636,-0.092532,-0.090100,-0.131966,-0.147485,-0.015657,0.022303,-0.061374,-0.003758,-0.012132,-0.038891,0.063434,0.178695,0.137503,0.000173,0.115771,0.046165,0.055085,-0.134131,0.076439,0.017951,0.000808,-0.049619,0.102469,-0.017817,0.009331,-0.070473,-0.089332,0.046116,0.057137,0.065145,-0.068558,0.069549,-0.092159,-0.128303,0.131892,-0.126316,0.048886,-0.116365,-0.179186,0.106671,0.127802},
{0.151387,0.151694,-0.110923,-0.090826,0.065556,-0.133721,0.026965,0.046361,-0.000449,0.042981,0.147099,0.034269,-0.089553,-0.059336,0.150476,-0.029788,0.021615,0.035884,-0.002999,0.106491,0.075847,-0.061308,0.077859,-0.117757,-0.091695,0.123800,-0.138747,0.152799,-0.077973,0.144020,0.111384,0.018470,0.088830,0.061851,0.034712,-0.081761,0.032171,-0.037975,0.092998,0.093994,-0.142825,0.019660,0.012246,0.027654,0.137140,0.128380,-0.133645,-0.148816,0.138459,-0.024799,0.120312,0.108403,-0.011064,-0.053955,0.063635,-0.074615,0.083841,-0.009321,-0.046674,0.057865,0.039763,-0.125777,-0.153025,-0.143311,-0.009054,0.038139,-0.088622,-0.095385,-0.004189,0.158229,-0.025570,0.025370,0.075658,0.106798,0.045274,-0.062263,-0.069749,0.130354,-0.113658,0.074629,-0.032047,0.019264,0.130246,-0.005182,0.148026,-0.078519,-0.074616,0.124884,-0.087028,-0.099565,-0.015475,0.149284,-0.124880,-0.110855,-0.121672,0.059664,0.066210,0.006137,0.082767,0.118985,-0.052596,0.136928,-0.059130,-0.141358,-0.041241,-0.023992,0.000075,0.010033,0.138329,-0.132741,0.122474,0.140458,0.164116,0.062035,-0.088130,0.083470,-0.065199,-0.095012,0.150427,-0.059733,0.152876,-0.129765,-0.023845,0.054232,0.031066,0.164282,0.136515,0.119719},
{-0.127635,-0.120399,-0.032793,-0.060900,-0.140162,-0.108895,0.120875,-0.066550,-0.140817,0.046464,0.132283,0.046237,0.128632,-0.029367,0.028576,0.144497,0.073452,-0.100106,0.105424,-0.161967,-0.042272,-0.079286,-0.161692,0.116301,-0.015667,0.065965,-0.029294,-0.105156,0.098632,0.037096,0.078233,-0.073765,0.066755,-0.046956,-0.002855,0.092783,-0.073662,0.136547,0.126027,0.059205,0.075860,0.036448,0.115168,-0.080811,0.077973,-0.126469,0.121060,-0.051202,-0.076552,0.095664,0.118564,-0.105367,0.075476,-0.054321,-0.153619,0.001361,-0.011050,0.092794,-0.010030,-0.111888,0.064961,-0.083012,-0.108268,0.119375,-0.114744,0.122340,-0.026882,-0.150447,-0.065001,0.104902,-0.155966,-0.131039,0.100957,-0.137792,-0.128180,0.000791,-0.024811,-0.136906,0.050701,0.017775,0.023941,0.116899,0.118841,0.097188,0.017541,-0.016660,0.123745,-0.112749,-0.096699,0.126045,-0.159080,-0.111211,0.044539,0.140234,-0.006187,0.078879,-0.128789,0.114337,-0.100906,0.013856,-0.024778,0.141478,-0.002280,-0.026423,0.011144,-0.131789,0.115859,-0.007974,-0.047762,-0.122852,-0.113874,-0.002746,-0.056290,-0.024944,-0.128383,-0.067361,0.077176,-0.023018,0.011640,0.035263,0.092497,-0.146701,-0.048945,0.034060,-0.178996,-0.114989,0.093266,-0.005938},
{0.118801,-0.033785,0.067420,0.110490,0.095198,0.122922,0.013022,0.060988,-0.004433,0.065998,0.023359,-0.040352,-0.121782,0.046377,0.000050,-0.010234,-0.121912,0.061284,0.034404,-0.050778,-0.095141,0.112485,0.097291,-0.095375,-0.044729,0.158694,-0.059578,0.134392,-0.144556,-0.079564,0.108329,0.081135,-0.134969,0.013817,-0.060147,0.052693,0.156678,0.024968,-0.062098,0.058709,0.128727,-0.008133,0.007180,0.138094,0.225351,-0.103666,-0.152653,0.048747,0.093820,-0.055465,0.008887,0.055005,-0.004370,-0.120811,0.098593,0.046400,-0.178478,0.125826,-0.043785,0.021487,0.040909,-0.119434,-0.155816,-0.022347,0.127304,-0.022801,0.055671,0.101419,0.051111,-0.004210,-0.097940,0.043578,-0.007517,0.072256,-0.091057,0.015951,0.074300,0.029670,0.035582,-0.045679,-0.088257,-0.128333,-0.100759,0.098383,0.109217,0.014688,-0.030525,-0.005018,0.072735,0.042427,-0.070188,0.089234,0.009802,-0.060009,0.081117,-0.048459,0.000110,0.128034,-0.086981,0.121078,-0.016602,-0.093618,0.072348,-0.054479,0.109277,-0.093449,0.116378,-0.121791,0.105011,0.056930,-0.049688,0.087293,-0.065952,-0.004350,0.067974,0.078114,-0.096457,0.053314,0.075580,-0.134995,0.087564,-0.111926,-0.093717,-0.135050,-0.012771,0.089565,-0.014321,0.009876},
{0.099637,0.143201,-0.006610,-0.062922,0.012791,-0.076946,0.101824,-0.209376,-0.105974,-0.044117,0.033841,0.018497,-0.010901,0.045464,0.092594,-0.074979,-0.053676,-0.133448,0.099931,-0.065692,0.161196,-0.113683,0.105458,0.014785,0.052439,0.028515,0.072066,-0.136325,-0.041196,-0.094177,-0.036566,0.072665,0.035462,0.101007,-0.094549,0.075703,-0.042213,-0.008163,-0.015905,0.101505,-0.060414,-0.158734,0.135552,0.036413,0.061255,0.083230,0.139062,-0.185136,0.069889,-0.137338,0.029268,0.081389,-0.092859,0.066574,0.078380,0.078984,0.136098,-0.058150,-0.092398,0.068100,0.094638,-0.092322,0.122541,0.139291,-0.100550,-0.060498,0.122514,0.059523,0.057316,-0.043106,-0.081036,0.028326,-0.132886,-0.070444,0.020884,0.067993,-0.036821,-0.022935,0.150323,-0.132029,-0.158323,-0.159766,-0.072394,0.058471,-0.139896,-0.123422,0.132828,-0.100031,0.062499,-0.060109,0.100549,-0.011025,0.229720,-0.029600,-0.098716,0.091467,0.123425,-0.018381,0.071135,0.044534,0.001750,-0.033297,0.025937,0.077804,-0.135468,-0.145003,-0.152062,-0.107294,-0.074444,0.011173,0.040942,0.001927,0.097906,0.139313,0.130917,0.095193,-0.075995,-0.033368,0.062618,0.054064,-0.067465,-0.034116,-0.026807,0.035492,-0.041309,-0.058570,0.018720,-0.116095},
{-0.050262,0.060810,-0.152629,-0.148301,0.100464,0.119980,0.049990,0.016336,-0.154622,0.058892,0.135412,-0.101028,-0.079265,0.053390,0.127751,0.140879,-0.080447,0.041119,-0.071900,-0.052605,-0.096711,0.050668,0.021888,-0.009829,0.129236,0.144147,0.131484,-0.150260,0.045693,0.099558,0.148952,0.183518,0.166769,-0.059183,0.022601,-0.125159,-0.175506,-0.111446,0.023790,0.124122,0.028238,0.143049,0.004783,0.062648,0.148917,-0.114691,0.045894,0.103735,-0.022455,0.072634,-0.110356,0.081182,-0.099784,0.010314,0.048286,0.024143,-0.122639,-0.026422,-0.033378,-0.020650,0.059581,0.044583,-0.036419,0.028661,0.144205,-0.126753,-0.164041,-0.123257,0.049023,-0.132189,-0.155859,0.140086,-0.097026,-0.088551,0.048602,-0.009037,0.016302,0.033511,0.019535,0.123907,-0.057809,-0.088181,-0.049789,-0.067419,-0.123169,0.109228,-0.007361,0.055257,0.129385,-0.003680,0.123925,0.097512,-0.118505,0.085232,0.002606,-0.005869,-0.020525,0.066712,-0.104892,0.090673,-0.020443,-0.058767,0.122250,0.096677,0.044470,0.067187,0.124556,-0.089679,0.098040,-0.091317,-0.116602,-0.089094,0.127374,-0.087966,0.012514,0.108041,-0.069544,-0.154892,0.008684,-0.066539,-0.001328,-0.020983,0.018461,0.093263,-0.074394,-0.002373,-0.009963,0.027466},
{-0.024132,-0.135108,0.084621,0.142197,-0.120748,0.004286,0.065750,0.005712,0.041727,-0.108671,0.141197,-0.148771,0.109368,-0.030220,0.102087,-0.087146,-0.112730,-0.142108,0.131315,0.100759,-0.014473,-0.057206,0.080064,-0.027142,0.025730,0.032430,0.055188,0.031183,-0.044598,-0.023220,-0.057352,-0.132940,-0.011288,0.010806,0.139246,0.003347,-0.112240,0.160631,0.078108,0.113154,-0.066874,0.099457,-0.047568,0.093991,-0.007694,0.073034,0.061112,-0.071306,0.061754,-0.090038,-0.002184,0.016392,0.090103,-0.074853,-0.113647,0.100129,0.066535,-0.056008,0.113028,-0.089990,0.035385,-0.093911,0.029698,0.003224,0.004384,0.104202,-0.075220,-0.147636,-0.108263,0.083922,0.093130,-0.114056,0.086847,-0.161277,-0.048685,0.012442,0.055810,-0.039813,0.143049,0.021601,0.084618,0.075322,0.095057,-0.136931,-0.098779,-0.101407,-0.007408,-0.119587,0.097975,-0.027496,0.013320,-0.020741,0.138916,-0.008948,-0.104142,-0.013244,0.059981,-0.073709,0.003650,-0.046936,-0.141320,-0.063379,0.053371,0.035903,-0.015096,0.066444,-0.037506,0.068465,-0.134279,0.109971,-0.097006,0.051913,0.034621,0.041391,0.085457,-0.084021,0.120797,-0.141768,-0.086760,0.082668,0.027848,-0.027884,-0.129482,-0.076191,0.058023,-0.015366,-0.021766,-0.045241},
{0.047216,0.052732,-0.074718,-0.130381,0.051199,-0.010594,0.140658,-0.082010,0.024757,-0.009457,-0.137156,-0.043785,-0.076470,0.032865,-0.111976,-0.028868,-0.024214,0.003776,0.029600,0.094383,0.058570,-0.093770,-0.116230,0.055643,0.053218,-0.056388,-0.088535,-0.109322,-0.156400,-0.163045,-0.108854,-0.017673,0.090628,-0.067425,-0.011155,0.027331,-0.110090,-0.005394,0.017860,-0.123556,-0.076741,-0.039906,-0.110915,0.099679,-0.115277,0.038889,-0.092747,-0.089354,-0.045791,-0.147586,-0.102577,-0.114633,-0.110543,0.008014,0.119467,0.043735,-0.082222,-0.098848,-0.084807,-0.098782,-0.062306,0.047754,-0.129985,0.031015,0.067288,0.118058,-0.154777,-0.028751,-0.048686,-0.096860,0.011839,-0.120272,0.087764,0.069956,0.007853,-0.091988,-0.031694,0.152612,-0.157781,-0.111641,-0.150485,-0.134145,0.150526,0.137812,0.149205,-0.079385,0.052080,-0.051001,-0.002683,0.018455,0.105834,0.008234,0.081921,-0.137437,-0.071292,0.038243,-0.047757,0.095607,-0.060376,0.086780,0.015960,-0.023909,-0.080745,0.035044,-0.025033,0.072491,-0.153056,0.023477,0.086970,-0.122839,-0.108741,-0.055691,0.074136,-0.089447,0.017283,-0.015733,-0.159513,0.057301,-0.075777,0.134016,-0.029614,-0.091276,0.142341,0.084545,-0.069596,0.073876,-0.031468,-0.043058},
{0.036615,-0.096785,-0.046788,-0.116150,-0.105907,0.109830,0.069366,0.149111,-0.070680,0.131978,0.063984,0.109660,0.039971,0.087693,0.093818,-0.031632,-0.086376,0.143440,-0.126177,-0.011381,0.152445,0.057114,-0.136081,0.070986,0.096346,0.059106,0.075179,0.015850,-0.090025,-0.031669,-0.071900,-0.076582,0.010109,-0.065117,-0.081613,-0.012542,0.080658,-0.116368,-0.123193,-0.080570,-0.006398,0.064141,0.092336,-0.029506,0.175255,0.204536,-0.006005,0.013186,0.124996,0.118469,0.005762,-0.089884,-0.123652,-0.024096,0.042730,0.122347,-0.095316,-0.029565,0.106392,0.004450,0.007909,0.022535,-0.124039,0.108145,-0.022141,0.126535,0.039471,0.112690,-0.053953,0.026059,0.099539,0.052425,0.050899,-0.129903,-0.071672,0.033241,-0.017622,-0.070967,-0.035156,0.126723,-0.062191,-0.036203,0.007066,-0.091604,-0.014405,-0.123209,0.049217,-0.059830,-0.018237,0.076435,-0.078206,0.011186,-0.082432,0.008767,-0.023067,0.008647,0.054586,-0.126418,-0.023403,-0.035602,-0.098147,-0.074513,0.164999,0.049886,-0.061624,0.079335,0.093698,0.070626,0.142711,-0.042324,-0.021214,0.076447,0.167465,0.052344,0.078528,0.094265,0.065942,-0.096502,0.020122,-0.084365,-0.006892,-0.016768,0.135866,0.077700,0.161540,0.070215,0.020609,-0.056122},
{-0.037525,-0.136719,0.026774,0.029067,0.088978,-0.095953,-0.076959,-0.057068,-0.101647,0.056571,-0.077972,0.110001,-0.054426,-0.088690,0.096796,0.011396,0.049012,-0.010164,0.077087,-0.149344,-0.109839,-0.107331,-0.131586,-0.065890,-0.049370,-0.072011,0.087003,0.131448,-0.154118,-0.085526,0.075751,-0.123991,0.094902,-0.060554,0.082364,-0.033223,0.132531,-0.030937,0.070029,0.101980,0.057424,-0.033073,0.096163,0.083852,-0.014088,0.119615,-0.001015,0.126496,0.114620,0.088588,-0.106866,-0.082572,0.152644,-0.020337,0.078046,-0.071127,0.115988,-0.022206,0.095203,0.103448,-0.118102,-0.134699,0.121623,0.010763,0.170660,0.076217,-0.040550,-0.068115,-0.035935,0.165047,0.013590,-0.143134,0.007914,0.071487,-0.002846,-0.019781,0.120558,0.054781,0.014944,0.024233,0.136618,-0.047950,-0.022958,-0.006230,-0.105354,0.005818,0.002902,0.060681,0.039688,0.034949,-0.120532,-0.137341,-0.161520,-0.001392,-0.085516,-0.021452,-0.114636,0.055221,-0.119349,-0.050192,0.038879,-0.139806,-0.073476,0.036514,0.025801,0.134129,0.167150,-0.059134,-0.135016,-0.026193,-0.134210,0.100748,-0.044405,-0.037572,-0.035873,-0.054529,0.123500,0.000176,0.011814,-0.035090,0.114769,-0.069409,-0.033000,-0.056713,0.054832,0.077299,-0.079877,0.148262},
{-0.086452,-0.006209,-0.133572,0.133481,0.102487,-0.000286,0.119602,0.154330,-0.068101,-0.067209,-0.123638,-0.127973,-0.041528,-0.118777,0.147174,-0.051921,0.073095,0.159513,0.072346,-0.113269,0.073523,0.076839,0.153968,0.076908,0.098594,-0.012039,-0.016926,0.018242,0.094522,-0.066404,-0.093809,0.149098,0.152826,-0.088493,-0.125839,-0.029204,0.055547,0.000549,0.112115,0.126652,-0.085905,0.047771,-0.108221,-0.078287,-0.147833,0.151318,0.135543,-0.117466,0.053607,-0.029893,0.160394,-0.102689,0.060263,-0.049027,-0.028795,-0.112375,-0.154386,0.015833,-0.007863,0.007218,0.089134,-0.051118,0.030996,0.025605,0.104164,-0.083999,0.069186,0.138605,-0.041387,-0.042706,0.125969,-0.157288,-0.022322,0.140092,-0.125611,0.153203,-0.117948,0.004835,-0.136490,0.048899,-0.094429,-0.092989,-0.059935,-0.095717,0.105109,0.148581,-0.041300,0.086914,-0.111806,0.059912,-0.064759,0.123609,0.158055,0.087556,-0.013004,-0.035742,0.075281,-0.096369,-0.030151,-0.043995,0.060878,0.010070,0.135112,-0.063350,-0.117804,-0.133921,-0.004660,-0.062190,0.021126,-0.125348,-0.112370,0.039850,-0.078868,-0.057690,-0.027235,-0.019352,0.016698,-0.016059,0.001272,0.064342,0.069974,-0.014189,0.126994,0.020710,-0.028760,-0.055522,-0.065992,-0.126755},
{-0.070873,0.059789,0.062102,-0.099921,0.064297,0.154468,-0.014552,0.149594,0.134248,-0.038173,0.001074,-0.132747,0.020897,0.097124,-0.121330,-0.114592,0.154890,-0.034745,0.025615,0.065262,-0.102692,-0.061095,0.047409,-0.156381,-0.129160,-0.222518,-0.014746,-0.100379,-0.044955,-0.069696,-0.063571,-0.014163,0.157220,-0.093593,0.020536,0.004954,-0.085816,0.163951,-0.097094,-0.030176,-0.050789,-0.202169,-0.031837,0.129604,-0.097352,-0.144709,-0.101505,0.020228,-0.051095,0.009760,-0.099855,-0.097231,0.025695,-0.118696,-0.097287,-0.119431,0.134180,-0.021117,-0.165379,-0.048974,0.093525,-0.019624,-0.089205,-0.070646,0.206076,-0.044895,-0.085025,0.081722,-0.015539,0.035918,-0.094191,-0.008879,0.157340,-0.124234,0.000806,0.085589,-0.046202,-0.021585,0.063500,-0.045636,-0.082372,-0.016238,0.013283,0.130050,-0.003812,0.004227,-0.058243,0.152252,-0.102188,-0.032018,0.104174,-0.005249,0.148697,-0.111699,0.066877,-0.084788,0.158277,-0.075303,-0.061767,-0.105022,-0.049787,-0.053688,0.014289,-0.113422,0.102164,-0.143055,-0.001937,-0.127893,0.128684,-0.114301,-0.182567,0.143482,-0.134309,0.078682,-0.074155,0.123281,-0.019664,-0.130179,0.018865,0.092184,0.108851,0.000676,-0.025827,0.038609,0.098353,0.091166,0.068887,0.124678},
{0.034231,-0.010464,0.069112,-0.059921,0.058343,0.071673,-0.029414,0.020491,-0.043381,0.088335,-0.105915,0.013521,-0.028899,-0.110864,0.123271,0.026377,-0.140556,-0.059182,0.022065,-0.105476,-0.123790,0.059449,0.054256,0.094307,-0.016731,0.163312,0.134435,0.138215,0.123708,-0.095987,-0.026124,-0.057974,-0.018530,-0.043943,0.005322,-0.006057,-0.106997,0.088852,-0.029022,0.136154,-0.060688,0.031728,0.062898,-0.111050,0.163483,-0.052135,0.078129,0.046522,-0.039879,-0.062869,-0.063043,-0.032363,-0.081538,-0.200993,0.026994,-0.011881,-0.091261,0.076379,-0.014958,-0.141183,-0.035150,-0.144587,-0.085145,-0.088820,0.107489,0.079168,-0.080070,-0.061475,-0.040128,-0.119060,0.166118,0.073255,0.047417,0.124718,-0.095906,0.119044,0.049281,0.073244,-0.123635,-0.098895,-0.141321,-0.114672,-0.122833,-0.096837,-0.135225,-0.103823,0.110374,0.149731,-0.058828,0.084843,-0.046191,0.085810,-0.009505,-0.060202,-0.170497,-0.194225,0.041651,-0.010076,-0.075631,0.093723,0.021221,0.107785,0.081810,0.106558,0.046061,0.096977,-0.070712,-0.120868,-0.041981,0.086839,-0.130358,0.012696,0.019093,-0.144622,0.053015,-0.141650,0.014188,0.054525,0.071487,0.040583,-0.121164,0.056123,0.120953,-0.004129,0.134761,0.078470,-0.035034,0.031538},
{-0.151950,-0.114284,0.055800,-0.059045,0.078827,0.044193,-0.146997,0.114511,0.025832,0.034685,-0.088249,-0.039242,0.138126,-0.079345,0.109591,0.140033,-0.025761,-0.144511,-0.114857,0.021527,-0.124365,-0.094479,-0.078386,0.000746,0.036927,0.089967,0.097454,0.080357,-0.039288,-0.067734,0.091959,0.125147,-0.062992,-0.149522,0.071564,0.044506,0.075308,0.011123,0.054377,-0.113592,0.018046,-0.019344,0.128590,0.058345,-0.121437,-0.166251,0.057092,-0.111550,-0.053411,-0.144556,0.048836,-0.104642,-0.132400,0.124749,0.073669,0.108191,0.159702,0.035461,0.077288,0.118308,-0.017009,0.000744,-0.132813,-0.145760,0.085329,-0.058271,-0.081904,-0.069674,-0.115095,0.099797,0.062697,0.033284,0.112756,-0.087053,-0.067590,0.109324,0.032591,-0.106293,0.098514,0.081303,-0.037801,0.068462,0.148396,-0.030262,0.100527,-0.107906,0.058367,-0.111962,0.026278,-0.055254,0.120255,0.029141,-0.137353,0.093294,-0.047450,0.098514,-0.138001,0.118557,0.075794,0.120399,0.053979,-0.101625,0.116936,0.075096,0.013746,0.135409,-0.072389,-0.078454,0.011929,-0.059838,0.141497,-0.154121,-0.048698,0.044501,-0.041359,0.081194,-0.137758,0.065209,0.079076,0.138266,-0.053278,0.125915,0.141160,0.067639,-0.127124,0.116017,0.066982,0.116056},
{0.078792,0.028586,-0.127448,0.067474,0.094916,-0.158734,0.112775,0.064304,-0.137288,-0.062876,-0.144532,0.145004,0.026391,-0.050401,0.085613,0.050215,-0.124299,-0.132893,-0.157171,-0.129148,-0.060452,-0.041552,0.077696,-0.044812,0.026639,-0.184043,0.056016,0.103962,-0.100261,-0.053393,0.026844,0.073106,-0.113855,-0.174150,-0.036197,0.029553,-0.030156,0.014588,-0.039857,0.105509,-0.028154,-0.037133,0.090127,0.098276,0.020795,0.012470,-0.026851,0.082130,0.025034,-0.098642,0.125514,-0.058330,-0.035248,-0.104813,0.104167,-0.071992,-0.022429,0.030168,-0.000660,-0.093136,0.096680,0.054127,0.023723,-0.092133,0.031615,-0.079716,-0.116839,-0.079144,-0.142301,-0.012251,-0.137001,-0.039045,-0.034322,-0.110206,0.059009,-0.092655,0.076415,-0.112604,0.003140,0.077400,-0.092443,-0.144929,-0.097235,0.148872,0.014619,-0.045616,-0.041230,-0.149058,-0.011676,-0.037284,-0.023941,-0.075792,0.028944,0.032138,-0.086798,-0.102103,0.066192,0.071736,-0.174774,-0.091249,-0.075118,-0.138710,0.145903,0.130288,0.129218,0.143508,-0.028818,-0.141154,-0.010630,-0.039102,0.145421,-0.070130,-0.082466,0.099279,0.093457,0.002960,0.002027,0.064355,-0.014137,0.104332,0.123281,0.135741,0.114383,0.003128,0.022102,0.100796,0.039129,0.021859},
{0.034482,0.120503,0.116204,0.081509,-0.044783,-0.038343,-0.029070,-0.045582,0.023916,-0.050773,-0.091113,-0.060942,0.080748,0.129179,0.111694,-0.002791,-0.123805,-0.061462,-0.066422,-0.146309,0.002958,0.065463,-0.046041,-0.009959,-0.159657,-0.038853,0.050994,-0.037829,-0.112844,0.066432,-0.045914,0.004119,-0.071074,0.088449,-0.094197,-0.009944,0.025511,-0.067090,0.001497,0.118620,-0.025523,0.001001,-0.000953,-0.134235,-0.105455,-0.159091,0.109135,-0.147138,-0.099726,0.151972,0.068418,-0.085407,0.045148,-0.144468,0.145590,0.100375,0.064227,0.095290,0.097901,-0.114891,0.113039,-0.120023,-0.070036,0.102589,0.056727,0.116673,0.076469,-0.053288,0.025011,0.139799,-0.023585,-0.082743,-0.054140,0.118596,0.093654,0.095464,-0.041377,0.047105,0.041589,0.078975,0.070591,0.150359,-0.148416,0.052504,-0.080339,0.081577,0.047163,-0.002689,0.112009,-0.091193,0.059062,0.074233,-0.119711,0.073624,0.042963,0.077367,0.019186,0.095369,-0.039763,0.079259,-0.010263,-0.046274,-0.039522,-0.043534,-0.017931,0.119352,0.033606,0.162793,0.110191,-0.087508,-0.038051,-0.117958,-0.009306,0.050403,-0.094977,0.129853,0.037036,0.151965,-0.043526,0.094778,-0.147866,-0.103243,0.009099,-0.132658,0.074262,0.111928,0.103429,-0.028215},
{0.122889,-0.013818,-0.027916,-0.080615,0.044596,-0.103401,0.073006,-0.127872,-0.020828,-0.059920,-0.032248,-0.038128,-0.118438,0.085407,0.118570,0.057228,0.032531,-0.083809,0.161063,-0.107008,0.004185,-0.083169,-0.095606,0.101516,-0.051942,-0.123740,0.125708,0.052874,0.031191,0.142108,-0.023568,-0.013675,0.130906,0.109355,0.143783,-0.173245,0.024099,0.139876,0.075081,0.094500,-0.103354,-0.004655,-0.139302,0.133380,-0.073527,-0.056700,-0.071360,0.037799,-0.105795,-0.154394,-0.045434,0.061698,-0.026091,0.094826,-0.029353,0.001759,-0.002069,-0.124102,-0.129330,0.047951,-0.007845,0.075546,0.075619,-0.080845,-0.122507,0.006257,-0.032285,-0.049099,-0.152567,0.112919,-0.076073,0.026292,0.032389,0.058282,-0.037156,-0.071773,-0.021609,-0.078097,-0.054637,-0.119163,-0.047664,0.134559,0.071236,-0.061922,-0.107734,-0.087030,0.030173,0.040358,0.113260,0.174390,0.109844,0.010480,0.085586,0.027263,-0.089474,-0.055390,0.058558,0.084249,0.126696,-0.016399,0.111583,-0.073249,-0.075208,0.023357,0.037008,-0.078125,0.090608,0.087321,-0.097185,-0.068310,0.130391,0.132731,-0.022376,-0.123855,0.055021,0.148349,-0.042913,-0.054468,-0.115445,-0.104574,0.126038,-0.145281,-0.064187,-0.103678,-0.132781,0.046438,0.104321,0.108813},
{-0.033307,0.051678,0.082476,0.117590,-0.101581,0.034762,-0.108837,-0.151426,-0.122890,-0.108490,0.001366,0.038476,0.110402,0.051249,-0.070235,-0.090576,0.048959,-0.010855,-0.015861,0.143897,0.054433,0.095360,0.007652,-0.061086,-0.041630,-0.067452,-0.149156,0.102569,-0.086721,-0.130660,0.129210,0.115094,0.080786,0.047960,0.093330,-0.003686,-0.110462,0.118398,0.032170,0.141200,-0.004178,0.140506,0.083301,-0.087808,-0.078820,-0.029329,-0.076611,-0.016623,-0.119840,-0.140019,0.046580,0.098111,0.072878,0.002463,-0.112404,0.131455,0.043896,-0.152269,0.010959,-0.131031,-0.000033,0.061041,0.042015,0.030763,0.130642,-0.043375,-0.122685,0.038645,-0.048116,-0.049371,0.102926,0.022047,-0.099367,-0.051286,0.060057,0.080476,0.004677,-0.152335,0.001179,0.080647,-0.064418,-0.023754,-0.049156,-0.155990,0.132655,-0.020789,0.028880,-0.094002,-0.136032,0.044688,0.051215,0.086427,-0.003972,-0.067759,0.068038,0.005741,-0.135003,-0.024030,-0.137987,-0.017886,0.151189,0.136995,-0.044715,0.039671,-0.057374,-0.130756,-0.055545,-0.155404,-0.052468,-0.059581,0.009920,-0.095203,0.057043,0.000255,-0.053707,-0.069804,0.113515,-0.134272,0.065689,-0.135942,-0.046525,0.072885,-0.035012,0.045454,0.096202,-0.004698,0.014476,-0.082222},
