// weights_biases.h
#include <iostream>
#include <ap_fixed.h>
#include <hls_math.h>
#include <hls_stream.h>
#include <fstream>
#include <sstream>
#include <vector>
#include "ap_axi_sdata.h"

// Fixed-point type with 16 bits for integer part and 16 bits for fractional part
typedef ap_fixed<32, 16> fixed_point_t;
typedef ap_axis<32, 2, 5, 6> AXIS_IO;

// Constants
const int FEATURES = 7; // Number of features extracted
const int SENSOR_NUM = 6;
// const int NUM_HIDDEN_LAYERS = 1;
const int UNITS_PER_LAYER = 128;
const int NUM_CLASSES = 9;
//const fixed_point_t THRESHOLD = 0.9;

typedef hls::stream<AXIS_IO> stream_io;

const fixed_point_t hidden_weights[UNITS_PER_LAYER][FEATURES*SENSOR_NUM] =
{{-0.08261730521917343,0.17695724964141846,0.19678018987178802,0.15212218463420868,0.10614155977964401,0.03751404210925102,0.10813482850790024,-0.007757335901260376,0.046013958752155304,0.1727849841117859,-0.15459220111370087,0.09178093820810318,0.012475209310650826,-0.06407557427883148,0.051164399832487106,-0.033879246562719345,-0.14943772554397583,-6.560903784702532e-06,0.16483145952224731,-0.16157877445220947,-0.1966957300901413,-0.16760613024234772,0.02293170988559723,0.1850098818540573,0.18577086925506592,0.04532153531908989,-0.05382785573601723,0.015880700200796127,0.09547314792871475,-0.19732101261615753,0.11505262553691864,-0.07570653408765793,-0.1918371468782425,-0.1361754685640335,0.10974687337875366,-0.15665213763713837,0.15483559668064117,0.13088354468345642,-0.03567466512322426,-0.1912292093038559,0.21602727472782135,-0.1224277913570404},
{-0.059372514486312866,-0.13324066996574402,-0.2943388819694519,0.1445537805557251,0.04284600913524628,-0.05513233318924904,0.057109273970127106,-0.03608676418662071,0.03289014473557472,0.0025151437148451805,0.12440387904644012,0.11825968325138092,-0.13368959724903107,-0.08179658651351929,0.1046210452914238,-0.017012884840369225,0.1458897888660431,0.10881524533033371,0.11890974640846252,0.06451855599880219,-0.04546678066253662,0.03506018966436386,-0.12223547697067261,-0.05075821653008461,-0.2815499007701874,0.118747279047966,0.16029755771160126,-0.22703196108341217,0.05855000019073486,-0.03333108872175217,-0.09014859050512314,0.0012026717886328697,-0.12529291212558746,0.3087899684906006,0.1255539208650589,0.14011436700820923,-0.019672509282827377,0.13327409327030182,0.04065155237913132,0.2986815571784973,0.07192064076662064,0.1448892503976822},
{0.15769192576408386,-0.13377779722213745,-0.14726562798023224,0.028262168169021606,0.0400061160326004,-0.09793397784233093,-0.10416185855865479,-0.15216869115829468,0.04872231185436249,-0.013579532504081726,-0.1778365969657898,-0.05612318217754364,-0.18575690686702728,-0.13352033495903015,-0.12208795547485352,-0.14726772904396057,-0.14987990260124207,-0.12376703321933746,-0.17221133410930634,-0.044087380170822144,0.03440673649311066,-0.05438879132270813,0.09681326150894165,-0.0527566522359848,-0.09190957993268967,-0.1366390436887741,0.18440306186676025,-0.14469176530838013,-0.12250177562236786,-0.028382882475852966,0.08956637978553772,0.005768284201622009,0.12590375542640686,-0.0012638717889785767,0.00449003279209137,-0.10921710729598999,-0.06394751369953156,-0.04763577878475189,0.03232283890247345,0.12456569075584412,0.04030638933181763,-0.13172098994255066},
{0.10917192697525024,0.18588799238204956,0.12576749920845032,-0.012454386800527573,-0.07052408903837204,0.02330012619495392,-0.06908441334962845,-0.06729986518621445,-0.009242781437933445,0.11443343758583069,0.1575876623392105,-0.10945291817188263,0.0767829418182373,-0.013671615161001682,-0.04603304713964462,0.07889469712972641,0.019833534955978394,-0.1010817214846611,-0.08325926959514618,-0.004671080969274044,-0.10698224604129791,-0.10460568219423294,-0.026606062427163124,0.04381715506315231,-0.107870914041996,-0.03662983700633049,0.17137131094932556,0.1502695530653,0.07554655522108078,0.2020975798368454,0.01716676726937294,-0.06556615978479385,-0.1372651606798172,-0.1771916300058365,0.13347597420215607,0.0028720886912196875,0.11093378812074661,-0.09399081766605377,-0.019988104701042175,0.1121053472161293,0.02351227216422558,-0.1257076859474182},
{-0.10933908075094223,-0.011630251072347164,0.17164203524589539,-0.0939989686012268,-0.039642583578825,0.039903607219457626,-0.05773577839136124,-0.03302984684705734,-0.20541663467884064,0.12147382646799088,0.12922891974449158,-0.1909983605146408,-0.05388272553682327,0.12823674082756042,-0.1824292689561844,-0.019206903874874115,0.2129417359828949,0.07996129989624023,-0.12588603794574738,0.07583959400653839,0.0704541802406311,0.014165702275931835,-0.05378195643424988,-0.06602710485458374,0.1449500471353531,-0.065644271671772,-0.10855430364608765,-0.1550263613462448,-0.022813940420746803,-0.08608730882406235,0.1661156862974167,0.07077500969171524,0.05796929821372032,0.01632414571940899,0.0945931226015091,-0.15590931475162506,0.1514090597629547,0.10197526961565018,0.18188340961933136,0.03173872455954552,0.24685639142990112,-0.0014701905893161893},
{-0.02367791160941124,-0.06321704387664795,0.13425298035144806,0.28672879934310913,-0.17311225831508636,0.02928084507584572,0.0783165916800499,0.008980377577245235,0.06729089468717575,-0.051515061408281326,-0.06816575676202774,-0.03727027773857117,0.1658603847026825,-0.029116377234458923,-0.11295010894536972,0.12889674305915833,0.10081194341182709,0.30208832025527954,0.2519817054271698,-0.01225314661860466,0.20637865364551544,0.15445348620414734,-0.1400528848171234,-0.2512262463569641,0.2267216444015503,-0.24030792713165283,0.07000217586755753,-0.07152551412582397,-0.12799327075481415,-0.0735275074839592,-0.179711252450943,-0.3924976885318756,0.06390884518623352,-0.33022433519363403,-0.021348608657717705,0.16499550640583038,0.027920516207814217,0.16622717678546906,0.17761431634426117,-0.06416860222816467,-0.2549496591091156,0.0016646151198074222},
{0.027626454830169678,0.1584261655807495,0.05727723240852356,-0.06078387796878815,-0.02288186550140381,0.18205270171165466,-0.03577497601509094,-0.18133993446826935,-0.11783333867788315,-0.18075786530971527,-0.02267564833164215,0.05459262430667877,0.18493342399597168,0.03307446837425232,-0.11856482177972794,0.011558011174201965,-0.16881442070007324,-0.1588291972875595,-0.09833373874425888,0.02485746145248413,-0.15692012012004852,-0.08760959655046463,0.15112853050231934,-0.17256446182727814,0.036253154277801514,0.044668763875961304,-0.03176093101501465,0.1513366997241974,-0.018313854932785034,0.03176043927669525,0.03448328375816345,0.07065576314926147,-0.021384283900260925,-0.06922595947980881,-0.08235780149698257,0.09729266166687012,0.1448153853416443,0.07245373725891113,0.15550866723060608,-0.12352332472801208,-0.15657132863998413,-0.0013110339641571045},
{0.08520545810461044,0.12521211802959442,-0.05936335772275925,-0.038744788616895676,0.049830496311187744,-0.012492244131863117,0.09242315590381622,-0.18768298625946045,0.046486202627420425,-0.1548149138689041,0.1843811422586441,-0.06402216106653214,-0.19172640144824982,0.13907210528850555,0.08609193563461304,-0.018873417750000954,0.08338996022939682,-0.0486309714615345,-0.12095127999782562,-0.12848930060863495,-0.018402399495244026,-0.12386080622673035,-0.0980987623333931,-0.009458748623728752,-0.0410010926425457,0.15525846183300018,0.17316272854804993,0.02495664916932583,-0.052792102098464966,0.15769542753696442,0.10490971058607101,0.05971825122833252,-0.13754309713840485,-0.11725444346666336,0.03713279217481613,0.06224317103624344,0.029125280678272247,-0.07960399985313416,-0.26419684290885925,0.009142701514065266,0.005190557800233364,0.14610221982002258},
{-0.1531798541545868,-0.03738754615187645,-0.14062553644180298,-0.09125986695289612,-0.26748666167259216,-0.01778434030711651,0.09628648310899734,0.15674889087677002,-0.02305724285542965,0.050705764442682266,0.08801504969596863,-0.14807645976543427,0.14542271196842194,0.04239937290549278,-0.041921913623809814,-0.010283954441547394,-0.08462605625391006,-0.10110137611627579,0.021678557619452477,-0.15535297989845276,0.023904383182525635,-0.06689875572919846,0.13657352328300476,-0.29093584418296814,0.3786309063434601,-0.035581495612859726,-0.17689867317676544,-0.15165796875953674,-0.12306103855371475,0.029531439766287804,-0.16572943329811096,0.2256545126438141,-0.0886562243103981,-0.30088964104652405,0.06434935331344604,-0.17170007526874542,0.19462950527668,-0.11022220551967621,0.20095030963420868,0.1223091334104538,0.06539063155651093,-0.1698448359966278},
{-0.10437867790460587,0.2228190302848816,0.13535398244857788,0.00324180256575346,-0.08053267002105713,0.1433093547821045,0.2245463877916336,-0.0008887217845767736,-0.07396712899208069,0.07366982102394104,-0.10156715661287308,0.023479821160435677,-0.09010294079780579,0.1856813281774521,-0.09059648960828781,-0.03331723436713219,-0.0024411093909293413,-0.08951659500598907,-0.10004378855228424,-0.06356744468212128,-0.04787130653858185,-0.14784565567970276,-0.08897900581359863,0.08136660605669022,0.00439270306378603,0.20009814202785492,-0.04204009845852852,0.05183340236544609,-0.11164892464876175,-0.06550740450620651,0.0809081643819809,0.24326355755329132,-0.014632182195782661,-0.1538354754447937,-0.0938381478190422,0.07610983401536942,-0.026451241225004196,0.04366312175989151,0.27673161029815674,-0.13127008080482483,-0.1463012993335724,0.018381617963314056},
{0.007005332503467798,0.03669075667858124,-0.2915513813495636,0.1439475417137146,0.10204172879457474,0.23107434809207916,-0.01727771945297718,-0.08815626800060272,0.011697772890329361,-0.008636507205665112,0.008179296739399433,-0.11666516959667206,-0.1001582145690918,0.13837406039237976,0.007896564900875092,0.06695474684238434,-0.10675378143787384,0.12496825307607651,0.08778496831655502,-0.011567115783691406,-0.054208312183618546,-0.053029414266347885,-0.22620537877082825,-0.10917588323354721,-0.34561020135879517,0.03874349966645241,-0.22645463049411774,-0.005605470854789019,-0.10955771803855896,-0.05378115549683571,-0.32828012108802795,0.1545025110244751,0.11907408386468887,0.08235563337802887,0.034396942704916,0.1648140698671341,-0.21926607191562653,-0.20528849959373474,0.255224347114563,0.0482279397547245,-0.05085204914212227,-0.10677704215049744},
{-0.04214627668261528,-0.044341493397951126,-0.1019611582159996,0.11060180515050888,-0.20684757828712463,0.18728211522102356,0.01765075884759426,0.07373905181884766,0.15910735726356506,-0.23250612616539001,0.14374615252017975,0.29180681705474854,-0.11090825498104095,0.08042774349451065,-0.012128273025155067,-0.15763135254383087,0.19617527723312378,0.25038793683052063,0.12864276766777039,0.06763166189193726,0.11652296781539917,-0.1722995638847351,-0.010922019369900227,-0.24171453714370728,0.05747067928314209,-0.1637183278799057,-0.04569073021411896,-0.14545105397701263,0.00394659535959363,0.13367342948913574,-0.19113217294216156,-0.1958649754524231,-0.009226054884493351,-0.17750681936740875,0.09975483268499374,-0.07696626335382462,-0.011112654581665993,0.11949078738689423,-0.2406003475189209,0.1394159197807312,-0.11547648161649704,0.22007814049720764},
{-0.18489642441272736,0.07018426060676575,0.07626605033874512,-0.11311348527669907,0.17579582333564758,-0.007600679993629456,0.08339306712150574,-0.06420304626226425,-0.06783116608858109,-0.051896750926971436,0.05182965099811554,0.03866954147815704,-0.028682351112365723,-0.16330651938915253,-0.15027286112308502,-0.11227141320705414,0.14824628829956055,0.12042921781539917,0.06435659527778625,-0.025559917092323303,0.08713346719741821,0.0961829125881195,0.0470723956823349,0.00797070562839508,0.14916539192199707,0.050223708152770996,0.1208210289478302,-0.056109294295310974,-0.03782401978969574,-0.07457387447357178,0.058090537786483765,0.01104806363582611,0.05396720767021179,0.13499131798744202,0.003264188766479492,-0.01574830710887909,-0.09965265542268753,-0.04613715410232544,0.08973845839500427,-0.10394672304391861,-0.05555281043052673,0.06592956185340881},
{0.09180135279893875,0.09385664761066437,-0.2399018257856369,-0.041208043694496155,0.1019435003399849,0.18225087225437164,0.18073374032974243,-0.02312721312046051,-0.017653368413448334,0.006701309699565172,-0.04219952970743179,0.12902279198169708,0.08724484592676163,-0.16013358533382416,0.08426322042942047,0.04838520288467407,-0.0020060010720044374,-0.12497618794441223,-0.11929604411125183,-0.14065343141555786,0.04957414045929909,-0.1618875116109848,0.1557527333498001,0.17112034559249878,-0.13850826025009155,-0.02311978116631508,0.036817215383052826,-0.04171908646821976,0.02186320535838604,0.10681275278329849,-0.03786423057317734,0.2032802700996399,0.06631369888782501,0.17225401103496552,0.1489899456501007,-0.057466182857751846,0.05534283444285393,-0.20822268724441528,0.25601139664649963,0.12324418872594833,0.1081676036119461,0.08733877539634705},
{-0.01583852618932724,-0.036057326942682266,0.1136784702539444,0.07889221608638763,0.12281916290521622,0.09416239708662033,-0.01351851224899292,-0.09956257045269012,0.08490612357854843,0.03882496431469917,-0.0027941144071519375,0.09506106376647949,0.02341606095433235,0.11427918821573257,-0.06542600691318512,0.13429096341133118,-0.12573464214801788,-0.12371625751256943,0.14847823977470398,-0.13086149096488953,-0.02210986241698265,0.06038223206996918,0.15850599110126495,0.05711594596505165,0.09584438055753708,-0.016392789781093597,0.14429917931556702,-0.09338346123695374,0.09734953194856644,-0.10581954568624496,0.010712034069001675,0.10883359611034393,0.018466677516698837,-0.21768657863140106,0.04858870059251785,0.07882817834615707,0.09439846128225327,-0.03624219074845314,-0.083943672478199,-0.16557417809963226,-0.053408507257699966,-0.022168222814798355},
{-0.13291582465171814,0.06824135780334473,-0.004244491457939148,-0.15166622400283813,-0.08988793194293976,0.08052951097488403,-0.11661860346794128,-0.06749648600816727,-0.16653093695640564,-0.1236736923456192,-0.08992788940668106,0.17490413784980774,-0.04226250946521759,0.018513083457946777,-0.020312070846557617,-0.1796056181192398,0.10696113109588623,0.06448379158973694,-0.08589508384466171,0.02313937246799469,0.028119951486587524,-0.10392558574676514,0.09737032651901245,-0.10204212367534637,0.10570880770683289,0.15911486744880676,0.13396614789962769,0.18637365102767944,0.02641291916370392,0.04531474411487579,-0.11753883957862854,-0.02624066174030304,-0.024572104215621948,0.15035808086395264,-0.07169743627309799,-0.13550901412963867,0.16723817586898804,0.06999507546424866,0.08710774779319763,0.0868762731552124,-0.1658492088317871,-0.10885264724493027},
{-0.12258287519216537,0.05743037909269333,0.1510426104068756,0.2177853137254715,-0.04704447090625763,-0.07543342560529709,0.19445611536502838,-0.08557207882404327,0.19843794405460358,0.12370219826698303,0.1910756230354309,0.24146768450737,0.10633953660726547,0.10495477169752121,-0.0669839158654213,0.04582991078495979,0.015682082623243332,0.06812767684459686,0.0008886216674000025,0.036204591393470764,-0.09238175302743912,-0.02032352052628994,0.10131364315748215,-0.04867896810173988,0.04637138918042183,0.16024047136306763,-0.17367500066757202,-0.016673250123858452,-0.06084122508764267,-0.15562593936920166,-0.006689294707030058,-0.006762102246284485,-0.27621474862098694,-0.22553637623786926,-0.03856659680604935,0.13782113790512085,-0.13082684576511383,-0.12820018827915192,-0.12252252548933029,0.09291671216487885,-0.034883443266153336,0.18238461017608643},
{-0.10070236772298813,0.041915327310562134,0.11527198553085327,0.06030868738889694,-0.06542852520942688,0.19233642518520355,0.08831784129142761,-0.15570935606956482,0.09007694572210312,0.013168870471417904,0.02128302864730358,0.03392978012561798,0.11978739500045776,0.1146482527256012,-0.12312298268079758,0.0481051541864872,-0.1683425009250641,0.15482774376869202,-0.012038595043122768,-0.07626567035913467,-0.14932824671268463,-0.0187052134424448,0.035972971469163895,0.10327403992414474,-0.0005354274180717766,0.011643665842711926,-0.1410733163356781,-0.19107310473918915,-0.18050698935985565,-0.032632943242788315,-0.02969195507466793,-0.01056106947362423,-0.0389845110476017,-0.0582779124379158,-0.16990043222904205,-0.14291703701019287,0.025236936286091805,0.02556530199944973,-0.0013861671322956681,0.14924325048923492,-0.14153781533241272,0.09755616635084152},
{-0.09009108692407608,0.11792054772377014,-0.018176766112446785,0.026675568893551826,0.13359728455543518,0.2185646891593933,-0.07240666449069977,0.05739147588610649,0.1179107129573822,0.19428971409797668,0.217625230550766,0.12330841273069382,0.08854103088378906,-0.053039174526929855,0.050709597766399384,-0.019462617114186287,-0.013722320087254047,-0.216649129986763,-0.15724800527095795,-0.1091376319527626,0.11732553690671921,-0.1120937392115593,0.09945055842399597,0.024980491027235985,-0.14764323830604553,0.09591946750879288,-0.2302185595035553,0.19813291728496552,-0.002799271373078227,-0.12341334670782089,0.15844114124774933,-0.0041527701541781425,-0.04129299893975258,0.08641461282968521,-0.09729202091693878,-0.0805036649107933,0.18703244626522064,-0.11589124798774719,0.06005072221159935,-0.03058045543730259,-0.05301928520202637,0.09135891497135162},
{-0.03428970277309418,0.1408023238182068,0.04274584352970123,0.1506032645702362,0.02673855423927307,0.10784143209457397,-0.11643201112747192,-0.05372188985347748,-0.13836166262626648,0.05171601474285126,0.07411488890647888,-0.11312190443277359,-0.01754675805568695,-0.011985182762145996,-0.14860133826732635,0.06466686725616455,-0.02179667353630066,-0.16657137870788574,-0.08116322010755539,-0.14045295119285583,-0.08578108996152878,-0.1706874966621399,-0.03628653287887573,-0.07632981985807419,0.16645464301109314,0.18101397156715393,0.12302479147911072,-0.08537030965089798,0.17262551188468933,0.10537436604499817,-0.15847808122634888,0.17178070545196533,0.0005905181169509888,0.12363368272781372,-0.17219968140125275,0.11890891194343567,0.14288169145584106,-0.12169262766838074,-0.12391068041324615,0.03482222557067871,-0.0178692489862442,-0.09224376827478409},
{0.10051894187927246,0.04248271510004997,-0.003278249641880393,-0.18722055852413177,0.05970829725265503,0.0715554729104042,0.09235183894634247,0.15816541016101837,-0.0640387013554573,-0.11266425251960754,-0.041861239820718765,-0.030274203047156334,-0.009184611029922962,-0.12445361912250519,-0.16262012720108032,0.07004635781049728,0.041382960975170135,-0.1772271990776062,0.029909653589129448,-0.24595917761325836,0.06682392954826355,0.052238088101148605,0.14336314797401428,0.10614141076803207,-0.17661941051483154,0.2097686380147934,-0.19555296003818512,-0.2520582377910614,-0.081092469394207,-0.060111820697784424,0.14784641563892365,0.029905257746577263,-0.08132317662239075,0.13223375380039215,0.09358774870634079,0.06906342506408691,0.10539223253726959,0.17017121613025665,0.12035136669874191,0.05569491535425186,0.3022145926952362,0.013245257548987865},
{-0.20118702948093414,-0.018735410645604134,-0.027229737490415573,0.16245251893997192,-0.061152487993240356,-0.013740773312747478,0.09432151913642883,0.0813504308462143,0.1610414832830429,0.12699005007743835,0.13083170354366302,0.08241841942071915,-0.06380266696214676,-0.09016437828540802,0.0789824053645134,-0.07440181821584702,0.20268985629081726,-0.1413871794939041,0.23706667125225067,0.18306772410869598,0.028625773265957832,-0.05003846064209938,0.10212552547454834,-0.23945264518260956,0.018756531178951263,-0.1235775575041771,0.21921205520629883,-0.01913871057331562,-0.15235410630702972,-0.13968098163604736,-0.1009434312582016,-0.1546807736158371,0.05593733862042427,0.09548226743936539,-0.09516452252864838,-0.11646885424852371,-0.10402516275644302,-0.12514184415340424,0.21085625886917114,0.12462114542722702,-0.07150867581367493,-0.12075268477201462},
{0.021562837064266205,-0.1302470862865448,0.16150273382663727,-0.16812941431999207,-0.17638039588928223,0.04965836927294731,-0.09681770950555801,-0.09382542222738266,-0.1481068879365921,-0.14778707921504974,-0.08647354692220688,0.12924964725971222,-0.07553213834762573,-0.09890278428792953,0.04796142503619194,0.13781233131885529,0.08800065517425537,0.021097300574183464,0.14968883991241455,-0.19855552911758423,0.12288006395101547,-0.1681925505399704,0.2066246122121811,0.07517854124307632,-0.018809888511896133,0.054608967155218124,-0.15657329559326172,-0.012656422331929207,-0.0863049253821373,-0.15404312312602997,-0.11236593872308731,0.054061297327280045,0.17280569672584534,-0.15081743896007538,0.007443981245160103,-0.1539032757282257,-0.10082186013460159,0.06863804906606674,0.07798319309949875,-0.025113871321082115,-0.014221311546862125,-0.174333393573761},
{-0.11282139271497726,-0.11743488162755966,-0.25617706775665283,0.15199550986289978,-0.06633123010396957,0.041819244623184204,-0.1388876736164093,0.1720275580883026,0.08334426581859589,0.01110689714550972,0.16681820154190063,0.10219401121139526,-0.1451258361339569,-0.02871772088110447,-0.10002067685127258,0.06685122847557068,-0.008225206285715103,0.062032755464315414,0.21205681562423706,0.15799812972545624,0.2635631859302521,0.21640267968177795,0.04710707068443298,-0.1647994965314865,0.11487435549497604,-0.044141486287117004,-0.16255530714988708,0.06929374486207962,-0.08039427548646927,-0.052732739597558975,0.14500145614147186,-0.3741636574268341,-0.13342660665512085,-0.08997437357902527,-0.01121448539197445,-0.12080250680446625,-0.14127619564533234,-0.11973553895950317,0.10980922728776932,-0.07000957429409027,0.2009568214416504,0.06669871509075165},
{-0.0862622782588005,0.034690529108047485,-0.1151336058974266,0.07739686965942383,0.09675607085227966,0.05844739079475403,-0.17111444473266602,-0.13820448517799377,-0.10549398511648178,0.00014001131057739258,0.08300602436065674,0.034528300166130066,0.10092368721961975,-0.16710220277309418,-0.11168661713600159,-0.10558007657527924,-0.029653474688529968,-0.036591559648513794,0.16935810446739197,0.12264731526374817,-0.020422518253326416,-0.05601505935192108,-0.06301997601985931,-0.020707935094833374,0.1735294759273529,0.08434337377548218,0.17234745621681213,0.11056706309318542,0.021634116768836975,-0.12442734092473984,0.1548440158367157,-0.13287171721458435,-0.09172705560922623,0.08020734786987305,-0.06202346086502075,0.07072126865386963,-0.05070732533931732,-0.17746949195861816,0.016684353351593018,0.02623322606086731,0.033814191818237305,-0.06979946047067642},
{0.12629158794879913,0.0006663297535851598,-0.012922887690365314,0.0752830058336258,0.06507612019777298,-0.04992275312542915,0.08310632407665253,-0.1044803187251091,-0.10328929871320724,-0.155113086104393,-0.05856847018003464,-0.06872007250785828,0.11871557682752609,0.004994632210582495,0.14001646637916565,0.14645715057849884,0.24807213246822357,-0.1924380660057068,-0.07274697721004486,0.1577526479959488,-0.03267928585410118,0.09097295254468918,0.13223035633563995,-0.17588378489017487,-0.09081745892763138,0.25987234711647034,0.12464551627635956,-0.1293932944536209,0.09230348467826843,0.07232491672039032,0.04830867424607277,0.0028058767784386873,0.07562704384326935,-0.0058455076068639755,-0.1902504563331604,0.14523133635520935,-0.058133482933044434,-0.15387488901615143,-0.0899086520075798,-0.01759869046509266,0.05656299740076065,-0.18624678254127502},
{-0.13840031623840332,-0.0310201495885849,0.1366787999868393,-0.008225103840231895,0.1810046136379242,0.1857355684041977,-0.1432538479566574,0.14205077290534973,-0.1530677080154419,-0.14467881619930267,-0.14842721819877625,-0.06982334703207016,-0.20253705978393555,-0.03504990413784981,0.09506676346063614,-0.07653270661830902,-0.170630544424057,0.06547728180885315,0.0711933895945549,0.15849436819553375,0.08290709555149078,-0.20310406386852264,0.10505164414644241,0.14799964427947998,-0.18169310688972473,-0.008129986003041267,-0.17112287878990173,0.12477745115756989,-0.12454959750175476,0.15754108130931854,0.17119598388671875,-0.11259454488754272,0.15673257410526276,0.2861294448375702,-0.10710243880748749,0.1272251307964325,0.13544675707817078,-0.11282067745923996,0.15111149847507477,0.0078091006726026535,-0.04018787667155266,0.017092997208237648},
{-0.04277031496167183,0.023313414305448532,-0.09285353124141693,-0.1442018300294876,0.012366329319775105,-0.20088055729866028,-0.02477751299738884,0.027806930243968964,0.13397030532360077,-0.1138545349240303,0.04206164553761482,0.07142981141805649,-0.1070958599448204,0.0077811856754124165,0.04386018589138985,-0.10156324505805969,-0.049684297293424606,-0.18032389879226685,0.08920580893754959,0.01630932092666626,-0.019751818850636482,0.06716793775558472,-0.006409757304936647,0.03931441158056259,-0.1840440034866333,-0.17031018435955048,-0.144974485039711,-0.08024623990058899,0.0031311579514294863,-0.12032453715801239,-0.19893474876880646,-0.05304831266403198,0.15984748303890228,0.18857510387897491,-0.17994236946105957,-0.14761489629745483,0.04114540293812752,-0.11022203415632248,-0.15044565498828888,0.04752076789736748,-0.04218524321913719,-0.10008114576339722},
{-0.15098704397678375,-0.16119830310344696,0.1513630449771881,-0.13242898881435394,0.048484403640031815,0.10850946605205536,0.11280770599842072,-0.13699474930763245,-0.11738918721675873,-0.12799300253391266,0.15002739429473877,-0.12333837151527405,0.04597226157784462,-0.0707608237862587,0.09722987562417984,-0.04096998646855354,0.0974302664399147,0.13652758300304413,-0.20478612184524536,0.08843208849430084,-0.025362389162182808,-0.15808098018169403,-0.11380136758089066,0.1656467765569687,-0.20374135673046112,0.06905042380094528,-0.08039013296365738,-0.18641480803489685,-0.10906203091144562,-0.10880599170923233,-0.03773122280836105,0.05037093907594681,-0.18241596221923828,0.011905709281563759,-0.06810715049505234,-0.17704905569553375,-0.06464200466871262,-0.054852019995450974,-0.09045525640249252,0.15561120212078094,-0.15406832098960876,-0.07826292514801025},
{0.12173964083194733,-0.0936610996723175,0.05030904337763786,-0.1415219008922577,0.07840381562709808,-0.19063347578048706,0.003514887299388647,-0.047772280871868134,0.1765964776277542,0.0682082325220108,0.028319483622908592,-0.10046522319316864,0.03047933615744114,0.13652610778808594,-0.07580287009477615,0.1046309843659401,0.37582263350486755,0.1288430094718933,0.11093214899301529,0.23637674748897552,0.06276018917560577,0.12401758134365082,-0.04938414692878723,-0.23852093517780304,-0.3286460041999817,0.1453240066766739,0.17584851384162903,0.017051715403795242,-0.03248440474271774,0.11214478313922882,0.10067930817604065,-0.13393762707710266,0.05909803509712219,0.45060980319976807,0.011817146092653275,-0.010768968611955643,0.08087482303380966,0.07689400017261505,0.21480506658554077,0.09946621209383011,0.08806461095809937,0.16556841135025024},
{-0.07340491563081741,-0.11268088966608047,0.1153266429901123,0.11047148704528809,0.025056958198547363,-0.08844848722219467,0.08160480856895447,-0.10933218151330948,0.07380902767181396,-0.07368934154510498,-0.12509611248970032,-0.0865819975733757,-0.1353088915348053,0.17251113057136536,-0.0677550658583641,0.1370898187160492,-0.09462673962116241,0.016546979546546936,-0.10435231029987335,-0.15307140350341797,-0.18733955919742584,0.003931000828742981,0.13021865487098694,-0.03796762228012085,-0.13799357414245605,0.006638705730438232,0.06784194707870483,0.03463687002658844,0.18175801634788513,-0.025898724794387817,0.058154553174972534,-0.06107693910598755,0.0007437169551849365,0.11552751064300537,-0.12041191756725311,-0.17312954366207123,-0.06818962842226028,-0.17560693621635437,-0.14125274121761322,0.11085739731788635,0.17220917344093323,0.17563390731811523},
{-0.10567651689052582,0.02630295790731907,-0.08599589765071869,-0.15911296010017395,-0.08023138344287872,-0.08811276406049728,-0.027724701911211014,0.13182035088539124,-0.0912182629108429,-0.06783154606819153,0.12280983477830887,0.005405005067586899,-0.12087216228246689,0.14300739765167236,-0.10107330977916718,0.10327520966529846,-0.08008488267660141,-0.140134796500206,0.0019044555956497788,-0.07943110913038254,-0.17134827375411987,-0.17808294296264648,-0.020755652338266373,-0.014861770905554295,-0.1634230613708496,-0.005376914516091347,-0.025150476023554802,0.016980662941932678,0.12801027297973633,-0.00407757144421339,0.24418975412845612,-0.19090205430984497,-0.05284925177693367,0.04064364731311798,-0.18058186769485474,0.08928314596414566,-0.17550350725650787,-0.07611662149429321,0.08092446625232697,-0.17253658175468445,0.12405895441770554,-0.16929158568382263},
{0.1576843112707138,-0.14589181542396545,-0.04015520215034485,0.12945805490016937,0.10676747560501099,0.24608294665813446,0.0716656818985939,-0.16042010486125946,0.2718091607093811,-0.0389292947947979,0.13701722025871277,0.004754894413053989,-0.048060812056064606,0.006475186441093683,0.0035547318402677774,0.07692734897136688,-0.016557922586798668,0.0947079136967659,-0.042883966118097305,-0.08766849339008331,0.15420293807983398,-0.037414904683828354,-0.003780344035476446,0.0892215445637703,-0.09988067299127579,-0.12297284603118896,-0.27277135848999023,-0.050772640854120255,-0.08031155914068222,0.08881981670856476,0.07213091850280762,-0.06200984865427017,-0.11401593685150146,-0.04855089634656906,-0.10963291674852371,-0.1557416170835495,0.20781531929969788,-0.2386964112520218,0.014341844245791435,-0.0322478823363781,-0.0008563362644053996,-0.08014511317014694},
{0.005006656050682068,0.07975804805755615,0.027937784790992737,-0.04235289990901947,0.005484670400619507,-0.03326717019081116,-0.1212836429476738,-0.10129357129335403,-0.16201917827129364,-0.1739519089460373,-0.17367546260356903,-0.16501842439174652,0.04942925274372101,-0.13504040241241455,-0.12708063423633575,-0.14461323618888855,-0.13848617672920227,-0.10805065929889679,0.05334210395812988,0.16641169786453247,0.08396482467651367,0.0951547920703888,0.11771249771118164,0.13321128487586975,0.054623231291770935,0.06794369220733643,0.044956281781196594,0.06972366571426392,-0.07031523436307907,-0.06241825222969055,0.12264975905418396,-0.060009658336639404,-0.09878124296665192,0.08447426557540894,-0.16136178374290466,-0.16105249524116516,0.06495216488838196,-0.030217379331588745,-0.030274182558059692,-0.004201531410217285,-0.13788947463035583,0.024855315685272217},
{-0.18674728274345398,0.11905089020729065,-0.0006099194288253784,-0.11463212221860886,0.10097673535346985,0.13125655055046082,-0.0961918756365776,-0.01773156225681305,-0.18631504476070404,0.064150869846344,-0.0036980807781219482,0.1471506953239441,-0.15466801822185516,-0.08797240257263184,-0.05153509974479675,0.1632721722126007,-0.1847178041934967,-0.027693718671798706,-0.06325428187847137,-0.001890718936920166,0.10541209578514099,-0.13722342252731323,-0.1308082789182663,0.0638173520565033,0.005596369504928589,-0.08470982313156128,0.02101197838783264,0.0021578967571258545,-0.058670684695243835,0.15748241543769836,-0.11976276338100433,0.1311628520488739,0.0455479770898819,0.18304681777954102,0.17882823944091797,-0.12210806459188461,0.049038365483284,0.017846539616584778,-0.1744571179151535,-0.029053136706352234,0.1611456274986267,-0.11914119124412537},
{0.1513606607913971,-0.11701145768165588,0.04939063638448715,0.1405060887336731,-0.07020290195941925,-0.039126843214035034,-0.09425177425146103,-0.023651761934161186,0.17023256421089172,-0.024092810228466988,0.07669056951999664,0.0963049978017807,0.01519889384508133,0.02558080665767193,0.17086386680603027,-0.08675152063369751,0.13336406648159027,0.10467672348022461,0.0586320124566555,-0.18877439200878143,-0.10794335603713989,-0.1538364589214325,0.18273518979549408,0.1127992793917656,0.019018368795514107,-0.03906184807419777,-0.01563769020140171,0.1705983430147171,0.15451595187187195,-0.06906750798225403,0.09505624324083328,0.022604065015912056,0.06651393324136734,-0.04820578172802925,-0.15690089762210846,-0.10106650739908218,0.13991069793701172,-0.20441000163555145,-0.32304632663726807,-0.13082073628902435,0.01418235432356596,0.11751851439476013},
{0.12016530334949493,-0.030658399686217308,0.051102425903081894,-0.006430914159864187,0.16873764991760254,-0.11872945725917816,0.03288671746850014,-0.032689258456230164,0.06404809653759003,-0.0734449103474617,-0.1791490763425827,-0.11525651812553406,-0.09218445420265198,0.13011321425437927,-0.07289186120033264,0.07851283997297287,0.14872494339942932,0.08279339969158173,-0.17966973781585693,-0.06798914819955826,-0.1887011080980301,-0.06317365169525146,0.1233314722776413,0.07421010732650757,-0.007827973924577236,-0.057821448892354965,-0.08108778297901154,-0.05419287085533142,-0.05058557167649269,-0.13262784481048584,-0.018825003877282143,0.13189217448234558,-0.07266061753034592,-0.12041585892438889,0.003618757240474224,-0.008333868347108364,-0.004951265640556812,-0.1560305505990982,-0.03096364438533783,-0.059439558535814285,0.08911541104316711,-0.07467460632324219},
{-0.1129176914691925,0.10491709411144257,0.08871542662382126,0.0035795129369944334,0.16834138333797455,0.16358254849910736,0.14073744416236877,0.15456882119178772,-0.10948081314563751,-0.14008182287216187,0.05234285444021225,-0.035163652151823044,-0.08971409499645233,-0.04657449573278427,-0.0011550498893484473,0.007491306401789188,-0.24503499269485474,0.06835175305604935,0.16351723670959473,-0.11659520119428635,0.10922759026288986,0.10000914335250854,0.008341734297573566,-0.09274246543645859,0.14086031913757324,-0.14758801460266113,-0.1032552719116211,0.12520302832126617,-0.17622511088848114,0.008460558019578457,0.05082171410322189,-0.10216045379638672,-0.12965230643749237,-0.16819290816783905,0.17308494448661804,0.002714393427595496,0.12814007699489594,-0.13513457775115967,-0.12124219536781311,0.043503593653440475,-0.2240791767835617,0.058776289224624634},
{-0.0557774156332016,0.1732523888349533,0.1741013079881668,0.058395616710186005,-0.18120551109313965,0.09098242968320847,-0.1402864307165146,-0.020014429464936256,-0.1027727872133255,-0.19416013360023499,-0.013990755192935467,-0.10965649038553238,0.09643697738647461,0.11005844175815582,0.0433175154030323,-0.12629052996635437,-0.02961703948676586,-0.12635549902915955,0.14056921005249023,-0.15349499881267548,-0.16256581246852875,-0.03387770056724548,0.18562224507331848,0.08573844283819199,0.03495177626609802,-0.025567013770341873,-0.10594959557056427,-0.013962200842797756,-0.06527210772037506,-0.0034128788392990828,-0.1859617531299591,0.0016011311672627926,0.04424614831805229,0.09775851666927338,-0.12713442742824554,-0.1351209580898285,0.2013348489999771,-0.14850972592830658,-0.12244394421577454,0.1398007720708847,0.025640830397605896,0.11828906834125519},
{-0.178669735789299,-0.01108879130333662,0.05045471712946892,0.14498968422412872,0.03413265570998192,0.12502464652061462,-0.0291924849152565,-0.048732317984104156,0.06610545516014099,-0.051859963685274124,0.1002521887421608,0.07579052448272705,-0.1349329948425293,-0.04455409571528435,-0.0379987433552742,0.1758892834186554,0.16808466613292694,-0.14594382047653198,-0.029088187962770462,-0.07042857259511948,-0.04014158248901367,0.11436103284358978,-0.13966743648052216,0.10847906768321991,-0.08297548443078995,0.1213558241724968,-0.16095174849033356,0.002259331988170743,-0.0392470583319664,0.023110071197152138,0.17803955078125,0.17004236578941345,0.07663664221763611,-0.01895022764801979,-0.12185092270374298,0.15816402435302734,-0.06708738952875137,0.04158322140574455,-0.009180504828691483,-0.09833834320306778,-0.020945144817233086,-0.011272961273789406},
{0.10365541279315948,-0.10075829178094864,-0.26443785429000854,-0.14296181499958038,-0.18480552732944489,-0.25089648365974426,-0.11638724058866501,-0.11668159067630768,-0.1424921602010727,0.026719538494944572,-0.0996604934334755,-0.11318513751029968,0.025881361216306686,0.013661236502230167,0.07996539026498795,-0.06992068886756897,-0.18498681485652924,0.10596665740013123,-0.0595916286110878,-0.09416759014129639,-0.15010397136211395,0.18038491904735565,-0.0581364631652832,0.09896282851696014,-0.08052277565002441,-0.11032997071743011,-0.06223037466406822,-0.07264895737171173,0.11643920838832855,0.09558197110891342,0.16388960182666779,0.11214579641819,-0.15513387322425842,0.13371802866458893,-0.19553343951702118,-0.2101757973432541,0.05288102105259895,-0.18417809903621674,-0.00044184637954458594,-0.05126142501831055,-0.14294378459453583,-0.12999001145362854},
{-0.04626002907752991,0.1833246499300003,-0.06276056915521622,-0.12360622733831406,0.1537899672985077,0.06950124353170395,0.18358676135540009,-0.046673547476530075,-0.15797118842601776,-0.1918586790561676,-0.05327070504426956,0.11714231967926025,0.1292131543159485,-0.1814611852169037,-0.03347858786582947,0.042114779353141785,0.040530648082494736,-0.056917957961559296,0.1189412921667099,-0.05841297283768654,0.1523967832326889,-0.016326047480106354,-0.1285969316959381,-0.173113614320755,0.04124375432729721,0.1004762351512909,-0.17591966688632965,0.06184305250644684,-0.02342827618122101,0.16055810451507568,-0.05322093889117241,0.034769028425216675,0.01583404466509819,-0.08234503120183945,0.1015472412109375,0.08578000962734222,-0.17667269706726074,-0.15699604153633118,0.21982380747795105,-0.12221743911504745,0.09654038399457932,-0.08454560488462448},
{-0.0735919401049614,0.16468532383441925,0.12472555041313171,0.22417519986629486,0.09414386749267578,-0.07351882755756378,0.13661499321460724,-0.08380497246980667,0.11642391234636307,0.09041789919137955,0.03160633519291878,-0.12891530990600586,-0.1431577056646347,0.021746216341853142,0.16941002011299133,0.1186661645770073,-0.059977542608976364,-0.17117226123809814,-0.035084232687950134,0.007837696000933647,-0.18555638194084167,0.143083393573761,-0.11770395934581757,0.14464153349399567,-0.09087379276752472,0.1100623831152916,-0.03618169575929642,-0.032550908625125885,-0.049146950244903564,-0.24430668354034424,-0.26251810789108276,0.02223980613052845,0.11510803550481796,0.1479177176952362,0.17120333015918732,-0.08058042079210281,-0.1993408352136612,-0.10518372058868408,0.2841765880584717,-0.0675320029258728,-0.11915677040815353,0.09672843664884567},
{0.08296222239732742,-0.057083625346422195,0.09847621619701385,-0.024833451956510544,-0.078778937458992,0.12984663248062134,0.17973437905311584,-0.2029329389333725,0.10848870128393173,-0.007838585413992405,-0.011599465273320675,0.07250171899795532,-0.13473083078861237,-0.042152900248765945,-0.05190453678369522,-0.08691805601119995,-0.16442573070526123,-0.1604064404964447,-0.060678884387016296,-0.22886988520622253,0.0034957402385771275,-0.04836513102054596,-0.09176670759916306,0.17006497085094452,-0.2992565333843231,-0.01972677931189537,-0.2533726394176483,0.1151006892323494,0.11341103166341782,-0.014597269706428051,-0.07744541764259338,0.1973406970500946,0.0999835655093193,0.2900014817714691,-0.023590438067913055,0.16463732719421387,-0.07163332402706146,-0.2088460922241211,0.1851678341627121,-0.10243398696184158,-0.05628952756524086,0.036580927670001984},
{0.16828224062919617,0.14591391384601593,0.14591549336910248,-0.06323553621768951,0.053318753838539124,-0.008431225083768368,-0.05224134773015976,-0.1423170268535614,-0.13853546977043152,-0.07919623702764511,0.1908198446035385,-0.1623375117778778,-0.13454221189022064,0.0849585086107254,-0.15196150541305542,-0.03329577296972275,-0.07243075966835022,-0.05557917430996895,-0.11259288340806961,0.1334109902381897,0.09131957590579987,0.004477869253605604,0.014674941077828407,-0.00349792605265975,-0.050861507654190063,0.11254529654979706,0.13756446540355682,0.0018848649924620986,-0.0765315517783165,0.1935855895280838,0.14141616225242615,0.00804508663713932,0.11428926885128021,0.02388199418783188,-0.14645566046237946,0.023337608203291893,-0.013842582702636719,0.09568099677562714,-0.09444253891706467,0.15994685888290405,-0.17402812838554382,-0.029169820249080658},
{0.10946038365364075,-0.17559221386909485,0.046014443039894104,-0.2613215446472168,0.017146991565823555,0.05168789252638817,-0.1650393158197403,-0.15164531767368317,-0.05411794036626816,-0.0745253935456276,-0.007513484917581081,-0.05536126717925072,0.10229615122079849,0.12931613624095917,-0.11252262443304062,-0.11372646689414978,-0.0848039761185646,-0.043077852576971054,0.12362739443778992,-0.03657977655529976,-0.14531561732292175,0.0680004134774208,0.24681293964385986,-0.2544929087162018,0.10111818462610245,0.13673202693462372,0.07375714927911758,-0.007687898352742195,0.13817550241947174,0.0013720500282943249,0.1396058350801468,0.30078983306884766,0.07748627662658691,0.02566075697541237,0.10808715969324112,0.04096129536628723,0.14745281636714935,0.14107097685337067,-0.24654130637645721,0.08849561959505081,-0.03669033199548721,0.06306423246860504},
{-0.12379997968673706,-0.16387014091014862,-0.19723382592201233,-0.004356823395937681,-0.24290180206298828,-0.08477426320314407,-0.07552748918533325,0.22711971402168274,0.019260594621300697,0.16309015452861786,0.11081265658140182,-0.09332275390625,-0.13318157196044922,-0.05491572618484497,-0.1445220559835434,-0.10577072203159332,-0.08975030481815338,0.13389982283115387,-0.09986169636249542,-0.06187426671385765,-0.08045484125614166,-0.1756799966096878,-0.11182373762130737,-0.15238028764724731,-0.02818603627383709,-0.11886685341596603,-0.03615770861506462,-0.13550978899002075,0.10860742628574371,0.048173755407333374,0.25723183155059814,-0.15859298408031464,-0.3703814446926117,0.2172269970178604,0.1456044465303421,0.14432291686534882,0.10596490651369095,-0.035629596561193466,-0.06644388288259506,0.06455036252737045,-0.05344466120004654,0.08100380003452301},
{0.1495095193386078,0.08806227147579193,0.031892407685518265,-0.010152075439691544,0.0855986550450325,0.0756899043917656,0.1060066670179367,0.15294696390628815,0.1305418759584427,-0.0012361649423837662,-0.10921337455511093,0.006317653693258762,-0.18571384251117706,-0.08209095150232315,0.026706961914896965,-0.021313410252332687,0.020151104778051376,-0.014467642642557621,-0.018577678129076958,0.17268437147140503,-0.12850993871688843,0.0334625244140625,0.044947270303964615,0.11916449666023254,0.15933148562908173,-0.054648011922836304,0.049293916672468185,0.08396071195602417,-0.11628947407007217,0.19659073650836945,-0.004558378364890814,-0.08673619478940964,0.026734068989753723,-0.016400502994656563,-0.19803322851657867,0.025606514886021614,0.14196783304214478,0.1565120667219162,-0.07596001029014587,-0.24715140461921692,-0.011857452802360058,-0.05534768104553223},
{-0.1022859737277031,-0.07625671476125717,0.008979324251413345,0.04617838189005852,0.06065880507230759,-0.009764245711266994,-0.10384786874055862,-0.051222316920757294,0.13207602500915527,0.10237134248018265,0.1667250543832779,-0.17750440537929535,0.13832958042621613,-0.14999788999557495,0.04122648760676384,0.03269350901246071,-0.1297445297241211,0.1558017134666443,-0.03207030147314072,-0.05784528702497482,-0.02840348891913891,-0.0664522796869278,0.08455169945955276,0.06604378670454025,0.06571265310049057,0.013355512171983719,0.08275742083787918,-0.11971362680196762,0.05538823455572128,0.19516049325466156,-0.09620184451341629,-0.1522212028503418,0.13735659420490265,0.07591457664966583,-0.10790049284696579,0.08154916018247604,0.07194291055202484,0.07239773124456406,-0.08771751075983047,-0.17565646767616272,-0.08162326365709305,-0.018523072823882103},
{-0.021235914900898933,0.09365741163492203,-0.027437148615717888,-0.1952914297580719,-0.2551994323730469,0.10944221168756485,-0.10161177814006805,0.01785667985677719,0.19849106669425964,-0.01950022764503956,0.10155149549245834,0.03328373283147812,-0.014429120346903801,-0.026504190638661385,0.15023395419120789,0.13054624199867249,0.09326867014169693,-0.0809985101222992,0.07918637245893478,-0.03301478922367096,0.08146808296442032,0.1497730016708374,-0.10603103786706924,-0.1054823026061058,-0.08641602098941803,-0.18690255284309387,0.052154768258333206,-0.06432286649942398,-0.031857360154390335,-0.08455445617437363,-0.1080600917339325,0.14940784871578217,0.058923859149217606,0.017043162137269974,0.0034736141096800566,0.05739511922001839,0.15017341077327728,0.18497778475284576,-0.08083628863096237,-0.17182178795337677,-0.21624918282032013,-0.1314757615327835},
{-0.09699427336454391,0.16454759240150452,0.17132088541984558,-0.15884582698345184,0.1588345766067505,0.0658845454454422,-0.03303869813680649,-0.06195554882287979,0.195487841963768,-0.08967886120080948,0.15534526109695435,-0.0158334132283926,-0.17420025169849396,-0.10690536350011826,0.19188183546066284,-0.18263773620128632,-0.01838509365916252,0.02381671778857708,0.14641718566417694,-0.14709614217281342,0.038772258907556534,-0.07731045037508011,0.07820587605237961,-0.04555399715900421,-0.16155776381492615,0.09904441237449646,0.004788779653608799,0.04783381149172783,0.06932350248098373,-0.11579152941703796,-0.3719579875469208,0.062388427555561066,0.07912497967481613,0.0165012888610363,0.1430886685848236,-0.15137867629528046,0.09701288491487503,-0.2634766101837158,-0.19552814960479736,-0.24726536870002747,-0.2626091241836548,-0.1801956444978714},
{0.12184951454401016,-0.07843005657196045,0.04186490550637245,-0.06486349552869797,0.07241225242614746,0.04565577208995819,0.09249456971883774,-0.19427016377449036,0.13046854734420776,-0.11471068859100342,0.14262942969799042,0.11305398494005203,-0.003363420022651553,-0.14442358911037445,0.0008665145724080503,0.11204946786165237,0.04038737341761589,-0.05043438449501991,-0.14930607378482819,0.13242089748382568,0.1857307404279709,0.016989491879940033,-0.06606007367372513,-0.08324884623289108,-0.16370466351509094,0.05299513414502144,0.08747229725122452,0.017163092270493507,0.11828933656215668,-0.10273163765668869,-0.049292631447315216,0.11224517226219177,0.18939441442489624,0.10724665224552155,0.034778743982315063,-0.09055784344673157,0.015523610636591911,0.09000977128744125,-0.04365011677145958,0.053603872656822205,-0.05716651678085327,-0.10870677977800369},
{-0.010276799090206623,0.030078338459134102,-0.1397784799337387,0.06219618767499924,-0.0074115172028541565,-0.027321532368659973,0.03486417233943939,-0.01145098451524973,0.019604986533522606,-0.0013640965335071087,0.01638018898665905,0.19363634288311005,-0.09593073278665543,-0.10281773656606674,0.13463105261325836,-0.12601220607757568,-0.004499875474721193,-0.157759889960289,-0.0665077418088913,-0.02253025211393833,0.0036683075595647097,0.09388292580842972,0.07135304808616638,0.1651068925857544,0.11503119021654129,-0.2545914947986603,-0.12278392910957336,0.029252460226416588,-0.06013205274939537,-0.014690744690597057,-0.23058520257472992,0.06490594148635864,-0.013086650520563126,-0.2134096622467041,0.03894304856657982,0.04304442182183266,0.0022796685807406902,-0.06806495040655136,-0.2246064394712448,0.09460854530334473,-0.1886618584394455,-0.1400635987520218},
{-0.20317643880844116,-0.12928374111652374,-0.04588134214282036,0.19430232048034668,0.15445882081985474,-0.044808339327573776,-0.0929580107331276,0.13884848356246948,-0.018114039674401283,0.09281104058027267,0.03653716668486595,-0.03448069840669632,0.16253893077373505,-0.11145801842212677,-0.08775686472654343,0.06559602916240692,0.13131456077098846,-0.12652777135372162,0.045634955167770386,-0.037896592170000076,-0.1629927158355713,0.03727046772837639,-0.006883108522742987,0.048071131110191345,-0.021014774218201637,-0.005711363162845373,0.1044987291097641,-0.0003840267891064286,0.004050031770020723,-0.10463188588619232,-0.03428084775805473,-0.02907515875995159,-0.1479630023241043,-0.12972745299339294,-0.1760094165802002,-0.12228897958993912,-0.0877893939614296,-0.16178862750530243,0.030372049659490585,-0.11935844272375107,0.08857402205467224,0.12428246438503265},
{-0.09685464203357697,-0.04502056911587715,0.1571413278579712,-0.02212030440568924,-0.04679514095187187,-0.10600057989358902,-0.11392764002084732,0.09157134592533112,-0.018786419183015823,-0.0012575286673381925,-0.16503596305847168,-0.10725098103284836,-0.08876068890094757,0.06588931381702423,0.10900015383958817,0.14308230578899384,0.0637686476111412,0.17838577926158905,0.03851350396871567,-0.05491724610328674,-0.15457464754581451,0.007559558842331171,-0.15006417036056519,0.17897556722164154,-0.08881397545337677,0.09378316253423691,-0.08241984248161316,0.011614171788096428,-0.07787574082612991,-0.09243366122245789,-0.1890028417110443,-0.008871283382177353,0.004629186354577541,0.16422365605831146,-0.12890727818012238,-0.16655340790748596,-0.10788724571466446,-0.17739370465278625,-0.09037946909666061,-0.08463849127292633,-0.07715259492397308,0.08891958743333817},
{0.04656149446964264,0.03837958350777626,0.13510218262672424,0.03991900011897087,0.14163421094417572,0.05353032425045967,0.13483759760856628,-0.10633109509944916,0.12244396656751633,0.17829428613185883,-0.1914314478635788,0.0176759772002697,-0.06993282586336136,0.17080584168434143,0.05389735475182533,0.19251881539821625,0.08501004427671432,0.006487683858722448,-0.013689955696463585,-0.16046683490276337,-0.02792164497077465,-0.02052682265639305,0.12311390787363052,-0.16884782910346985,-0.04777361825108528,0.12220311164855957,-0.19126152992248535,-0.02269739843904972,0.06571637839078903,0.004577502142637968,0.16161015629768372,0.030097657814621925,-0.3036911189556122,-0.07718325406312943,-0.12553246319293976,-6.766380101907998e-05,0.050858817994594574,0.021274598315358162,0.1668965220451355,0.12768955528736115,0.2623327076435089,-0.15325665473937988},
{0.08518121391534805,0.02181638777256012,-0.02677585370838642,0.25171834230422974,-0.2090028077363968,0.07116801291704178,-0.015841828659176826,-0.017103835940361023,-0.13498908281326294,0.00401108106598258,0.015674399212002754,-0.1585996299982071,0.10390852391719818,-0.02304654009640217,0.09131433814764023,0.11516620963811874,-0.012933028861880302,0.129648819565773,-0.11970212310552597,-0.013548271730542183,-0.0011233673430979252,0.13256755471229553,-0.25889381766319275,-0.0019621006213128567,-0.20813025534152985,0.16329695284366608,0.09274870902299881,0.11254382878541946,-0.12078990787267685,0.20712636411190033,-0.027186598628759384,-0.11812631785869598,-0.02451949566602707,0.15210415422916412,-0.19512124359607697,-0.14112034440040588,0.18145912885665894,0.07218059152364731,0.27174848318099976,0.10446172952651978,-0.03403368219733238,0.008423218503594398},
{-0.04792531207203865,0.07180970907211304,-0.036643676459789276,-0.07230564206838608,0.13299289345741272,0.009542309679090977,-0.0002126433391822502,0.16811013221740723,0.08855529874563217,0.16728723049163818,-0.12841904163360596,0.06628440320491791,0.1739516407251358,-0.18202055990695953,-0.07732835412025452,0.13751451671123505,0.17830625176429749,-0.16153264045715332,0.04732571542263031,0.0894702672958374,0.028273867443203926,-0.18748116493225098,0.15173175930976868,0.14517256617546082,-0.017805414274334908,0.021380171179771423,-0.12015922367572784,-0.16039018332958221,0.11930455267429352,0.0032878436613827944,-0.16760490834712982,-0.03057701885700226,0.060999877750873566,0.07764463871717453,-0.029501544311642647,-0.135258287191391,0.07818278670310974,0.04881422966718674,-0.08105378597974777,0.06009918823838234,0.05819283798336983,-0.05540208891034126},
{0.08297742158174515,0.17573657631874084,0.14705313742160797,-0.2283933460712433,0.22596314549446106,0.02602490782737732,-0.17710787057876587,0.10388722270727158,0.005513410083949566,-0.0019421818433329463,-0.2099398672580719,0.17394180595874786,0.1250211000442505,-0.07658737897872925,0.02830333635210991,-0.13508115708827972,0.052222054451704025,-0.2032206505537033,-0.03756903484463692,0.15608131885528564,-0.027696404606103897,-0.17738258838653564,0.15187963843345642,0.22732457518577576,-0.08483471721410751,-0.010800223797559738,0.07331203669309616,0.08033280819654465,-0.07682161033153534,-0.15688708424568176,-0.1929129660129547,0.14702509343624115,-0.17136305570602417,-0.07688559591770172,-0.059993572533130646,0.1296253800392151,-0.03184656426310539,0.030096109956502914,-0.21804744005203247,-0.21759648621082306,0.14128386974334717,-0.17071175575256348},
{-0.16676563024520874,0.01443440280854702,0.10874898731708527,-0.05281820520758629,-0.08986403793096542,-0.12223845720291138,0.10245359688997269,-0.1537710428237915,0.11663805693387985,0.1183837279677391,0.0010975442128255963,0.0841621458530426,0.15238036215305328,0.1568835824728012,0.035333093255758286,0.08582229167222977,-6.787561869714409e-05,-0.22097139060497284,0.11278713494539261,0.08159749954938889,0.14810378849506378,0.04991036280989647,-0.15464751422405243,0.16438861191272736,0.029981253668665886,-0.16882845759391785,-0.13467159867286682,0.11982510983943939,-0.11266954243183136,0.06834898144006729,-0.13743075728416443,-0.18218204379081726,-0.09346815943717957,-0.12236092239618301,-0.01691501960158348,-0.14291682839393616,0.15327151119709015,0.009516268037259579,0.013375821523368359,0.031069135293364525,0.129424050450325,0.1364252120256424},
{-0.10946651548147202,0.02083435468375683,0.06650032848119736,0.25272390246391296,-0.004884722642600536,-0.0918981209397316,0.13493558764457703,-0.02236689254641533,0.12605267763137817,0.05128508433699608,0.17261338233947754,-0.0600101575255394,-0.16431337594985962,0.16370956599712372,-0.11467241495847702,-0.15876612067222595,0.22384966909885406,0.07435602694749832,-0.08159121125936508,0.26877158880233765,0.09248930215835571,0.22072838246822357,0.05920489877462387,0.028802210465073586,-0.3331710398197174,-0.027581214904785156,0.0504450649023056,0.10508520156145096,-0.07929370552301407,0.16078414022922516,-0.04736325889825821,0.025087902322411537,0.26592007279396057,0.03416590765118599,0.17477460205554962,-0.02499191090464592,0.15432123839855194,0.07925808429718018,-0.00040617751074023545,-0.10898194462060928,0.010261685587465763,-0.021513428539037704},
{-0.05917450413107872,0.05505984649062157,-0.06575531512498856,0.13551567494869232,0.011667770333588123,0.08056111633777618,-0.11481454223394394,-0.020796004682779312,-0.07913729548454285,-0.16447411477565765,0.25076812505722046,0.150471493601799,-0.0893872082233429,0.1477135270833969,0.1781013011932373,0.06664978712797165,0.12071371078491211,-0.17374257743358612,-0.16045868396759033,-0.19402644038200378,0.1173478290438652,-0.005785895511507988,0.1264646202325821,-0.03139790892601013,0.13772240281105042,-0.10178708285093307,-0.19374404847621918,-0.08313579112291336,0.1614726036787033,0.11132670938968658,-0.12109997123479843,-0.17382033169269562,0.1640598028898239,-0.17818528413772583,-0.018543457612395287,-0.1442044973373413,0.02416904829442501,-0.09029395133256912,-0.05649109184741974,0.06612296402454376,0.03845357894897461,-0.05200668051838875},
{-0.1598091870546341,-0.0916765034198761,0.08478684723377228,0.19919587671756744,-0.21698185801506042,-0.19304746389389038,0.09006931632757187,0.10194022953510284,-0.10561424493789673,-0.001765687484294176,0.02576529234647751,0.16821029782295227,0.15401452779769897,-0.12046948075294495,0.11648477613925934,-0.07040560990571976,0.2334156334400177,0.0020908971782773733,0.23290275037288666,0.12475863844156265,0.0548662468791008,-0.047362327575683594,-0.12902256846427917,-0.2191106677055359,-0.10156362503767014,0.17329314351081848,-0.092153400182724,-0.20619571208953857,-0.033367618918418884,-0.16746017336845398,-0.01764235831797123,-0.23752716183662415,0.050788212567567825,-0.12139932066202164,0.03308277949690819,0.02589373290538788,-0.08749048411846161,-0.12242498248815536,-0.010380401276051998,-0.16855265200138092,-0.06586235761642456,-0.17156200110912323},
{0.020352192223072052,0.05929389223456383,-0.024659445509314537,0.13314461708068848,-0.13888968527317047,-0.08004379272460938,-0.010102908127009869,-0.16902922093868256,-0.0492178313434124,-0.16502203047275543,0.15612144768238068,-0.17299747467041016,-0.019892675802111626,-0.08920859545469284,0.04890372231602669,-0.04978722333908081,-0.1762024611234665,-0.0788293182849884,0.07154864072799683,0.06245531141757965,0.07637988775968552,-0.10241871327161789,0.03526800870895386,0.13382276892662048,-0.028961002826690674,0.1748160421848297,0.025162065401673317,0.034052904695272446,-0.1284816414117813,0.07072700560092926,-0.03389693796634674,-0.03210293874144554,0.10590165108442307,0.008542419411242008,0.12089399993419647,-0.06737437099218369,0.10698620229959488,0.05868915468454361,6.272779137361795e-05,-0.12861751019954681,-0.01184080634266138,0.0907098799943924},
{0.14842772483825684,0.1411680430173874,0.18580904603004456,0.0509994775056839,0.077048160135746,0.14336061477661133,-0.20713026821613312,0.05721600353717804,-0.056494999676942825,0.09217517822980881,0.05497089773416519,-0.2060350924730301,-0.028945904225111008,0.04419384524226189,0.10797668993473053,0.0005138064152561128,-0.03677855804562569,0.09835367649793625,0.05815066397190094,-0.06053948774933815,-0.0342036597430706,-0.012689579278230667,-0.059969376772642136,-0.1789974570274353,0.16147767007350922,0.11689455807209015,0.25835034251213074,0.12451246380805969,-0.1261286586523056,0.04255509376525879,-0.25060227513313293,-0.18834391236305237,0.24387989938259125,0.007357553578913212,0.013309961184859276,-0.09333766251802444,0.018365612253546715,0.12321717292070389,0.015050114132463932,-0.21237489581108093,-0.06511751562356949,0.1394219994544983},
{-0.025095220655202866,-0.12681463360786438,-0.07342167943716049,-0.1315375119447708,0.12776704132556915,-0.038159918040037155,0.00922534242272377,0.00454493286088109,0.11201198399066925,-0.07714162766933441,-0.040639009326696396,-0.06288106739521027,-0.10660242289304733,0.00982961431145668,-0.09541738033294678,0.062435977160930634,-0.11990247666835785,-0.002919028280302882,0.17208412289619446,0.06589586287736893,0.1230153813958168,0.15412934124469757,-0.04156618192791939,-0.19087475538253784,0.27776557207107544,0.15052206814289093,0.1357651650905609,-0.013277447782456875,-0.043816953897476196,0.06775873899459839,-0.11298122256994247,0.07156164944171906,-0.04179627075791359,0.02015412598848343,0.015725912526249886,0.18676020205020905,0.11661174148321152,0.04632069915533066,-0.16330833733081818,-0.1610807329416275,0.0226359311491251,0.12392221391201019},
{0.15544822812080383,-0.058131441473960876,-0.015585765242576599,-0.02514462172985077,0.13479146361351013,0.02539670467376709,-0.0745997205376625,-0.03739434480667114,-0.012312427163124084,0.10880172252655029,0.004135385155677795,0.07733950018882751,-0.1771179735660553,-0.17897899448871613,-0.009477734565734863,0.17926472425460815,-0.10482857376337051,-0.16660076379776,-0.03379449248313904,-0.007797494530677795,-0.10548315197229385,-0.03143127262592316,-0.053417399525642395,-0.009361326694488525,-0.12435352802276611,-0.12806272506713867,-0.05569279193878174,0.1193382740020752,-0.05192899703979492,0.1270371377468109,0.15399032831192017,0.16657406091690063,-0.1291806995868683,-0.09131009876728058,-0.15940919518470764,-0.12170848250389099,-0.06588736921548843,-0.08504503965377808,-0.0591219961643219,0.14389148354530334,-0.17665353417396545,-0.1259050965309143},
{-0.029535621404647827,0.11563140153884888,0.16735240817070007,0.07777506113052368,-0.11495551466941833,0.08218249678611755,0.09834766387939453,-0.02799619734287262,0.11670976877212524,-0.13371619582176208,-0.06293819099664688,0.1809920370578766,-0.1318030059337616,-0.1809217631816864,-0.093195840716362,-0.010427623987197876,-0.13972380757331848,0.12550246715545654,0.059147655963897705,-0.10410846769809723,-0.07742016762495041,-0.17421461641788483,-0.047562405467033386,0.1149817705154419,-0.11776529997587204,-0.13887380063533783,0.10836660861968994,0.01935739815235138,0.07562047243118286,-0.06446243077516556,0.13645628094673157,0.014619618654251099,-0.157915860414505,-0.18673522770404816,0.08032459020614624,0.1331104040145874,0.12232154607772827,-0.08289556205272675,0.0983569324016571,0.10899418592453003,0.11894595623016357,0.1635502576828003},
{-0.21605227887630463,-0.13291169703006744,-0.10689961165189743,-0.01612652651965618,0.0443878099322319,-0.07770226895809174,-0.05852401256561279,0.13808561861515045,-0.11618681997060776,-0.18974433839321136,-0.1024075299501419,0.10337715595960617,-0.041994597762823105,0.16028472781181335,0.14325712621212006,0.1761951744556427,-0.07496708631515503,0.08701781928539276,0.03666362166404724,0.034845780581235886,-0.1569305956363678,0.13592512905597687,-0.16003482043743134,-0.11172892153263092,0.24950747191905975,-0.05633717030286789,0.05596546083688736,-0.10828986018896103,-0.13533318042755127,-0.09541548788547516,-0.05126090720295906,-0.05524633824825287,0.1021854355931282,0.08713717758655548,0.11490372568368912,-0.11325327306985855,0.23439933359622955,-0.1170373260974884,0.033235687762498856,0.17677108943462372,0.06174759194254875,-0.07040844112634659},
{-0.016794787719845772,-0.1380738466978073,0.11792602390050888,-0.222283273935318,-0.12077121436595917,0.13570864498615265,-0.22932900488376617,0.10416308045387268,-0.08582893013954163,-0.13625802099704742,-0.1684858202934265,-0.11270351707935333,0.06343444436788559,0.07781588286161423,0.06079009175300598,-0.016866756603121758,0.06767842918634415,-0.11668597906827927,-0.15994715690612793,-0.08682345598936081,-0.03450389206409454,0.05508624017238617,-0.08718132227659225,0.23557718098163605,-0.026304272934794426,0.1108674481511116,0.1275123506784439,-0.016357876360416412,0.013464796356856823,-0.04976188391447067,-0.09128326922655106,0.025316406041383743,-0.17005743086338043,-0.049317408353090286,-0.11982424557209015,-0.11702413856983185,0.05677218362689018,0.1341698169708252,0.020123427733778954,-0.0559796504676342,0.01222345232963562,0.13650840520858765},
{-0.050748661160469055,0.13461169600486755,0.16311302781105042,0.09943309426307678,-0.12352672964334488,-0.13758158683776855,-0.04530319571495056,0.03027351200580597,-0.11766855418682098,-0.05892866849899292,-0.16067498922348022,0.14307492971420288,0.09019720554351807,-0.06707728654146194,-0.11716268211603165,0.0031636804342269897,0.09872704744338989,-0.10850358754396439,-0.14730827510356903,0.13077759742736816,-0.07020200043916702,-0.11828353255987167,0.14400511980056763,0.08670127391815186,0.11033761501312256,0.06701794266700745,-0.10388697683811188,-0.007118150591850281,-0.04911576211452484,-0.11358289420604706,0.035579949617385864,-0.007445484399795532,-0.03260618448257446,0.09473598003387451,0.10138064622879028,-0.03612375259399414,0.15743610262870789,-0.02335423231124878,-0.045834630727767944,-0.14682403206825256,0.10000547766685486,-0.052141085267066956},
{-0.006329030264168978,0.0581488162279129,0.1289016604423523,0.03529076278209686,-0.0669465959072113,0.15329940617084503,0.02810828574001789,0.005302207078784704,-0.07872898876667023,0.10707744210958481,0.023528125137090683,0.02671230025589466,0.0647641271352768,-0.2099408209323883,0.10179734975099564,0.042305756360292435,-0.032423488795757294,0.0020237958524376154,-0.06230390816926956,-0.06766066700220108,0.1346607357263565,0.07865146547555923,-0.07366780936717987,-0.201102614402771,0.1342625916004181,0.01817265897989273,0.001458430546335876,0.03557639569044113,-0.12675687670707703,0.04622509703040123,-0.19935277104377747,-0.1469617635011673,0.05049019306898117,-0.2755460739135742,0.06765247881412506,-0.14368151128292084,-0.18917416036128998,-0.03658175468444824,-0.14370843768119812,-0.13377779722213745,-0.1962910145521164,0.08116354048252106},
{0.1498476266860962,-0.08141058683395386,-0.2841908633708954,-0.07083345949649811,0.16603907942771912,-0.1116170808672905,0.1337698996067047,-0.02702832780778408,0.17567305266857147,0.11079095304012299,0.06238526478409767,0.1270231306552887,-0.021739095449447632,-0.076164111495018,-0.10081139206886292,0.10732671618461609,0.35363703966140747,0.12535236775875092,0.0460859015583992,0.13728077709674835,0.10579551756381989,0.031206047162413597,-0.06602025777101517,-0.25159987807273865,0.1671995222568512,0.19211415946483612,-0.008221779018640518,0.1763838529586792,0.041595324873924255,-0.08979403972625732,-0.11790966987609863,-0.008879153057932854,0.041472531855106354,0.10162094980478287,0.08773569017648697,0.21892084181308746,0.13512228429317474,-0.06101347506046295,-0.2155141830444336,-0.012462269514799118,0.12815268337726593,0.21844498813152313},
{-0.021087249740958214,-0.011951393447816372,0.034166742116212845,0.03370475396513939,-0.04852168634533882,-0.02777636982500553,0.037387143820524216,0.0897858589887619,-0.1275658905506134,-0.01545779686421156,0.10422635823488235,0.08764908462762833,-0.14353951811790466,0.09031300246715546,-0.18564851582050323,-0.04977916553616524,0.07989651709794998,-0.019779695197939873,-0.05893981456756592,0.19131577014923096,-0.010919117368757725,-0.046800632029771805,-0.06417324393987656,-0.013118341565132141,0.012861090712249279,-0.04461408406496048,0.1592639833688736,-0.055539458990097046,-0.08905919641256332,-0.09651163965463638,-0.17393338680267334,-0.20237109065055847,-0.06994111835956573,-0.1673932820558548,-0.1870601773262024,0.07718631625175476,-0.018100956454873085,0.025909315794706345,-0.16392098367214203,-0.034917932003736496,-0.0317486897110939,0.1432664841413498},
{-0.07712569832801819,-0.01991075836122036,-0.16207119822502136,-0.21105030179023743,0.119535893201828,-0.18151016533374786,-0.11119464784860611,0.11247207224369049,-0.10046295821666718,0.023274170234799385,-0.14342190325260162,-0.12953557074069977,-0.08425731211900711,0.013594216667115688,0.12402520328760147,-0.11349241435527802,-0.18867607414722443,-0.004929495509713888,0.010448435321450233,-0.1018003299832344,-0.1687772572040558,0.11372296512126923,-0.02296873927116394,0.09205346554517746,0.03447583690285683,0.0633421391248703,0.10261806100606918,0.02714069001376629,-0.10658669471740723,0.18355301022529602,0.16121603548526764,0.12055665999650955,0.007306193001568317,0.038426999002695084,0.17421747744083405,-0.061171870678663254,0.16046182811260223,-0.11175470799207687,-0.12182403355836868,-0.0611356645822525,0.11950473487377167,0.09021396189928055},
{-0.0928390845656395,0.016576895490288734,-0.06594301015138626,-0.14811588823795319,-0.08245903998613358,-0.16928493976593018,-0.04452960938215256,0.11270498484373093,-0.04166705906391144,0.11821810901165009,0.016610117629170418,0.0662619024515152,0.1274116486310959,0.015385443344712257,0.016889050602912903,0.12796510756015778,-0.11901170015335083,-0.031698063015937805,-0.04237152263522148,-0.03402591124176979,-0.023801445960998535,-0.053597066551446915,0.06470729410648346,0.04802354425191879,0.10716485977172852,0.1507652997970581,-0.20858556032180786,0.029858248308300972,0.009415856562554836,0.23206381499767303,0.07045885175466537,0.04983222112059593,-0.033781684935092926,0.15536265075206757,-0.1250975877046585,-0.18869419395923615,0.23929136991500854,-0.18274737894535065,0.15803289413452148,-0.047146059572696686,0.011397568508982658,0.011175827123224735},
{0.08840956538915634,-0.04559814929962158,0.022023800760507584,-0.1252913624048233,-0.05939151719212532,-0.18733027577400208,0.12463460117578506,-0.09919530898332596,0.17581064999103546,0.1080242171883583,-0.11414314061403275,-0.1734885573387146,-0.04370306059718132,-0.04338151589035988,-0.17379240691661835,-0.018973181024193764,-0.06689202040433884,0.10514326393604279,-0.17266424000263214,-0.10121729224920273,-0.09665947407484055,-0.1945970356464386,-0.15366804599761963,-0.09456685185432434,-0.159693643450737,0.11553328484296799,-0.2202126830816269,0.1200336217880249,-0.14724493026733398,-0.13390402495861053,0.07175509631633759,0.058829665184020996,0.04634285345673561,0.055909834802150726,0.056622665375471115,-0.025792498141527176,-0.09248241037130356,0.04623487964272499,0.0038075170014053583,-0.05315927788615227,0.024287963286042213,0.11906400322914124},
{0.07375866174697876,-0.14782314002513885,0.05606738477945328,-0.02718089148402214,0.2705078423023224,0.03130335733294487,-0.14608024060726166,-0.0578213594853878,0.17809796333312988,0.14857117831707,-0.21015870571136475,-0.059622325003147125,0.08192998915910721,0.19574105739593506,-0.12157868593931198,-0.00724128820002079,0.02648838423192501,-0.024705810472369194,-0.08684340864419937,-0.11652763187885284,0.031841032207012177,-0.1516103446483612,0.07196331024169922,-0.020317062735557556,-0.06673181802034378,0.12444835156202316,-0.06430616229772568,0.031161710619926453,0.2040734887123108,0.05450474098324776,0.11964694410562515,0.28455108404159546,-0.2663205564022064,0.14820709824562073,-0.014130474999547005,-0.10146377235651016,0.0678325742483139,-0.14351239800453186,0.12378719449043274,-0.03774763271212578,0.2826545536518097,0.137139230966568},
{-0.1854875385761261,-0.002391526009887457,-0.07026010751724243,-0.04311534762382507,0.00870274007320404,0.04051012545824051,-0.14906135201454163,-0.06228146329522133,-0.2056010663509369,0.06864503026008606,0.0013428262900561094,-0.09916752576828003,-0.014508668333292007,0.12886545062065125,0.13872095942497253,0.029210956767201424,-0.05656549707055092,-0.07512734085321426,0.07933477312326431,-0.061101801693439484,-0.004348244052380323,0.009987607598304749,-0.025486521422863007,0.0018959348089993,0.08715717494487762,-0.036007240414619446,-0.134417325258255,-0.21469104290008545,-0.04871990159153938,0.05185093730688095,0.2741720378398895,0.16346560418605804,-0.0959363579750061,-0.09536823630332947,-0.15674015879631042,0.05884180963039398,-0.09557213634252548,-0.033200424164533615,0.10680963099002838,0.2478427141904831,0.06457792967557907,-0.16886954009532928},
{-0.036555107682943344,-0.07137082517147064,0.14973634481430054,0.02046496979892254,0.0738339051604271,-0.07880767434835434,0.14330044388771057,-0.16319559514522552,0.16410888731479645,0.0772164836525917,0.14913302659988403,-0.10927669703960419,0.09190729260444641,0.12739239633083344,-0.15696145594120026,-0.04208771884441376,-0.11380704492330551,-0.059459853917360306,-0.1468779444694519,-0.06782104074954987,-0.08171261847019196,0.0635140985250473,-0.2191961109638214,-0.01675657369196415,-0.3702201843261719,-0.06946031004190445,0.050693679600954056,0.12950769066810608,0.06156134977936745,-0.17209342122077942,-0.14216338098049164,0.14724880456924438,0.3484872579574585,0.17675858736038208,0.13146257400512695,-0.18025487661361694,-0.12131603807210922,-0.133580282330513,-0.10646546632051468,0.08016259968280792,-0.23076248168945312,-0.024604713544249535},
{-0.01740790531039238,0.007030808832496405,-0.08518218249082565,0.0965723916888237,0.10669831186532974,0.1124543771147728,-0.16998377442359924,0.05587409436702728,0.04270031675696373,0.029510218650102615,0.012583971954882145,0.08903023600578308,0.028175756335258484,0.031207546591758728,-0.02352100983262062,-0.14613430202007294,-0.0067612407729029655,0.06713984906673431,-0.18344467878341675,0.1294431984424591,0.10762272030115128,0.024397728964686394,-0.03820096328854561,0.1327410787343979,-0.09151314198970795,0.07310407608747482,-0.1507713496685028,-0.15612532198429108,-0.01612248457968235,0.12854012846946716,-0.09757987409830093,-0.03631396219134331,0.07882746309041977,-0.2578414976596832,-0.015549412928521633,-0.13509508967399597,0.10716546326875687,-0.16406354308128357,0.18760718405246735,-0.09896893054246902,-0.14044204354286194,-0.09466833621263504},
{-0.026881856843829155,-0.09771671891212463,-0.1661791205406189,0.17175959050655365,-0.13807065784931183,-0.08218890428543091,0.07432563602924347,0.129411518573761,0.011353309266269207,-0.10835816711187363,0.020294642075896263,-0.19362616539001465,-0.010056665167212486,-0.0802331194281578,0.08752083778381348,-0.09718122333288193,-0.008720760233700275,-0.03638093173503876,-0.006332264747470617,-0.09364226460456848,-0.11215271800756454,0.07257360219955444,-0.02134629897773266,-0.2598688304424286,0.11827193200588226,0.13944482803344727,0.03544950857758522,-0.25008511543273926,-0.03030015341937542,-0.033745989203453064,0.23533682525157928,-0.045210253447294235,-0.04275989159941673,0.05392494425177574,-0.14131154119968414,-0.15193405747413635,0.25223997235298157,-0.07526832818984985,0.10526161640882492,-0.0456276498734951,0.04353947564959526,0.1674034744501114},
{-0.15331833064556122,-0.24627375602722168,0.08021912723779678,-0.19349168241024017,0.10497824847698212,0.02158295549452305,0.1570117175579071,0.17703144252300262,0.03798842057585716,0.10426905751228333,-0.11818395555019379,-0.09341727197170258,-0.10627715289592743,-0.13106851279735565,-0.10202401131391525,0.18594181537628174,0.1012822836637497,0.10530568659305573,0.14709509909152985,0.08195143938064575,0.10079704970121384,-0.13845759630203247,-0.09502774477005005,0.14882411062717438,0.07643724977970123,0.2154044806957245,0.0028939051553606987,0.15212956070899963,0.0371008962392807,0.059908099472522736,0.010884486138820648,0.14975948631763458,0.08206408470869064,-0.16047261655330658,-0.01517352182418108,0.15448448061943054,-0.09606657177209854,0.1539817452430725,-0.13299965858459473,-0.13398610055446625,-0.05991746112704277,0.07220364362001419},
{-0.019471392035484314,-0.1151101365685463,0.17593422532081604,0.02289709448814392,-0.01407352089881897,0.09724664688110352,-0.011473536491394043,-0.019253835082054138,0.11507892608642578,-0.11169504374265671,-0.11240807175636292,-0.009889006614685059,0.09811416268348694,-0.022060126066207886,-0.15740126371383667,0.0027830004692077637,0.14359134435653687,-0.016364142298698425,-0.17001697421073914,-0.04360659420490265,-0.18669308722019196,0.12933528423309326,0.17354100942611694,-0.14771327376365662,0.0476841926574707,0.08237844705581665,0.06183736026287079,0.18537059426307678,-0.11877820640802383,0.16274210810661316,0.13113731145858765,-0.08493171632289886,0.17396226525306702,-0.12510225176811218,-0.0619024932384491,0.03794948756694794,-0.05619005858898163,0.16460472345352173,-0.17752857506275177,0.10528337955474854,0.06382855772972107,0.04006478190422058},
{0.016561344265937805,0.0905056968331337,0.08693870157003403,-0.003875932190567255,-0.037704385817050934,0.04724458232522011,-0.03729318082332611,0.12237720191478729,0.2114526480436325,0.16747651994228363,0.10992668569087982,0.2513851523399353,0.2221854329109192,-0.050671063363552094,-0.1161438524723053,-0.17820699512958527,0.29127025604248047,-0.09936373680830002,0.1276961714029312,0.02981509454548359,-0.04401157423853874,-0.14388816058635712,-0.1360131800174713,-0.06438777595758438,0.16263717412948608,0.05354560911655426,0.16239231824874878,0.10336372256278992,0.09868721663951874,-0.04333113878965378,-0.05535469949245453,-0.1849869191646576,-0.09646335989236832,-0.06515125185251236,-0.021207662299275398,-0.1546340137720108,0.12043392658233643,0.09834885597229004,-0.25827541947364807,-0.08151790499687195,-0.10920526087284088,0.21133366227149963},
{0.13175129890441895,-0.09408150613307953,-0.07011207193136215,0.10341058671474457,-0.02288152277469635,0.13075871765613556,-0.019553812220692635,0.057312607765197754,0.18382225930690765,-0.035587504506111145,0.04194819554686546,-0.08051174134016037,-0.0765010267496109,-0.20380565524101257,0.1279972940683365,0.1567360907793045,-0.037560123950242996,-0.13840220868587494,0.24513691663742065,0.10234303772449493,-0.14138098061084747,0.09465445578098297,-0.08967164158821106,0.018689261749386787,0.06578657031059265,0.21493448317050934,-0.07869935780763626,0.08583133667707443,0.14159569144248962,0.20573894679546356,-0.008412165567278862,0.13422098755836487,-0.16719186305999756,-0.21752534806728363,0.14641812443733215,0.059371739625930786,-0.058898214250802994,-0.02238372527062893,-0.21019884943962097,0.08364284783601761,-0.015756601467728615,-0.02929665893316269},
{0.13322150707244873,-0.0752701684832573,-0.016463197767734528,0.07516651600599289,-0.16133363544940948,0.005613191984593868,-0.21597373485565186,-0.05074209347367287,0.07829941809177399,-0.049919649958610535,-0.13910901546478271,-0.10036886483430862,0.14875198900699615,0.10570009052753448,-0.15622931718826294,0.1523033231496811,0.14960519969463348,-0.18607613444328308,0.062439337372779846,0.06059114634990692,0.035060856491327286,-0.110874705016613,0.21482780575752258,0.14949403703212738,-0.13201461732387543,-0.10741497576236725,0.06734758615493774,-0.20153634250164032,-0.04353184252977371,0.1208065003156662,-0.009296652860939503,0.08311488479375839,0.16643160581588745,-0.056683119386434555,-0.05657079070806503,-0.14511118829250336,0.145723357796669,-0.18376867473125458,0.08240759372711182,-0.09282025694847107,0.11650828272104263,0.09531598538160324},
{0.004714063368737698,-0.11389951407909393,-0.25594496726989746,0.16349658370018005,-0.13779136538505554,-0.047858886420726776,0.07458017766475677,0.15603062510490417,-0.043737299740314484,-0.10263887047767639,0.1396753042936325,-0.044415563344955444,0.010131989605724812,0.06720496714115143,-0.06592736393213272,0.04192548617720604,-0.012889856472611427,0.008938822895288467,-0.016218148171901703,-0.0354003980755806,-0.0793585255742073,0.0341934859752655,0.04713909700512886,-0.09244683384895325,-0.18053889274597168,0.011028056032955647,0.00046013432438485324,-0.13693897426128387,0.07789099216461182,0.1966852843761444,0.11328428238630295,0.044330570846796036,-0.219241663813591,0.07741406559944153,0.11562740057706833,-0.13954226672649384,-0.013673819601535797,0.10068004578351974,-0.25174951553344727,0.09590689837932587,-0.2553471624851227,-0.14834213256835938},
{0.1179082915186882,0.16453538835048676,0.06484639644622803,-0.0555388480424881,-0.07696805894374847,-0.12348919361829758,0.004687688313424587,0.001301709096878767,0.056486960500478745,0.06665495038032532,-0.027006464079022408,-0.15574897825717926,-0.20843850076198578,0.08642862737178802,-0.041834861040115356,0.062092892825603485,0.11535919457674026,-0.1394187957048416,-0.01930081471800804,-0.06540835648775101,0.15244580805301666,-0.00020789724658243358,0.0822424665093422,-0.11377709358930588,-0.2901476323604584,0.16746853291988373,0.03989044576883316,-0.06805337965488434,-0.06704197078943253,0.05711507052183151,-0.04548574239015579,0.058944445103406906,-0.008817272260785103,-0.009790615178644657,0.1534671187400818,-0.02853228896856308,-0.10795003175735474,0.08467023819684982,-0.18567317724227905,0.028941791504621506,-0.30662402510643005,0.06898393481969833},
{-0.010064506903290749,-0.17494718730449677,0.07531715929508209,0.04506894201040268,0.2552812099456787,0.04108507186174393,-0.02430681511759758,-0.10048800706863403,0.22417178750038147,-0.19404782354831696,0.05286203697323799,0.030634349212050438,0.10268951207399368,-0.12124314904212952,0.03635846823453903,-0.11716391891241074,-0.11700525879859924,0.03307131677865982,-0.1633143275976181,-0.18181462585926056,0.11632010340690613,-0.15553030371665955,-0.0860990658402443,-0.07943006604909897,-0.12516045570373535,-0.11051425337791443,0.16476477682590485,-0.11732427775859833,0.10407764464616776,-0.17924810945987701,-0.17514128983020782,-0.20207302272319794,0.2641761600971222,0.11652442067861557,0.07732749730348587,0.09886807203292847,0.05679451674222946,-0.07842829823493958,0.0690917819738388,-0.06970570981502533,-0.13029281795024872,-0.09517747163772583},
{0.06330175697803497,-0.009203149005770683,-0.191362664103508,0.06088513135910034,-0.16837775707244873,-0.026429740712046623,0.022631730884313583,-0.1138053610920906,0.03219049796462059,-0.16618457436561584,0.1826145052909851,0.19576561450958252,0.025337716564536095,0.09022675454616547,0.04332577437162399,-0.12572182714939117,0.19190332293510437,0.08177133649587631,0.09623827785253525,-0.053323984146118164,-0.05506394803524017,-0.11019516736268997,-0.14598463475704193,-0.056763313710689545,0.09354417026042938,-0.006299592554569244,0.09165727347135544,-0.23928587138652802,-0.17132966220378876,0.17553111910820007,0.3033905327320099,0.08168479055166245,-0.30952396988868713,0.015644414350390434,0.12880107760429382,0.12796306610107422,0.12786729633808136,0.08005344867706299,0.14734381437301636,0.12206445634365082,0.3263835906982422,0.11468398571014404},
{0.1423286646604538,0.01221514493227005,0.22638380527496338,-0.30463021993637085,0.15611544251441956,-0.1993020474910736,-0.12985177338123322,-0.16190215945243835,0.11981832981109619,0.1534373164176941,-0.09983775019645691,-0.14225658774375916,0.057883575558662415,0.19105607271194458,-0.09118980914354324,-0.11490532010793686,0.21310900151729584,-0.08627622574567795,-0.10872756689786911,-0.18266043066978455,-0.05534619092941284,0.09763649106025696,-0.16660040616989136,0.13425928354263306,-0.14931631088256836,0.23789158463478088,-0.07018272578716278,0.21170589327812195,0.008045007474720478,0.11676706373691559,0.14159072935581207,0.3391623795032501,0.22194913029670715,0.3640096187591553,-0.04899107664823532,0.05467239394783974,0.1655048429965973,-0.07113935798406601,-0.1283293068408966,0.09347399324178696,0.040631070733070374,0.0897238478064537},
{0.12497097253799438,-0.11577194929122925,0.02056102268397808,0.2334868609905243,-0.05641048401594162,-0.09243904799222946,0.030198700726032257,-0.0443425327539444,0.14900341629981995,-0.1206543892621994,0.014678003266453743,-0.2713758051395416,-0.1505376696586609,0.06838343292474747,0.02942286990582943,0.08647535741329193,-0.07551267743110657,0.13645730912685394,-0.1640011966228485,0.15533755719661713,-0.09606317430734634,-0.0607454888522625,-0.10620494931936264,-0.11596866697072983,0.07797359675168991,-0.15940822660923004,0.05929943919181824,0.15396377444267273,-0.055776920169591904,-0.10717150568962097,-0.11829906702041626,0.02839745581150055,0.018605312332510948,0.03177691251039505,-0.04092254489660263,0.14566023647785187,0.07048452645540237,-0.11681485921144485,0.10406675934791565,-0.036045677959918976,-0.08465766161680222,-0.09621823579072952},
{0.11555343866348267,0.17849434912204742,-0.14350402355194092,0.038956258445978165,-0.05601849779486656,0.04910000413656235,-0.0029504040721803904,-0.1481359452009201,0.09556928277015686,-0.024404313415288925,0.0536179393529892,-0.04762488603591919,-0.018907103687524796,0.08793352544307709,-0.032402437180280685,-0.18317832052707672,-0.1477888524532318,0.10828971862792969,0.0404425784945488,-0.1847464144229889,0.1410997211933136,-0.12256338447332382,-0.1671394556760788,0.1597653180360794,-0.15680572390556335,-0.18075458705425262,0.06960277259349823,-0.054003577679395676,0.16230341792106628,-0.12594184279441833,0.06412874162197113,0.0009493373800069094,0.09262899309396744,0.1878151297569275,-0.06170332804322243,-0.026680832728743553,0.02644909732043743,0.005572895985096693,-0.06811875849962234,0.037751805037260056,-0.06311197578907013,-0.15402765572071075},
{0.14806388318538666,-0.1940571665763855,-0.06169484555721283,-0.24382559955120087,-0.05414219945669174,-0.18584533035755157,0.09746931493282318,0.13024313747882843,0.11002352088689804,-0.00768188526853919,0.11823727935552597,-0.11360526084899902,-0.17180070281028748,-0.06291550397872925,-0.060219839215278625,-0.1312246471643448,0.0320761501789093,0.2191845178604126,-0.06786321848630905,0.06114142760634422,-0.02747981622815132,-0.09449993818998337,0.1683369278907776,-0.019812388345599174,-0.028742166236042976,0.28601956367492676,-0.06200961023569107,-0.1196785718202591,-0.059688080102205276,0.11344314366579056,-0.08728574216365814,0.0906602293252945,-0.19058826565742493,0.10204828530550003,0.0548563078045845,0.08762297034263611,-0.18262866139411926,0.19118401408195496,0.16858208179473877,0.19963842630386353,0.1887422651052475,0.18604597449302673},
{-0.12745022773742676,-0.156355619430542,-0.15036840736865997,-0.0036876306403428316,0.08922745287418365,-0.03464600816369057,-0.1337052434682846,0.16039028763771057,0.0840318351984024,-0.1761331856250763,-0.08258336037397385,0.06046108156442642,0.11434830725193024,-0.16676542162895203,-0.0837647095322609,-0.17852620780467987,0.09461576491594315,0.168354332447052,-0.12930256128311157,-0.08442643284797668,0.07986542582511902,-0.12468702346086502,0.003239232115447521,-0.0011370207648724318,-0.14492608606815338,-0.15521405637264252,0.012410647235810757,0.04386145994067192,-0.0785561352968216,-0.05415787547826767,0.0873178094625473,-0.16409701108932495,-0.08692660927772522,-0.13707250356674194,-0.046741317957639694,-0.085227370262146,0.18533295392990112,-0.04825246334075928,0.14973731338977814,-0.061090510338544846,0.044582583010196686,-0.1882353574037552},
{-0.15562942624092102,-0.08144623786211014,-0.08652301877737045,0.02669164538383484,-0.059305958449840546,-0.09328462183475494,-0.029250625520944595,-0.0898333266377449,-0.017026765272021294,0.025970347225666046,0.026184752583503723,-0.2100982666015625,-0.04558229073882103,0.07270883023738861,0.13855159282684326,-0.1411626785993576,-0.11831176280975342,0.039548084139823914,0.06280244141817093,0.18990957736968994,-0.0016740977298468351,-0.2046511471271515,0.05236407741904259,0.11175921559333801,-0.11980906873941422,0.21777451038360596,0.25698962807655334,0.12718930840492249,0.024759145453572273,0.04211826249957085,0.034298695623874664,0.1570487916469574,0.3333745002746582,0.28051212430000305,0.06804988533258438,0.028587041422724724,-0.16507098078727722,-0.10427411645650864,-0.11060411483049393,-0.24699503183364868,-0.10808662325143814,0.04807508364319801},
{-0.09314548224210739,0.03433198854327202,0.11586777865886688,0.18633823096752167,-0.047427356243133545,0.12092937529087067,0.19119372963905334,0.06609170883893967,0.13061535358428955,0.1731538325548172,-0.07366340607404709,-0.06614772230386734,0.048051588237285614,-0.00411465298384428,-0.027004903182387352,0.015922605991363525,-0.26143965125083923,0.01038909051567316,0.0625164657831192,-0.2403913289308548,0.06799676269292831,-0.12915989756584167,-0.12061645835638046,-0.08831189572811127,-0.17387640476226807,-0.216306671500206,0.010090705938637257,-0.03884006664156914,0.056926894932985306,0.1989264190196991,0.03540874272584915,0.16470351815223694,-0.0563601590692997,-0.122593455016613,-0.131325364112854,-0.11190801113843918,0.015741141512989998,0.09724438190460205,0.010775868780910969,-0.0618915781378746,-0.07509862631559372,0.08663668483495712},
{-0.10852666199207306,0.2471320629119873,0.05786876007914543,-0.03820008039474487,0.038242027163505554,0.23555949330329895,0.038196586072444916,0.11934994906187057,0.08025827258825302,-0.12395583093166351,-0.15212015807628632,0.05420302227139473,0.03516557812690735,0.03997344523668289,0.13705165684223175,-0.11476317048072815,0.13749746978282928,-0.045884545892477036,-0.11058684438467026,-0.05258429795503616,-0.16908954083919525,-0.18112096190452576,0.09850571304559708,0.1519392728805542,0.26164495944976807,0.014686491340398788,0.10915195941925049,0.03577572852373123,0.029166048392653465,-0.1158972680568695,-0.05773475766181946,-0.04131283238530159,-0.3492642045021057,-0.12325041741132736,-0.10370882600545883,0.13412460684776306,-0.0008172547677531838,0.18672001361846924,0.05352192372083664,0.05775604024529457,0.01719224825501442,-0.14759784936904907},
{-0.1360040009021759,-0.011678323149681091,-0.14775684475898743,0.13983440399169922,0.07249081134796143,0.14900973439216614,-0.18468156456947327,0.0022789686918258667,0.183810293674469,0.04668015241622925,0.07930395007133484,0.07914167642593384,-0.06318888813257217,-0.09234651923179626,-0.0973668321967125,-0.02076929807662964,0.1440241038799286,-0.02968311309814453,-0.18282268941402435,0.05969688296318054,0.010076820850372314,-0.13710102438926697,-0.09671211987733841,0.08040773868560791,-0.1842500865459442,0.10603457689285278,-0.1783829629421234,0.054635897278785706,-0.12464892864227295,0.06482407450675964,0.014223754405975342,-0.022526085376739502,-0.002309069037437439,-0.021635830402374268,0.08979475498199463,-0.046169981360435486,0.10834753513336182,-0.030684247612953186,-0.15370787680149078,-0.0912904292345047,-0.038446709513664246,0.1809702217578888},
{0.11000154167413712,-0.10605909675359726,0.1722349375486374,-0.07745924592018127,-0.2374601513147354,0.18778584897518158,0.07596611976623535,-0.09320635348558426,-0.042815495282411575,0.07982353866100311,0.07501550018787384,-0.0172299575060606,-0.07339312136173248,0.0699382945895195,-0.07222636044025421,-0.003597482806071639,-0.06035919487476349,-0.08683683723211288,0.0994020625948906,-0.07099626958370209,0.026743365451693535,0.004882789216935635,0.18129819631576538,0.0637979507446289,0.022737178951501846,0.004601777996867895,-0.1230844259262085,0.10512344539165497,0.016425268724560738,-0.041095804423093796,0.12758545577526093,0.15745167434215546,-0.02954120934009552,-0.09742694348096848,-0.1976267248392105,0.04522063210606575,0.1444191336631775,0.05809938162565231,0.001828668755479157,0.0020483790431171656,-0.18115316331386566,-0.11672275513410568},
{0.054252490401268005,0.052733562886714935,-0.09263955801725388,-0.17531079053878784,0.1370505690574646,-0.06843112409114838,-0.018321389332413673,0.14255718886852264,0.07762566953897476,-0.08373119682073593,0.12704339623451233,0.07911591231822968,-0.1476069688796997,-0.17405229806900024,0.06987300515174866,-0.0668150782585144,-0.001086717820726335,-0.2285088300704956,-0.026149075478315353,0.012542159296572208,0.12432757765054703,-0.1320776790380478,-0.05119938403367996,0.06369588524103165,-0.21335388720035553,-0.03164464607834816,-0.011728030629456043,-0.0857754498720169,0.027940357103943825,0.0956517904996872,0.050127819180488586,0.15719063580036163,0.13924771547317505,0.2233182191848755,0.08653812110424042,0.08603218197822571,0.15497097373008728,-0.08712641894817352,-0.1404479593038559,0.10179015249013901,0.1625790297985077,-0.1691635251045227},
{0.05814520642161369,0.022346679121255875,0.1199154406785965,0.06783925741910934,-0.009001554921269417,0.17645715177059174,0.15606120228767395,-0.01113154087215662,-0.11421195417642593,0.02348010055720806,-0.06798013299703598,-0.07432226836681366,0.08633071929216385,0.06649591773748398,-0.0025502219796180725,0.1867784559726715,-0.07934987545013428,-0.10077681392431259,0.051623180508613586,-0.08911655843257904,0.07887502014636993,-0.12560564279556274,-0.14205287396907806,-0.0808124989271164,-0.0016391893150284886,-0.2666425406932831,0.02524317055940628,-0.0906243696808815,-0.07932116091251373,0.19572490453720093,0.10853378474712372,0.0037526972591876984,0.225043386220932,-0.0784069299697876,-0.20609797537326813,-0.08394307643175125,0.12275063246488571,0.044861484318971634,0.11248614639043808,-0.07311015576124191,0.060135554522275925,-0.01508464477956295},
{0.031057287007570267,0.010236892849206924,-0.2690141499042511,-0.10182608664035797,-0.09798607975244522,-0.05053882673382759,-0.16018925607204437,0.1442851573228836,-0.06280332803726196,0.15174901485443115,-0.045014217495918274,-0.23737098276615143,-0.008454382419586182,0.073524110019207,-0.04045737162232399,0.026918938383460045,0.1430002599954605,-0.16069839894771576,0.03745678812265396,0.09240876883268356,-0.009509804658591747,-0.1013033539056778,-0.15408290922641754,-0.001301601412706077,0.0941624641418457,-0.10043253004550934,-0.08174432069063187,-0.13902629911899567,0.024110931903123856,0.1470220685005188,0.08869375288486481,0.09578340500593185,-0.2527596056461334,-0.0918331891298294,-0.10563230514526367,-0.045685894787311554,-0.06095556914806366,-0.1546396166086197,0.009292412549257278,-0.07425491511821747,-0.06971237063407898,-0.08323411643505096},
{-0.17765916883945465,-0.06621718406677246,0.1017097681760788,-0.23859578371047974,-0.0608987919986248,0.10526889562606812,0.058422062546014786,0.003864764701575041,0.04300513491034508,-0.021307090297341347,-0.20963402092456818,0.04154560714960098,-0.027309011667966843,0.012069600634276867,0.022064795717597008,0.11970449239015579,-0.008090549148619175,-0.0661654993891716,0.029981914907693863,-0.09325561672449112,0.09780073165893555,0.06573715806007385,-0.0706976130604744,-0.06903661787509918,-0.10128575563430786,0.1357332170009613,0.14041617512702942,0.12021604925394058,0.09256156533956528,-0.13931208848953247,0.2052672803401947,-0.08499288558959961,-0.23470789194107056,0.1453724503517151,0.06389499455690384,-0.16073840856552124,-0.13172033429145813,0.16619814932346344,0.06142039969563484,-0.030656293034553528,0.09610564261674881,0.15728077292442322},
{0.07737509161233902,0.08855936676263809,-0.008563920855522156,0.15837809443473816,-0.08631563186645508,-0.13244760036468506,-0.04540065675973892,0.13759711384773254,0.08016229420900345,-0.14622296392917633,-0.20092211663722992,0.03763384744524956,-0.16100741922855377,0.03138070926070213,0.03710402920842171,0.06116737797856331,-0.08598711341619492,-0.009995763190090656,0.042523253709077835,0.1336507648229599,-0.17736369371414185,0.033441003412008286,-0.1558082550764084,0.01835636794567108,-0.19059816002845764,0.08352699130773544,-0.057774562388658524,-0.11653325706720352,0.05321912467479706,0.0775691568851471,0.02029280923306942,0.15976421535015106,0.2170403152704239,-0.032936714589595795,0.1323052942752838,0.16063202917575836,0.08829275518655777,-0.11436233669519424,0.22112113237380981,0.039942167699337006,0.021135490387678146,-0.13114909827709198},
{0.030946971848607063,0.04207530617713928,-0.06604702770709991,-0.09181071072816849,-0.023353956639766693,0.21618829667568207,-0.019574230536818504,0.0037518709432333708,0.16419251263141632,-0.15870781242847443,-0.25277724862098694,-0.03824707493185997,0.16683360934257507,-0.14218111336231232,-0.02298174425959587,-0.07154920697212219,-0.15313705801963806,-0.1181497648358345,-0.058567337691783905,-0.08600739389657974,0.14138513803482056,-0.06417816877365112,-0.02833062782883644,0.07456638664007187,-0.01463180873543024,-0.02426065132021904,0.12994542717933655,0.21302726864814758,0.10926574468612671,-0.21115103363990784,0.04230126738548279,-0.22030344605445862,0.03902459889650345,-0.04654381424188614,0.1602579653263092,-0.04320539906620979,0.15435753762722015,0.14943085610866547,0.0371023453772068,-0.277203768491745,-0.24435074627399445,0.034782540053129196},
{0.03168712928891182,0.20185799896717072,0.23693813383579254,0.00513174943625927,0.20519597828388214,-0.04972061514854431,0.17087270319461823,0.11679743230342865,-0.06574263423681259,-0.041387226432561874,-0.044711921364068985,-0.25840815901756287,-0.06275761872529984,0.11385500431060791,0.02878645807504654,0.12241628766059875,-0.05437973141670227,0.09088112413883209,-0.1640641838312149,-0.10484642535448074,-0.07561084628105164,-0.07410604506731033,-0.1641688197851181,0.04679169878363609,-0.09237902611494064,0.15301045775413513,-0.19031846523284912,-0.09175977110862732,-0.1059221401810646,-0.1831871122121811,-0.01009517814964056,0.14498010277748108,0.057645779103040695,0.1737334430217743,0.15377646684646606,-0.14544111490249634,-0.017528366297483444,-0.11824090033769608,0.11904096603393555,-0.02461199089884758,0.1513744741678238,-0.11772327870130539},
{0.13209836184978485,0.08085115998983383,-0.21143190562725067,0.12103033810853958,0.1221432015299797,0.011626578867435455,0.09350694715976715,0.11788804084062576,0.08614753931760788,-0.04269217327237129,-0.10273783653974533,-0.2084566056728363,-0.16656027734279633,-0.08444087207317352,-0.10021328926086426,0.13896498084068298,-0.23037280142307281,0.02597634494304657,0.11496171355247498,-0.23087498545646667,-0.13855259120464325,-0.0027197995223104954,-0.01929556392133236,-0.07836929708719254,-0.2184029519557953,-0.15080036222934723,0.1431005746126175,-0.12778934836387634,0.05297208949923515,-0.08817128837108612,0.03068222478032112,-0.1192810907959938,0.14531666040420532,0.0038797908928245306,0.0454009585082531,0.1356225311756134,0.11952610313892365,-0.11677367985248566,-0.058534473180770874,0.05642174556851387,-0.2175222784280777,-0.08469164371490479},
{-0.14356927573680878,0.2049456685781479,-0.017494890838861465,0.14082707464694977,0.056244511157274246,-0.15660306811332703,0.14560388028621674,0.2026820331811905,-0.13332700729370117,0.11922133713960648,-0.17175240814685822,-0.17030242085456848,-0.21270254254341125,-0.1504901498556137,0.12471015751361847,0.20524868369102478,0.18139660358428955,0.014067343436181545,-0.0015720990486443043,-0.06022002547979355,-0.010249904356896877,0.048650383949279785,0.04992615431547165,-0.11975745111703873,-0.19667528569698334,0.2968270182609558,-0.2047766149044037,-0.2042614221572876,-0.08177053928375244,-0.01672368310391903,0.08833993971347809,-0.08200686424970627,0.16393887996673584,0.0847422257065773,0.16351370513439178,0.15222835540771484,-0.05168025940656662,-0.03887372463941574,0.14715953171253204,0.05947209522128105,0.07204754650592804,0.08946511894464493},
{0.04276406764984131,-0.17709709703922272,0.031510621309280396,0.13782717287540436,-0.07618218660354614,0.15233242511749268,0.03964977338910103,-0.09830480068922043,-0.11764860898256302,-0.1320013403892517,0.2527524530887604,0.15226994454860687,0.10442361235618591,-0.1411396861076355,-0.044466760009527206,0.04701166972517967,-0.18024209141731262,0.1984444409608841,0.22637812793254852,0.06359362602233887,0.13151641190052032,0.0027420106343925,0.04101814329624176,0.15184293687343597,0.120703786611557,-0.3659660220146179,0.017337258905172348,0.12982439994812012,-0.06293994188308716,-0.02196200005710125,-0.30359703302383423,-0.2154647558927536,0.0020023882389068604,-0.12735459208488464,-0.09726076573133469,-0.06151430681347847,-0.18809613585472107,0.10186202824115753,-0.2927282750606537,-0.13950099050998688,-0.228101447224617,-0.02851879596710205},
{0.004195295739918947,0.17062731087207794,0.07217106223106384,-0.050314467400312424,0.08284550160169601,-0.11059240996837616,-0.16584347188472748,-0.09822136908769608,0.06634429097175598,0.15099023282527924,-0.160390242934227,-0.1529034525156021,0.12200998514890671,-0.04470444470643997,-0.014808142557740211,-0.07057904452085495,0.0032838224433362484,-0.1701679825782776,-0.09468062222003937,-0.08301068842411041,0.16101104021072388,-0.12381666898727417,-0.023614974692463875,-0.15475091338157654,0.12011437863111496,0.01868777722120285,-0.14693370461463928,-0.09685450792312622,-0.02075739949941635,0.10762977600097656,0.007425056770443916,0.000261800509179011,-0.1791413277387619,-0.05486138537526131,0.12379316240549088,-0.057284608483314514,0.1860763430595398,0.0953407809138298,-0.16522085666656494,-0.07005133479833603,-0.08834420144557953,0.06878810375928879},
{-0.16541138291358948,0.061760228127241135,-0.1149773821234703,-0.03431751951575279,0.050945743918418884,0.033903568983078,-0.0750834122300148,0.09739430248737335,-0.021102335304021835,-0.0921514630317688,-0.07863518595695496,0.055007994174957275,-0.0651560053229332,0.13912169635295868,0.14311793446540833,0.11383625864982605,-0.058733757585287094,-0.18371732532978058,-0.04329786077141762,0.0075455461628735065,-0.11193199455738068,-0.05825180932879448,0.1529407948255539,0.03094545565545559,0.22175142168998718,-0.06268909573554993,-0.0844348892569542,-0.03001803159713745,0.023180589079856873,0.06705638021230698,0.223774716258049,0.2069665938615799,-0.2922883927822113,-0.12783430516719818,-0.01935911364853382,-0.2073623687028885,-0.08032124489545822,0.028490614145994186,0.003328286577016115,0.1112462729215622,0.22753584384918213,-0.12164345383644104},
{0.03294366970658302,0.1843121200799942,0.10766268521547318,0.15804222226142883,-0.23390942811965942,-0.049748167395591736,0.048346247524023056,0.09382577240467072,-0.030239315703511238,0.1432081013917923,0.040819987654685974,0.07357730716466904,-0.17919711768627167,0.11601512134075165,0.07929190248250961,-0.0479976162314415,-0.006373011041432619,0.2497633397579193,-0.02813046984374523,0.12245332449674606,-0.1430077850818634,-0.1242283508181572,0.0037603683304041624,-0.15389308333396912,0.13683348894119263,-0.10112518072128296,0.05516447126865387,-0.1154598817229271,-0.16444657742977142,-0.013704866170883179,0.24830928444862366,-0.030639925971627235,-0.015992846339941025,-0.007793251425027847,-0.0360577292740345,-0.1486925482749939,0.1941051036119461,0.01344246231019497,0.05352751165628433,-0.03603311628103256,0.17499612271785736,0.138399139046669},
